<?xml version="1.0"?>
<opencv_storage>
<cascade>
  <stageType>BOOST</stageType>
  <featureType>HAAR</featureType>
  <height>25</height>
  <width>25</width>
  <stageParams>
    <boostType>GAB</boostType>
    <minHitRate>9.9500000476837158e-01</minHitRate>
    <maxFalseAlarm>5.0000000000000000e-01</maxFalseAlarm>
    <weightTrimRate>9.4999999999999996e-01</weightTrimRate>
    <maxDepth>1</maxDepth>
    <maxWeakCount>100</maxWeakCount></stageParams>
  <featureParams>
    <maxCatCount>0</maxCatCount>
    <featSize>1</featSize>
    <mode>BASIC</mode></featureParams>
  <stageNum>10</stageNum>
  <stages>
    <!-- stage 0 -->
    <_>
      <maxWeakCount>2</maxWeakCount>
      <stageThreshold>-1.0013072192668915e-01</stageThreshold>
      <weakClassifiers>
        <_>
          <internalNodes>
            0 -1 28 8.0128684639930725e-02</internalNodes>
          <leafValues>
            -9.8294764757156372e-01 9.2736703157424927e-01</leafValues></_>
        <_>
          <internalNodes>
            0 -1 30 6.4557313919067383e-02</internalNodes>
          <leafValues>
            -9.4392585754394531e-01 8.8281691074371338e-01</leafValues></_></weakClassifiers></_>
    <!-- stage 1 -->
    <_>
      <maxWeakCount>3</maxWeakCount>
      <stageThreshold>-8.4935671091079712e-01</stageThreshold>
      <weakClassifiers>
        <_>
          <internalNodes>
            0 -1 8 -1.4655694365501404e-02</internalNodes>
          <leafValues>
            8.1201046705245972e-01 -8.6440676450729370e-01</leafValues></_>
        <_>
          <internalNodes>
            0 -1 7 -2.6484575122594833e-02</internalNodes>
          <leafValues>
            8.8532197475433350e-01 -8.0326730012893677e-01</leafValues></_>
        <_>
          <internalNodes>
            0 -1 36 -2.4315237998962402e-02</internalNodes>
          <leafValues>
            8.1831735372543335e-01 -7.2701936960220337e-01</leafValues></_></weakClassifiers></_>
    <!-- stage 2 -->
    <_>
      <maxWeakCount>3</maxWeakCount>
      <stageThreshold>-9.9225747585296631e-01</stageThreshold>
      <weakClassifiers>
        <_>
          <internalNodes>
            0 -1 24 1.3520327210426331e-01</internalNodes>
          <leafValues>
            -8.3009707927703857e-01 7.7083331346511841e-01</leafValues></_>
        <_>
          <internalNodes>
            0 -1 13 -2.9284521937370300e-02</internalNodes>
          <leafValues>
            5.0561523437500000e-01 -8.5575956106185913e-01</leafValues></_>
        <_>
          <internalNodes>
            0 -1 42 1.6114268451929092e-02</internalNodes>
          <leafValues>
            -6.4780348539352417e-01 6.9359922409057617e-01</leafValues></_></weakClassifiers></_>
    <!-- stage 3 -->
    <_>
      <maxWeakCount>5</maxWeakCount>
      <stageThreshold>-9.3336129188537598e-01</stageThreshold>
      <weakClassifiers>
        <_>
          <internalNodes>
            0 -1 22 1.9062751531600952e-01</internalNodes>
          <leafValues>
            -6.9885057210922241e-01 7.1468144655227661e-01</leafValues></_>
        <_>
          <internalNodes>
            0 -1 4 -1.7201647162437439e-02</internalNodes>
          <leafValues>
            6.3886708021163940e-01 -6.6568201780319214e-01</leafValues></_>
        <_>
          <internalNodes>
            0 -1 39 8.0047659575939178e-03</internalNodes>
          <leafValues>
            -6.9828498363494873e-01 5.6618636846542358e-01</leafValues></_>
        <_>
          <internalNodes>
            0 -1 25 1.5203860588371754e-02</internalNodes>
          <leafValues>
            -7.2309559583663940e-01 5.1298010349273682e-01</leafValues></_>
        <_>
          <internalNodes>
            0 -1 11 -2.0798297598958015e-02</internalNodes>
          <leafValues>
            6.1647617816925049e-01 -5.7294070720672607e-01</leafValues></_></weakClassifiers></_>
    <!-- stage 4 -->
    <_>
      <maxWeakCount>4</maxWeakCount>
      <stageThreshold>-1.7414662837982178e+00</stageThreshold>
      <weakClassifiers>
        <_>
          <internalNodes>
            0 -1 17 8.6994171142578125e-03</internalNodes>
          <leafValues>
            -8.9380532503128052e-01 4.0214216709136963e-01</leafValues></_>
        <_>
          <internalNodes>
            0 -1 5 -3.1167242676019669e-02</internalNodes>
          <leafValues>
            3.6893725395202637e-01 -8.9559841156005859e-01</leafValues></_>
        <_>
          <internalNodes>
            0 -1 15 -1.2308902293443680e-01</internalNodes>
          <leafValues>
            4.1581594944000244e-01 -7.4344259500503540e-01</leafValues></_>
        <_>
          <internalNodes>
            0 -1 0 2.6976242661476135e-02</internalNodes>
          <leafValues>
            -5.0456744432449341e-01 6.4774572849273682e-01</leafValues></_></weakClassifiers></_>
    <!-- stage 5 -->
    <_>
      <maxWeakCount>6</maxWeakCount>
      <stageThreshold>-1.2013164758682251e+00</stageThreshold>
      <weakClassifiers>
        <_>
          <internalNodes>
            0 -1 21 -6.8169653415679932e-02</internalNodes>
          <leafValues>
            4.2194092273712158e-01 -7.6397514343261719e-01</leafValues></_>
        <_>
          <internalNodes>
            0 -1 42 1.9928514957427979e-02</internalNodes>
          <leafValues>
            -5.5593031644821167e-01 5.6622022390365601e-01</leafValues></_>
        <_>
          <internalNodes>
            0 -1 2 -2.6414874941110611e-02</internalNodes>
          <leafValues>
            5.0196528434753418e-01 -6.7641294002532959e-01</leafValues></_>
        <_>
          <internalNodes>
            0 -1 26 -1.3470140099525452e-01</internalNodes>
          <leafValues>
            5.4181134700775146e-01 -4.9489185214042664e-01</leafValues></_>
        <_>
          <internalNodes>
            0 -1 44 -6.1056739650666714e-03</internalNodes>
          <leafValues>
            8.3818054199218750e-01 -3.5305064916610718e-01</leafValues></_>
        <_>
          <internalNodes>
            0 -1 31 1.8347136210650206e-03</internalNodes>
          <leafValues>
            -5.7422959804534912e-01 4.6456623077392578e-01</leafValues></_></weakClassifiers></_>
    <!-- stage 6 -->
    <_>
      <maxWeakCount>4</maxWeakCount>
      <stageThreshold>-6.0098284482955933e-01</stageThreshold>
      <weakClassifiers>
        <_>
          <internalNodes>
            0 -1 12 -1.6093805432319641e-02</internalNodes>
          <leafValues>
            4.1787943243980408e-01 -7.8412699699401855e-01</leafValues></_>
        <_>
          <internalNodes>
            0 -1 45 -1.7292287200689316e-02</internalNodes>
          <leafValues>
            6.8893563747406006e-01 -4.8775881528854370e-01</leafValues></_>
        <_>
          <internalNodes>
            0 -1 32 -1.5874192118644714e-02</internalNodes>
          <leafValues>
            3.4771755337715149e-01 -8.7042123079299927e-01</leafValues></_>
        <_>
          <internalNodes>
            0 -1 19 -1.1222224682569504e-02</internalNodes>
          <leafValues>
            3.6462968587875366e-01 -6.7928206920623779e-01</leafValues></_></weakClassifiers></_>
    <!-- stage 7 -->
    <_>
      <maxWeakCount>6</maxWeakCount>
      <stageThreshold>-1.1316843032836914e+00</stageThreshold>
      <weakClassifiers>
        <_>
          <internalNodes>
            0 -1 40 -1.7427489161491394e-02</internalNodes>
          <leafValues>
            6.6024518013000488e-01 -4.5935356616973877e-01</leafValues></_>
        <_>
          <internalNodes>
            0 -1 34 1.1747697368264198e-02</internalNodes>
          <leafValues>
            -6.4233976602554321e-01 4.3595495820045471e-01</leafValues></_>
        <_>
          <internalNodes>
            0 -1 10 -2.0056469365954399e-02</internalNodes>
          <leafValues>
            5.8285439014434814e-01 -4.6576979756355286e-01</leafValues></_>
        <_>
          <internalNodes>
            0 -1 38 -1.9374590367078781e-02</internalNodes>
          <leafValues>
            4.8181751370429993e-01 -5.7824498414993286e-01</leafValues></_>
        <_>
          <internalNodes>
            0 -1 35 -2.7068010531365871e-03</internalNodes>
          <leafValues>
            7.5574755668640137e-01 -3.8759106397628784e-01</leafValues></_>
        <_>
          <internalNodes>
            0 -1 14 -1.5608814544975758e-02</internalNodes>
          <leafValues>
            3.7175333499908447e-01 -7.9034793376922607e-01</leafValues></_></weakClassifiers></_>
    <!-- stage 8 -->
    <_>
      <maxWeakCount>7</maxWeakCount>
      <stageThreshold>-1.4509954452514648e+00</stageThreshold>
      <weakClassifiers>
        <_>
          <internalNodes>
            0 -1 29 1.4679923187941313e-03</internalNodes>
          <leafValues>
            2.6169845461845398e-01 -8.9954340457916260e-01</leafValues></_>
        <_>
          <internalNodes>
            0 -1 18 -5.0932727754116058e-03</internalNodes>
          <leafValues>
            1.9658318161964417e-01 -9.1173470020294189e-01</leafValues></_>
        <_>
          <internalNodes>
            0 -1 9 -2.9263813048601151e-02</internalNodes>
          <leafValues>
            2.6878827810287476e-01 -8.2245904207229614e-01</leafValues></_>
        <_>
          <internalNodes>
            0 -1 16 9.5002185553312302e-03</internalNodes>
          <leafValues>
            -8.8464689254760742e-01 2.5124084949493408e-01</leafValues></_>
        <_>
          <internalNodes>
            0 -1 3 1.2329299002885818e-02</internalNodes>
          <leafValues>
            -3.3371168375015259e-01 8.1328374147415161e-01</leafValues></_>
        <_>
          <internalNodes>
            0 -1 37 -2.1891020238399506e-02</internalNodes>
          <leafValues>
            4.4194489717483521e-01 -5.1880431175231934e-01</leafValues></_>
        <_>
          <internalNodes>
            0 -1 43 1.5417596325278282e-02</internalNodes>
          <leafValues>
            -4.1554838418960571e-01 5.2292287349700928e-01</leafValues></_></weakClassifiers></_>
    <!-- stage 9 -->
    <_>
      <maxWeakCount>7</maxWeakCount>
      <stageThreshold>-1.1876124143600464e+00</stageThreshold>
      <weakClassifiers>
        <_>
          <internalNodes>
            0 -1 27 1.1318763345479965e-01</internalNodes>
          <leafValues>
            -7.6284587383270264e-01 2.7071824669837952e-01</leafValues></_>
        <_>
          <internalNodes>
            0 -1 41 1.5336081385612488e-02</internalNodes>
          <leafValues>
            -4.1071844100952148e-01 6.3420242071151733e-01</leafValues></_>
        <_>
          <internalNodes>
            0 -1 1 7.6699457131326199e-03</internalNodes>
          <leafValues>
            3.1193903088569641e-01 -7.6965922117233276e-01</leafValues></_>
        <_>
          <internalNodes>
            0 -1 6 -1.4509805478155613e-02</internalNodes>
          <leafValues>
            4.8405852913856506e-01 -4.6057754755020142e-01</leafValues></_>
        <_>
          <internalNodes>
            0 -1 33 6.5044020302593708e-03</internalNodes>
          <leafValues>
            2.0667926967144012e-01 -9.5880472660064697e-01</leafValues></_>
        <_>
          <internalNodes>
            0 -1 20 -1.0620823130011559e-02</internalNodes>
          <leafValues>
            6.6322368383407593e-01 -3.2854831218719482e-01</leafValues></_>
        <_>
          <internalNodes>
            0 -1 23 1.3174470514059067e-03</internalNodes>
          <leafValues>
            3.0449360609054565e-01 -7.4105018377304077e-01</leafValues></_></weakClassifiers></_></stages>
  <features>
    <_>
      <rects>
        <_>
          1 5 6 12 -1.</_>
        <_>
          3 5 2 12 3.</_></rects>
      <tilted>0</tilted></_>
    <_>
      <rects>
        <_>
          1 12 21 9 -1.</_>
        <_>
          8 12 7 9 3.</_></rects>
      <tilted>0</tilted></_>
    <_>
      <rects>
        <_>
          2 6 10 3 -1.</_>
        <_>
          7 6 5 3 2.</_></rects>
      <tilted>0</tilted></_>
    <_>
      <rects>
        <_>
          2 8 3 8 -1.</_>
        <_>
          3 8 1 8 3.</_></rects>
      <tilted>0</tilted></_>
    <_>
      <rects>
        <_>
          2 8 6 8 -1.</_>
        <_>
          5 8 3 8 2.</_></rects>
      <tilted>0</tilted></_>
    <_>
      <rects>
        <_>
          2 16 21 3 -1.</_>
        <_>
          9 16 7 3 3.</_></rects>
      <tilted>0</tilted></_>
    <_>
      <rects>
        <_>
          3 1 4 12 -1.</_>
        <_>
          3 1 2 6 2.</_>
        <_>
          5 7 2 6 2.</_></rects>
      <tilted>0</tilted></_>
    <_>
      <rects>
        <_>
          3 5 6 15 -1.</_>
        <_>
          6 5 3 15 2.</_></rects>
      <tilted>0</tilted></_>
    <_>
      <rects>
        <_>
          3 5 18 1 -1.</_>
        <_>
          9 5 6 1 3.</_></rects>
      <tilted>0</tilted></_>
    <_>
      <rects>
        <_>
          3 6 18 3 -1.</_>
        <_>
          9 6 6 3 3.</_></rects>
      <tilted>0</tilted></_>
    <_>
      <rects>
        <_>
          3 7 6 9 -1.</_>
        <_>
          5 7 2 9 3.</_></rects>
      <tilted>0</tilted></_>
    <_>
      <rects>
        <_>
          4 5 8 3 -1.</_>
        <_>
          8 5 4 3 2.</_></rects>
      <tilted>0</tilted></_>
    <_>
      <rects>
        <_>
          4 5 18 1 -1.</_>
        <_>
          10 5 6 1 3.</_></rects>
      <tilted>0</tilted></_>
    <_>
      <rects>
        <_>
          6 0 12 10 -1.</_>
        <_>
          6 5 12 5 2.</_></rects>
      <tilted>0</tilted></_>
    <_>
      <rects>
        <_>
          7 1 5 8 -1.</_>
        <_>
          7 5 5 4 2.</_></rects>
      <tilted>0</tilted></_>
    <_>
      <rects>
        <_>
          7 1 9 12 -1.</_>
        <_>
          7 5 9 4 3.</_></rects>
      <tilted>0</tilted></_>
    <_>
      <rects>
        <_>
          7 6 6 10 -1.</_>
        <_>
          10 6 3 10 2.</_></rects>
      <tilted>0</tilted></_>
    <_>
      <rects>
        <_>
          7 6 6 12 -1.</_>
        <_>
          10 6 3 12 2.</_></rects>
      <tilted>0</tilted></_>
    <_>
      <rects>
        <_>
          7 10 3 8 -1.</_>
        <_>
          7 14 3 4 2.</_></rects>
      <tilted>0</tilted></_>
    <_>
      <rects>
        <_>
          7 18 12 4 -1.</_>
        <_>
          11 18 4 4 3.</_></rects>
      <tilted>0</tilted></_>
    <_>
      <rects>
        <_>
          8 2 9 2 -1.</_>
        <_>
          8 3 9 1 2.</_></rects>
      <tilted>0</tilted></_>
    <_>
      <rects>
        <_>
          8 11 7 8 -1.</_>
        <_>
          8 15 7 4 2.</_></rects>
      <tilted>0</tilted></_>
    <_>
      <rects>
        <_>
          9 5 7 15 -1.</_>
        <_>
          9 10 7 5 3.</_></rects>
      <tilted>0</tilted></_>
    <_>
      <rects>
        <_>
          9 8 6 2 -1.</_>
        <_>
          11 8 2 2 3.</_></rects>
      <tilted>0</tilted></_>
    <_>
      <rects>
        <_>
          10 5 5 15 -1.</_>
        <_>
          10 10 5 5 3.</_></rects>
      <tilted>0</tilted></_>
    <_>
      <rects>
        <_>
          10 18 7 6 -1.</_>
        <_>
          10 21 7 3 2.</_></rects>
      <tilted>0</tilted></_>
    <_>
      <rects>
        <_>
          11 0 7 15 -1.</_>
        <_>
          11 5 7 5 3.</_></rects>
      <tilted>0</tilted></_>
    <_>
      <rects>
        <_>
          11 5 4 15 -1.</_>
        <_>
          11 10 4 5 3.</_></rects>
      <tilted>0</tilted></_>
    <_>
      <rects>
        <_>
          11 5 5 15 -1.</_>
        <_>
          11 10 5 5 3.</_></rects>
      <tilted>0</tilted></_>
    <_>
      <rects>
        <_>
          11 6 6 1 -1.</_>
        <_>
          14 6 3 1 2.</_></rects>
      <tilted>0</tilted></_>
    <_>
      <rects>
        <_>
          11 6 4 12 -1.</_>
        <_>
          11 10 4 4 3.</_></rects>
      <tilted>0</tilted></_>
    <_>
      <rects>
        <_>
          11 9 3 3 -1.</_>
        <_>
          11 10 3 1 3.</_></rects>
      <tilted>0</tilted></_>
    <_>
      <rects>
        <_>
          11 10 8 5 -1.</_>
        <_>
          15 10 4 5 2.</_></rects>
      <tilted>0</tilted></_>
    <_>
      <rects>
        <_>
          12 9 6 15 -1.</_>
        <_>
          15 9 3 15 2.</_></rects>
      <tilted>0</tilted></_>
    <_>
      <rects>
        <_>
          12 11 3 6 -1.</_>
        <_>
          12 13 3 2 3.</_></rects>
      <tilted>0</tilted></_>
    <_>
      <rects>
        <_>
          12 20 2 3 -1.</_>
        <_>
          12 21 2 1 3.</_></rects>
      <tilted>0</tilted></_>
    <_>
      <rects>
        <_>
          14 8 9 8 -1.</_>
        <_>
          17 8 3 8 3.</_></rects>
      <tilted>0</tilted></_>
    <_>
      <rects>
        <_>
          15 12 2 12 -1.</_>
        <_>
          15 16 2 4 3.</_></rects>
      <tilted>0</tilted></_>
    <_>
      <rects>
        <_>
          16 3 3 12 -1.</_>
        <_>
          16 7 3 4 3.</_></rects>
      <tilted>0</tilted></_>
    <_>
      <rects>
        <_>
          16 7 6 3 -1.</_>
        <_>
          19 7 3 3 2.</_></rects>
      <tilted>0</tilted></_>
    <_>
      <rects>
        <_>
          16 17 6 6 -1.</_>
        <_>
          16 17 3 3 2.</_>
        <_>
          19 20 3 3 2.</_></rects>
      <tilted>0</tilted></_>
    <_>
      <rects>
        <_>
          18 3 4 8 -1.</_>
        <_>
          18 3 2 4 2.</_>
        <_>
          20 7 2 4 2.</_></rects>
      <tilted>0</tilted></_>
    <_>
      <rects>
        <_>
          18 8 4 10 -1.</_>
        <_>
          20 8 2 10 2.</_></rects>
      <tilted>0</tilted></_>
    <_>
      <rects>
        <_>
          19 6 6 6 -1.</_>
        <_>
          21 6 2 6 3.</_></rects>
      <tilted>0</tilted></_>
    <_>
      <rects>
        <_>
          19 10 3 5 -1.</_>
        <_>
          20 10 1 5 3.</_></rects>
      <tilted>0</tilted></_>
    <_>
      <rects>
        <_>
          19 11 4 12 -1.</_>
        <_>
          19 11 2 6 2.</_>
        <_>
          21 17 2 6 2.</_></rects>
      <tilted>0</tilted></_></features></cascade>
</opencv_storage>
