<?xml version="1.0"?>
<opencv_storage>
<cascade>
  <stageType>BOOST</stageType>
  <featureType>HAAR</featureType>
  <height>40</height>
  <width>40</width>
  <stageParams>
    <boostType>GAB</boostType>
    <minHitRate>9.9500000476837158e-01</minHitRate>
    <maxFalseAlarm>5.0000000000000000e-01</maxFalseAlarm>
    <weightTrimRate>9.4999999999999996e-01</weightTrimRate>
    <maxDepth>1</maxDepth>
    <maxWeakCount>100</maxWeakCount></stageParams>
  <featureParams>
    <maxCatCount>0</maxCatCount>
    <featSize>1</featSize>
    <mode>BASIC</mode></featureParams>
  <stageNum>4</stageNum>
  <stages>
    <!-- stage 0 -->
    <_>
      <maxWeakCount>2</maxWeakCount>
      <stageThreshold>-8.1980951130390167e-02</stageThreshold>
      <weakClassifiers>
        <_>
          <internalNodes>
            0 -1 6 1.4683008193969727e-01</internalNodes>
          <leafValues>
            -9.9095022678375244e-01 1.</leafValues></_>
        <_>
          <internalNodes>
            0 -1 4 -8.8234104216098785e-02</internalNodes>
          <leafValues>
            9.0896928310394287e-01 -1.</leafValues></_></weakClassifiers></_>
    <!-- stage 1 -->
    <_>
      <maxWeakCount>1</maxWeakCount>
      <stageThreshold>1.</stageThreshold>
      <weakClassifiers>
        <_>
          <internalNodes>
            0 -1 1 -1.8418801948428154e-02</internalNodes>
          <leafValues>
            1. -1.</leafValues></_></weakClassifiers></_>
    <!-- stage 2 -->
    <_>
      <maxWeakCount>2</maxWeakCount>
      <stageThreshold>-9.1014690697193146e-02</stageThreshold>
      <weakClassifiers>
        <_>
          <internalNodes>
            0 -1 0 -3.7626340985298157e-02</internalNodes>
          <leafValues>
            8.8235294818878174e-01 -9.6396398544311523e-01</leafValues></_>
        <_>
          <internalNodes>
            0 -1 7 -8.5282595828175545e-03</internalNodes>
          <leafValues>
            8.7294924259185791e-01 -9.7168588638305664e-01</leafValues></_></weakClassifiers></_>
    <!-- stage 3 -->
    <_>
      <maxWeakCount>3</maxWeakCount>
      <stageThreshold>-1.1058497428894043e+00</stageThreshold>
      <weakClassifiers>
        <_>
          <internalNodes>
            0 -1 5 2.0947527140378952e-02</internalNodes>
          <leafValues>
            -9.0476191043853760e-01 1.</leafValues></_>
        <_>
          <internalNodes>
            0 -1 2 -1.1601576581597328e-02</internalNodes>
          <leafValues>
            7.2627538442611694e-01 -9.2624568939208984e-01</leafValues></_>
        <_>
          <internalNodes>
            0 -1 3 -5.5225901305675507e-03</internalNodes>
          <leafValues>
            7.7356678247451782e-01 -9.2736327648162842e-01</leafValues></_></weakClassifiers></_></stages>
  <features>
    <_>
      <rects>
        <_>
          0 1 22 8 -1.</_>
        <_>
          0 1 11 4 2.</_>
        <_>
          11 5 11 4 2.</_></rects>
      <tilted>0</tilted></_>
    <_>
      <rects>
        <_>
          3 8 10 17 -1.</_>
        <_>
          8 8 5 17 2.</_></rects>
      <tilted>0</tilted></_>
    <_>
      <rects>
        <_>
          5 9 33 1 -1.</_>
        <_>
          16 9 11 1 3.</_></rects>
      <tilted>0</tilted></_>
    <_>
      <rects>
        <_>
          10 36 20 4 -1.</_>
        <_>
          10 38 20 2 2.</_></rects>
      <tilted>0</tilted></_>
    <_>
      <rects>
        <_>
          14 16 10 16 -1.</_>
        <_>
          14 24 10 8 2.</_></rects>
      <tilted>0</tilted></_>
    <_>
      <rects>
        <_>
          14 33 16 6 -1.</_>
        <_>
          14 35 16 2 3.</_></rects>
      <tilted>0</tilted></_>
    <_>
      <rects>
        <_>
          15 6 7 27 -1.</_>
        <_>
          15 15 7 9 3.</_></rects>
      <tilted>0</tilted></_>
    <_>
      <rects>
        <_>
          24 16 12 2 -1.</_>
        <_>
          28 16 4 2 3.</_></rects>
      <tilted>0</tilted></_></features></cascade>
</opencv_storage>
