<?xml version="1.0"?>
<opencv_storage>
<stage7>
  <maxWeakCount>6</maxWeakCount>
  <stageThreshold>-1.0329912900924683e+00</stageThreshold>
  <weakClassifiers>
    <_>
      <internalNodes>
        0 -1 150755 3.7316724658012390e-02</internalNodes>
      <leafValues>
        -6.8681317567825317e-01 5.0109410285949707e-01</leafValues></_>
    <_>
      <internalNodes>
        0 -1 49902 -1.5753120183944702e-02</internalNodes>
      <leafValues>
        5.4477787017822266e-01 -4.6674561500549316e-01</leafValues></_>
    <_>
      <internalNodes>
        0 -1 49566 3.3108547329902649e-02</internalNodes>
      <leafValues>
        2.8970763087272644e-01 -9.3654906749725342e-01</leafValues></_>
    <_>
      <internalNodes>
        0 -1 162675 -7.4853342957794666e-03</internalNodes>
      <leafValues>
        4.9574172496795654e-01 -5.0587815046310425e-01</leafValues></_>
    <_>
      <internalNodes>
        0 -1 11889 -6.0915973037481308e-02</internalNodes>
      <leafValues>
        3.2574355602264404e-01 -7.7799868583679199e-01</leafValues></_>
    <_>
      <internalNodes>
        0 -1 75687 9.4343011733144522e-04</internalNodes>
      <leafValues>
        -9.4175738096237183e-01 2.2572766244411469e-01</leafValues></_></weakClassifiers></stage7>
</opencv_storage>
