<?xml version="1.0"?>
<opencv_storage>
<stage9>
  <maxWeakCount>6</maxWeakCount>
  <stageThreshold>-1.3012282848358154e+00</stageThreshold>
  <weakClassifiers>
    <_>
      <internalNodes>
        0 -1 92942 -1.3070923089981079e-01</internalNodes>
      <leafValues>
        4.6710526943206787e-01 -6.4109587669372559e-01</leafValues></_>
    <_>
      <internalNodes>
        0 -1 184575 7.0858318358659744e-03</internalNodes>
      <leafValues>
        -4.1415050625801086e-01 6.8561011552810669e-01</leafValues></_>
    <_>
      <internalNodes>
        0 -1 136284 7.5630666688084602e-03</internalNodes>
      <leafValues>
        -6.0367649793624878e-01 3.7607648968696594e-01</leafValues></_>
    <_>
      <internalNodes>
        0 -1 50586 -1.8500033766031265e-02</internalNodes>
      <leafValues>
        4.5330601930618286e-01 -4.8884108662605286e-01</leafValues></_>
    <_>
      <internalNodes>
        0 -1 61608 2.8481885790824890e-02</internalNodes>
      <leafValues>
        2.6616454124450684e-01 -8.6018353700637817e-01</leafValues></_>
    <_>
      <internalNodes>
        0 -1 123214 -4.6145636588335037e-03</internalNodes>
      <leafValues>
        7.2603797912597656e-01 -3.8123491406440735e-01</leafValues></_></weakClassifiers></stage9>
</opencv_storage>
