<?xml version="1.0"?>
<opencv_storage>
<cascade>
  <stageType>BOOST</stageType>
  <featureType>HAAR</featureType>
  <height>25</height>
  <width>25</width>
  <stageParams>
    <boostType>GAB</boostType>
    <minHitRate>9.9500000476837158e-01</minHitRate>
    <maxFalseAlarm>5.0000000000000000e-01</maxFalseAlarm>
    <weightTrimRate>9.4999999999999996e-01</weightTrimRate>
    <maxDepth>1</maxDepth>
    <maxWeakCount>100</maxWeakCount></stageParams>
  <featureParams>
    <maxCatCount>0</maxCatCount>
    <featSize>1</featSize>
    <mode>BASIC</mode></featureParams>
  <stageNum>13</stageNum>
  <stages>
    <!-- stage 0 -->
    <_>
      <maxWeakCount>2</maxWeakCount>
      <stageThreshold>-1.7286692559719086e-01</stageThreshold>
      <weakClassifiers>
        <_>
          <internalNodes>
            0 -1 20 3.0010525137186050e-02</internalNodes>
          <leafValues>
            -9.7772276401519775e-01 8.7218934297561646e-01</leafValues></_>
        <_>
          <internalNodes>
            0 -1 48 4.1491471230983734e-02</internalNodes>
          <leafValues>
            -9.4611853361129761e-01 8.0485582351684570e-01</leafValues></_></weakClassifiers></_>
    <!-- stage 1 -->
    <_>
      <maxWeakCount>2</maxWeakCount>
      <stageThreshold>-2.6940098404884338e-01</stageThreshold>
      <weakClassifiers>
        <_>
          <internalNodes>
            0 -1 19 3.6552965641021729e-02</internalNodes>
          <leafValues>
            -9.7412675619125366e-01 7.9545456171035767e-01</leafValues></_>
        <_>
          <internalNodes>
            0 -1 30 8.7239816784858704e-03</internalNodes>
          <leafValues>
            -9.3431127071380615e-01 7.0472580194473267e-01</leafValues></_></weakClassifiers></_>
    <!-- stage 2 -->
    <_>
      <maxWeakCount>2</maxWeakCount>
      <stageThreshold>-1.7453703284263611e-01</stageThreshold>
      <weakClassifiers>
        <_>
          <internalNodes>
            0 -1 17 -2.1341845393180847e-02</internalNodes>
          <leafValues>
            6.5159869194030762e-01 -8.6327075958251953e-01</leafValues></_>
        <_>
          <internalNodes>
            0 -1 8 -5.9515424072742462e-02</internalNodes>
          <leafValues>
            6.8873375654220581e-01 -8.0690693855285645e-01</leafValues></_></weakClassifiers></_>
    <!-- stage 3 -->
    <_>
      <maxWeakCount>3</maxWeakCount>
      <stageThreshold>-1.0008740425109863e+00</stageThreshold>
      <weakClassifiers>
        <_>
          <internalNodes>
            0 -1 35 -8.3579726517200470e-02</internalNodes>
          <leafValues>
            7.3820751905441284e-01 -8.4347826242446899e-01</leafValues></_>
        <_>
          <internalNodes>
            0 -1 1 -4.0199913084506989e-02</internalNodes>
          <leafValues>
            6.9176554679870605e-01 -7.4723416566848755e-01</leafValues></_>
        <_>
          <internalNodes>
            0 -1 42 -5.9493118897080421e-03</internalNodes>
          <leafValues>
            5.8983838558197021e-01 -7.9869151115417480e-01</leafValues></_></weakClassifiers></_>
    <!-- stage 4 -->
    <_>
      <maxWeakCount>4</maxWeakCount>
      <stageThreshold>-6.1590135097503662e-01</stageThreshold>
      <weakClassifiers>
        <_>
          <internalNodes>
            0 -1 14 -1.0635437443852425e-02</internalNodes>
          <leafValues>
            5.3187042474746704e-01 -8.0747127532958984e-01</leafValues></_>
        <_>
          <internalNodes>
            0 -1 34 7.3070358484983444e-03</internalNodes>
          <leafValues>
            -6.2773495912551880e-01 6.2697517871856689e-01</leafValues></_>
        <_>
          <internalNodes>
            0 -1 10 -6.8833686411380768e-02</internalNodes>
          <leafValues>
            4.1484600305557251e-01 -8.6600935459136963e-01</leafValues></_>
        <_>
          <internalNodes>
            0 -1 41 -1.1565620079636574e-02</internalNodes>
          <leafValues>
            4.0445882081985474e-01 -8.4832251071929932e-01</leafValues></_></weakClassifiers></_>
    <!-- stage 5 -->
    <_>
      <maxWeakCount>4</maxWeakCount>
      <stageThreshold>-1.4620143175125122e+00</stageThreshold>
      <weakClassifiers>
        <_>
          <internalNodes>
            0 -1 40 -1.2630363926291466e-02</internalNodes>
          <leafValues>
            4.4356435537338257e-01 -7.7916020154953003e-01</leafValues></_>
        <_>
          <internalNodes>
            0 -1 33 1.1304780840873718e-02</internalNodes>
          <leafValues>
            -4.3748772144317627e-01 8.2974594831466675e-01</leafValues></_>
        <_>
          <internalNodes>
            0 -1 3 -6.0542453080415726e-02</internalNodes>
          <leafValues>
            4.8716008663177490e-01 -7.9082286357879639e-01</leafValues></_>
        <_>
          <internalNodes>
            0 -1 51 3.5910896956920624e-02</internalNodes>
          <leafValues>
            -7.3252654075622559e-01 4.9774378538131714e-01</leafValues></_></weakClassifiers></_>
    <!-- stage 6 -->
    <_>
      <maxWeakCount>3</maxWeakCount>
      <stageThreshold>-1.0399704426527023e-01</stageThreshold>
      <weakClassifiers>
        <_>
          <internalNodes>
            0 -1 37 -4.1194520890712738e-02</internalNodes>
          <leafValues>
            3.8048344850540161e-01 -8.9179104566574097e-01</leafValues></_>
        <_>
          <internalNodes>
            0 -1 5 5.0131745636463165e-02</internalNodes>
          <leafValues>
            -7.3599785566329956e-01 4.4587218761444092e-01</leafValues></_>
        <_>
          <internalNodes>
            0 -1 27 -9.6090510487556458e-04</internalNodes>
          <leafValues>
            3.4192180633544922e-01 -8.8651239871978760e-01</leafValues></_></weakClassifiers></_>
    <!-- stage 7 -->
    <_>
      <maxWeakCount>4</maxWeakCount>
      <stageThreshold>-6.7365735769271851e-01</stageThreshold>
      <weakClassifiers>
        <_>
          <internalNodes>
            0 -1 39 8.4237232804298401e-03</internalNodes>
          <leafValues>
            -8.3571428060531616e-01 3.7968891859054565e-01</leafValues></_>
        <_>
          <internalNodes>
            0 -1 21 -8.8380025699734688e-03</internalNodes>
          <leafValues>
            6.1819732189178467e-01 -5.2261739969253540e-01</leafValues></_>
        <_>
          <internalNodes>
            0 -1 38 -9.6790399402379990e-03</internalNodes>
          <leafValues>
            4.1153287887573242e-01 -7.5587147474288940e-01</leafValues></_>
        <_>
          <internalNodes>
            0 -1 45 3.6097191274166107e-02</internalNodes>
          <leafValues>
            -9.4226169586181641e-01 2.9365715384483337e-01</leafValues></_></weakClassifiers></_>
    <!-- stage 8 -->
    <_>
      <maxWeakCount>6</maxWeakCount>
      <stageThreshold>-1.1713107824325562e+00</stageThreshold>
      <weakClassifiers>
        <_>
          <internalNodes>
            0 -1 15 -6.2806773930788040e-03</internalNodes>
          <leafValues>
            8.4615385532379150e-01 -3.7890294194221497e-01</leafValues></_>
        <_>
          <internalNodes>
            0 -1 0 -2.4679780006408691e-02</internalNodes>
          <leafValues>
            3.6710858345031738e-01 -8.8948744535446167e-01</leafValues></_>
        <_>
          <internalNodes>
            0 -1 50 7.9223364591598511e-03</internalNodes>
          <leafValues>
            -4.4261938333511353e-01 6.8482255935668945e-01</leafValues></_>
        <_>
          <internalNodes>
            0 -1 2 -2.1917361766099930e-02</internalNodes>
          <leafValues>
            5.4063373804092407e-01 -5.1936686038970947e-01</leafValues></_>
        <_>
          <internalNodes>
            0 -1 32 -1.1375091271474957e-03</internalNodes>
          <leafValues>
            5.1635879278182983e-01 -5.2251994609832764e-01</leafValues></_>
        <_>
          <internalNodes>
            0 -1 26 -3.2423788215965033e-03</internalNodes>
          <leafValues>
            -8.3424341678619385e-01 3.2498973608016968e-01</leafValues></_></weakClassifiers></_>
    <!-- stage 9 -->
    <_>
      <maxWeakCount>6</maxWeakCount>
      <stageThreshold>-6.0637688636779785e-01</stageThreshold>
      <weakClassifiers>
        <_>
          <internalNodes>
            0 -1 4 -4.4436799362301826e-03</internalNodes>
          <leafValues>
            4.9940967559814453e-01 -5.9057074785232544e-01</leafValues></_>
        <_>
          <internalNodes>
            0 -1 11 -1.4440623112022877e-02</internalNodes>
          <leafValues>
            2.5974133610725403e-01 -9.5398044586181641e-01</leafValues></_>
        <_>
          <internalNodes>
            0 -1 18 6.8943299353122711e-02</internalNodes>
          <leafValues>
            -7.6790422201156616e-01 3.8381856679916382e-01</leafValues></_>
        <_>
          <internalNodes>
            0 -1 6 -6.9180703721940517e-03</internalNodes>
          <leafValues>
            5.8825117349624634e-01 -4.8198917508125305e-01</leafValues></_>
        <_>
          <internalNodes>
            0 -1 43 6.4515382982790470e-03</internalNodes>
          <leafValues>
            -8.5253018140792847e-01 3.2339462637901306e-01</leafValues></_>
        <_>
          <internalNodes>
            0 -1 13 -1.7045156564563513e-03</internalNodes>
          <leafValues>
            8.1863468885421753e-01 -3.2902970910072327e-01</leafValues></_></weakClassifiers></_>
    <!-- stage 10 -->
    <_>
      <maxWeakCount>7</maxWeakCount>
      <stageThreshold>-4.7895693778991699e-01</stageThreshold>
      <weakClassifiers>
        <_>
          <internalNodes>
            0 -1 25 -1.3193953782320023e-02</internalNodes>
          <leafValues>
            7.0577281713485718e-01 -3.8709676265716553e-01</leafValues></_>
        <_>
          <internalNodes>
            0 -1 23 9.3629593029618263e-03</internalNodes>
          <leafValues>
            2.5681900978088379e-01 -9.8851150274276733e-01</leafValues></_>
        <_>
          <internalNodes>
            0 -1 54 9.5926001667976379e-03</internalNodes>
          <leafValues>
            -3.4053304791450500e-01 7.5227802991867065e-01</leafValues></_>
        <_>
          <internalNodes>
            0 -1 9 1.9063341896981001e-03</internalNodes>
          <leafValues>
            -6.9786936044692993e-01 3.9102250337600708e-01</leafValues></_>
        <_>
          <internalNodes>
            0 -1 53 -7.8080678358674049e-03</internalNodes>
          <leafValues>
            6.8373966217041016e-01 -4.0202161669731140e-01</leafValues></_>
        <_>
          <internalNodes>
            0 -1 7 -3.6134480615146458e-04</internalNodes>
          <leafValues>
            4.0035516023635864e-01 -7.8298485279083252e-01</leafValues></_>
        <_>
          <internalNodes>
            0 -1 16 5.8393292129039764e-03</internalNodes>
          <leafValues>
            -2.9992339015007019e-01 9.1126400232315063e-01</leafValues></_></weakClassifiers></_>
    <!-- stage 11 -->
    <_>
      <maxWeakCount>6</maxWeakCount>
      <stageThreshold>-7.6152348518371582e-01</stageThreshold>
      <weakClassifiers>
        <_>
          <internalNodes>
            0 -1 47 7.3877996765077114e-03</internalNodes>
          <leafValues>
            -4.2886596918106079e-01 5.3147876262664795e-01</leafValues></_>
        <_>
          <internalNodes>
            0 -1 49 -7.4821349699050188e-04</internalNodes>
          <leafValues>
            -7.6340937614440918e-01 2.7479550242424011e-01</leafValues></_>
        <_>
          <internalNodes>
            0 -1 44 3.8782125338912010e-03</internalNodes>
          <leafValues>
            1.9196856021881104e-01 -9.1698670387268066e-01</leafValues></_>
        <_>
          <internalNodes>
            0 -1 24 1.6176424920558929e-02</internalNodes>
          <leafValues>
            -3.6635476350784302e-01 6.5261077880859375e-01</leafValues></_>
        <_>
          <internalNodes>
            0 -1 28 3.5982433706521988e-02</internalNodes>
          <leafValues>
            -4.5453721284866333e-01 4.4368952512741089e-01</leafValues></_>
        <_>
          <internalNodes>
            0 -1 22 -9.5410477370023727e-03</internalNodes>
          <leafValues>
            -9.0515428781509399e-01 2.3219896852970123e-01</leafValues></_></weakClassifiers></_>
    <!-- stage 12 -->
    <_>
      <maxWeakCount>6</maxWeakCount>
      <stageThreshold>-1.2615510225296021e+00</stageThreshold>
      <weakClassifiers>
        <_>
          <internalNodes>
            0 -1 52 9.5377974212169647e-03</internalNodes>
          <leafValues>
            -3.4248927235603333e-01 7.0901638269424438e-01</leafValues></_>
        <_>
          <internalNodes>
            0 -1 12 -4.2668860405683517e-03</internalNodes>
          <leafValues>
            7.2358399629592896e-01 -2.9126420617103577e-01</leafValues></_>
        <_>
          <internalNodes>
            0 -1 36 -4.8121772706508636e-03</internalNodes>
          <leafValues>
            2.7302515506744385e-01 -8.3265787363052368e-01</leafValues></_>
        <_>
          <internalNodes>
            0 -1 29 -1.3806794304400682e-03</internalNodes>
          <leafValues>
            2.7680200338363647e-01 -7.5904089212417603e-01</leafValues></_>
        <_>
          <internalNodes>
            0 -1 46 -2.5199719239026308e-03</internalNodes>
          <leafValues>
            -8.3562690019607544e-01 2.6379933953285217e-01</leafValues></_>
        <_>
          <internalNodes>
            0 -1 31 1.5993706881999969e-02</internalNodes>
          <leafValues>
            -3.4199780225753784e-01 6.7752093076705933e-01</leafValues></_></weakClassifiers></_></stages>
  <features>
    <_>
      <rects>
        <_>
          0 4 10 16 -1.</_>
        <_>
          5 4 5 16 2.</_></rects>
      <tilted>0</tilted></_>
    <_>
      <rects>
        <_>
          0 5 8 14 -1.</_>
        <_>
          4 5 4 14 2.</_></rects>
      <tilted>0</tilted></_>
    <_>
      <rects>
        <_>
          0 6 6 6 -1.</_>
        <_>
          3 6 3 6 2.</_></rects>
      <tilted>0</tilted></_>
    <_>
      <rects>
        <_>
          1 4 12 15 -1.</_>
        <_>
          5 4 4 15 3.</_></rects>
      <tilted>0</tilted></_>
    <_>
      <rects>
        <_>
          1 21 8 4 -1.</_>
        <_>
          1 21 4 2 2.</_>
        <_>
          5 23 4 2 2.</_></rects>
      <tilted>0</tilted></_>
    <_>
      <rects>
        <_>
          2 2 12 12 -1.</_>
        <_>
          2 2 6 6 2.</_>
        <_>
          8 8 6 6 2.</_></rects>
      <tilted>0</tilted></_>
    <_>
      <rects>
        <_>
          2 23 14 2 -1.</_>
        <_>
          2 23 7 1 2.</_>
        <_>
          9 24 7 1 2.</_></rects>
      <tilted>0</tilted></_>
    <_>
      <rects>
        <_>
          3 1 8 12 -1.</_>
        <_>
          3 7 8 6 2.</_></rects>
      <tilted>0</tilted></_>
    <_>
      <rects>
        <_>
          3 10 12 12 -1.</_>
        <_>
          3 10 6 6 2.</_>
        <_>
          9 16 6 6 2.</_></rects>
      <tilted>0</tilted></_>
    <_>
      <rects>
        <_>
          3 11 17 2 -1.</_>
        <_>
          3 12 17 1 2.</_></rects>
      <tilted>0</tilted></_>
    <_>
      <rects>
        <_>
          4 0 15 15 -1.</_>
        <_>
          4 5 15 5 3.</_></rects>
      <tilted>0</tilted></_>
    <_>
      <rects>
        <_>
          4 0 17 12 -1.</_>
        <_>
          4 6 17 6 2.</_></rects>
      <tilted>0</tilted></_>
    <_>
      <rects>
        <_>
          4 2 4 2 -1.</_>
        <_>
          4 2 2 1 2.</_>
        <_>
          6 3 2 1 2.</_></rects>
      <tilted>0</tilted></_>
    <_>
      <rects>
        <_>
          4 3 2 2 -1.</_>
        <_>
          4 3 1 1 2.</_>
        <_>
          5 4 1 1 2.</_></rects>
      <tilted>0</tilted></_>
    <_>
      <rects>
        <_>
          4 20 18 1 -1.</_>
        <_>
          10 20 6 1 3.</_></rects>
      <tilted>0</tilted></_>
    <_>
      <rects>
        <_>
          5 1 6 2 -1.</_>
        <_>
          5 1 3 1 2.</_>
        <_>
          8 2 3 1 2.</_></rects>
      <tilted>0</tilted></_>
    <_>
      <rects>
        <_>
          5 20 4 2 -1.</_>
        <_>
          5 20 2 1 2.</_>
        <_>
          7 21 2 1 2.</_></rects>
      <tilted>0</tilted></_>
    <_>
      <rects>
        <_>
          6 0 12 6 -1.</_>
        <_>
          6 3 12 3 2.</_></rects>
      <tilted>0</tilted></_>
    <_>
      <rects>
        <_>
          6 3 11 18 -1.</_>
        <_>
          6 9 11 6 3.</_></rects>
      <tilted>0</tilted></_>
    <_>
      <rects>
        <_>
          6 7 12 12 -1.</_>
        <_>
          6 11 12 4 3.</_></rects>
      <tilted>0</tilted></_>
    <_>
      <rects>
        <_>
          6 9 12 5 -1.</_>
        <_>
          10 9 4 5 3.</_></rects>
      <tilted>0</tilted></_>
    <_>
      <rects>
        <_>
          7 1 10 2 -1.</_>
        <_>
          7 2 10 1 2.</_></rects>
      <tilted>0</tilted></_>
    <_>
      <rects>
        <_>
          7 5 10 6 -1.</_>
        <_>
          7 7 10 2 3.</_></rects>
      <tilted>0</tilted></_>
    <_>
      <rects>
        <_>
          7 9 16 8 -1.</_>
        <_>
          15 9 8 8 2.</_></rects>
      <tilted>0</tilted></_>
    <_>
      <rects>
        <_>
          8 0 10 3 -1.</_>
        <_>
          8 1 10 1 3.</_></rects>
      <tilted>0</tilted></_>
    <_>
      <rects>
        <_>
          8 1 9 2 -1.</_>
        <_>
          8 2 9 1 2.</_></rects>
      <tilted>0</tilted></_>
    <_>
      <rects>
        <_>
          8 3 7 4 -1.</_>
        <_>
          8 5 7 2 2.</_></rects>
      <tilted>0</tilted></_>
    <_>
      <rects>
        <_>
          8 7 9 6 -1.</_>
        <_>
          8 9 9 2 3.</_></rects>
      <tilted>0</tilted></_>
    <_>
      <rects>
        <_>
          8 9 9 4 -1.</_>
        <_>
          11 9 3 4 3.</_></rects>
      <tilted>0</tilted></_>
    <_>
      <rects>
        <_>
          8 14 9 5 -1.</_>
        <_>
          11 14 3 5 3.</_></rects>
      <tilted>0</tilted></_>
    <_>
      <rects>
        <_>
          8 19 11 4 -1.</_>
        <_>
          8 21 11 2 2.</_></rects>
      <tilted>0</tilted></_>
    <_>
      <rects>
        <_>
          8 21 9 3 -1.</_>
        <_>
          8 22 9 1 3.</_></rects>
      <tilted>0</tilted></_>
    <_>
      <rects>
        <_>
          9 14 6 1 -1.</_>
        <_>
          11 14 2 1 3.</_></rects>
      <tilted>0</tilted></_>
    <_>
      <rects>
        <_>
          9 21 8 2 -1.</_>
        <_>
          9 22 8 1 2.</_></rects>
      <tilted>0</tilted></_>
    <_>
      <rects>
        <_>
          9 21 9 2 -1.</_>
        <_>
          9 22 9 1 2.</_></rects>
      <tilted>0</tilted></_>
    <_>
      <rects>
        <_>
          10 5 15 8 -1.</_>
        <_>
          15 5 5 8 3.</_></rects>
      <tilted>0</tilted></_>
    <_>
      <rects>
        <_>
          10 6 12 6 -1.</_>
        <_>
          10 6 6 3 2.</_>
        <_>
          16 9 6 3 2.</_></rects>
      <tilted>0</tilted></_>
    <_>
      <rects>
        <_>
          10 8 15 4 -1.</_>
        <_>
          15 8 5 4 3.</_></rects>
      <tilted>0</tilted></_>
    <_>
      <rects>
        <_>
          11 11 2 6 -1.</_>
        <_>
          11 14 2 3 2.</_></rects>
      <tilted>0</tilted></_>
    <_>
      <rects>
        <_>
          11 19 3 6 -1.</_>
        <_>
          11 22 3 3 2.</_></rects>
      <tilted>0</tilted></_>
    <_>
      <rects>
        <_>
          12 2 8 8 -1.</_>
        <_>
          12 2 4 4 2.</_>
        <_>
          16 6 4 4 2.</_></rects>
      <tilted>0</tilted></_>
    <_>
      <rects>
        <_>
          12 11 2 12 -1.</_>
        <_>
          12 15 2 4 3.</_></rects>
      <tilted>0</tilted></_>
    <_>
      <rects>
        <_>
          12 12 2 4 -1.</_>
        <_>
          12 14 2 2 2.</_></rects>
      <tilted>0</tilted></_>
    <_>
      <rects>
        <_>
          12 19 10 2 -1.</_>
        <_>
          17 19 5 2 2.</_></rects>
      <tilted>0</tilted></_>
    <_>
      <rects>
        <_>
          14 5 6 6 -1.</_>
        <_>
          14 8 6 3 2.</_></rects>
      <tilted>0</tilted></_>
    <_>
      <rects>
        <_>
          16 3 8 17 -1.</_>
        <_>
          20 3 4 17 2.</_></rects>
      <tilted>0</tilted></_>
    <_>
      <rects>
        <_>
          16 6 2 6 -1.</_>
        <_>
          16 9 2 3 2.</_></rects>
      <tilted>0</tilted></_>
    <_>
      <rects>
        <_>
          16 21 8 4 -1.</_>
        <_>
          16 21 4 2 2.</_>
        <_>
          20 23 4 2 2.</_></rects>
      <tilted>0</tilted></_>
    <_>
      <rects>
        <_>
          17 5 8 14 -1.</_>
        <_>
          21 5 4 14 2.</_></rects>
      <tilted>0</tilted></_>
    <_>
      <rects>
        <_>
          17 6 1 4 -1.</_>
        <_>
          17 8 1 2 2.</_></rects>
      <tilted>0</tilted></_>
    <_>
      <rects>
        <_>
          18 2 4 4 -1.</_>
        <_>
          18 2 2 2 2.</_>
        <_>
          20 4 2 2 2.</_></rects>
      <tilted>0</tilted></_>
    <_>
      <rects>
        <_>
          18 4 6 13 -1.</_>
        <_>
          21 4 3 13 2.</_></rects>
      <tilted>0</tilted></_>
    <_>
      <rects>
        <_>
          19 3 4 4 -1.</_>
        <_>
          19 3 2 2 2.</_>
        <_>
          21 5 2 2 2.</_></rects>
      <tilted>0</tilted></_>
    <_>
      <rects>
        <_>
          21 8 3 8 -1.</_>
        <_>
          22 8 1 8 3.</_></rects>
      <tilted>0</tilted></_>
    <_>
      <rects>
        <_>
          21 10 2 7 -1.</_>
        <_>
          22 10 1 7 2.</_></rects>
      <tilted>0</tilted></_></features></cascade>
</opencv_storage>
