<?xml version="1.0"?>
<opencv_storage>
<cascade>
  <stageType>BOOST</stageType>
  <featureType>HAAR</featureType>
  <height>25</height>
  <width>25</width>
  <stageParams>
    <boostType>GAB</boostType>
    <minHitRate>9.9500000476837158e-01</minHitRate>
    <maxFalseAlarm>5.0000000000000000e-01</maxFalseAlarm>
    <weightTrimRate>9.4999999999999996e-01</weightTrimRate>
    <maxDepth>1</maxDepth>
    <maxWeakCount>100</maxWeakCount></stageParams>
  <featureParams>
    <maxCatCount>0</maxCatCount>
    <featSize>1</featSize>
    <mode>BASIC</mode></featureParams>
  <stageNum>11</stageNum>
  <stages>
    <!-- stage 0 -->
    <_>
      <maxWeakCount>2</maxWeakCount>
      <stageThreshold>-2.2173106670379639e-01</stageThreshold>
      <weakClassifiers>
        <_>
          <internalNodes>
            0 -1 15 2.9304577037692070e-02</internalNodes>
          <leafValues>
            -9.8258703947067261e-01 8.5982477664947510e-01</leafValues></_>
        <_>
          <internalNodes>
            0 -1 33 2.1253153681755066e-02</internalNodes>
          <leafValues>
            -9.5297282934188843e-01 7.6085603237152100e-01</leafValues></_></weakClassifiers></_>
    <!-- stage 1 -->
    <_>
      <maxWeakCount>2</maxWeakCount>
      <stageThreshold>-2.3589637875556946e-01</stageThreshold>
      <weakClassifiers>
        <_>
          <internalNodes>
            0 -1 22 3.9260946214199066e-02</internalNodes>
          <leafValues>
            -9.8687666654586792e-01 7.7170038223266602e-01</leafValues></_>
        <_>
          <internalNodes>
            0 -1 19 -1.0582674294710159e-02</internalNodes>
          <leafValues>
            7.5098025798797607e-01 -9.0443176031112671e-01</leafValues></_></weakClassifiers></_>
    <!-- stage 2 -->
    <_>
      <maxWeakCount>2</maxWeakCount>
      <stageThreshold>-1.7422461509704590e-01</stageThreshold>
      <weakClassifiers>
        <_>
          <internalNodes>
            0 -1 2 -4.6041376888751984e-02</internalNodes>
          <leafValues>
            7.1465629339218140e-01 -7.8605771064758301e-01</leafValues></_>
        <_>
          <internalNodes>
            0 -1 14 -1.2119259685277939e-02</internalNodes>
          <leafValues>
            6.4595264196395874e-01 -8.8888090848922729e-01</leafValues></_></weakClassifiers></_>
    <!-- stage 3 -->
    <_>
      <maxWeakCount>2</maxWeakCount>
      <stageThreshold>-1.9253060221672058e-01</stageThreshold>
      <weakClassifiers>
        <_>
          <internalNodes>
            0 -1 23 -1.0818246006965637e-01</internalNodes>
          <leafValues>
            7.2458171844482422e-01 -8.0629539489746094e-01</leafValues></_>
        <_>
          <internalNodes>
            0 -1 25 -2.0084023475646973e-02</internalNodes>
          <leafValues>
            6.1376482248306274e-01 -8.7875843048095703e-01</leafValues></_></weakClassifiers></_>
    <!-- stage 4 -->
    <_>
      <maxWeakCount>4</maxWeakCount>
      <stageThreshold>-6.5319597721099854e-01</stageThreshold>
      <weakClassifiers>
        <_>
          <internalNodes>
            0 -1 21 1.8308386206626892e-02</internalNodes>
          <leafValues>
            -6.5962177515029907e-01 6.9602274894714355e-01</leafValues></_>
        <_>
          <internalNodes>
            0 -1 4 -5.0364714115858078e-03</internalNodes>
          <leafValues>
            5.1478081941604614e-01 -8.0484873056411743e-01</leafValues></_>
        <_>
          <internalNodes>
            0 -1 9 -5.8689629659056664e-03</internalNodes>
          <leafValues>
            3.6849346756935120e-01 -9.4895946979522705e-01</leafValues></_>
        <_>
          <internalNodes>
            0 -1 10 -1.8844138830900192e-02</internalNodes>
          <leafValues>
            4.4278106093406677e-01 -8.1478238105773926e-01</leafValues></_></weakClassifiers></_>
    <!-- stage 5 -->
    <_>
      <maxWeakCount>5</maxWeakCount>
      <stageThreshold>-1.2111525535583496e+00</stageThreshold>
      <weakClassifiers>
        <_>
          <internalNodes>
            0 -1 1 -2.9401659965515137e-02</internalNodes>
          <leafValues>
            4.1857922077178955e-01 -7.0639532804489136e-01</leafValues></_>
        <_>
          <internalNodes>
            0 -1 24 -5.3482469171285629e-02</internalNodes>
          <leafValues>
            3.7130931019783020e-01 -8.4378844499588013e-01</leafValues></_>
        <_>
          <internalNodes>
            0 -1 26 -5.5097392760217190e-03</internalNodes>
          <leafValues>
            4.0832984447479248e-01 -7.6577818393707275e-01</leafValues></_>
        <_>
          <internalNodes>
            0 -1 5 1.0225865989923477e-02</internalNodes>
          <leafValues>
            -8.6428838968276978e-01 3.4884718060493469e-01</leafValues></_>
        <_>
          <internalNodes>
            0 -1 13 -3.7754112854599953e-03</internalNodes>
          <leafValues>
            8.1134992837905884e-01 -4.2010796070098877e-01</leafValues></_></weakClassifiers></_>
    <!-- stage 6 -->
    <_>
      <maxWeakCount>4</maxWeakCount>
      <stageThreshold>-5.4873347282409668e-01</stageThreshold>
      <weakClassifiers>
        <_>
          <internalNodes>
            0 -1 6 -5.1810622215270996e-02</internalNodes>
          <leafValues>
            4.3750000000000000e-01 -8.1337481737136841e-01</leafValues></_>
        <_>
          <internalNodes>
            0 -1 11 -1.8856618553400040e-02</internalNodes>
          <leafValues>
            3.8077735900878906e-01 -8.0201101303100586e-01</leafValues></_>
        <_>
          <internalNodes>
            0 -1 8 -6.1530978418886662e-03</internalNodes>
          <leafValues>
            6.4663499593734741e-01 -4.9027445912361145e-01</leafValues></_>
        <_>
          <internalNodes>
            0 -1 16 6.1166379600763321e-03</internalNodes>
          <leafValues>
            -8.3085745573043823e-01 3.9637789130210876e-01</leafValues></_></weakClassifiers></_>
    <!-- stage 7 -->
    <_>
      <maxWeakCount>4</maxWeakCount>
      <stageThreshold>-4.6061903238296509e-01</stageThreshold>
      <weakClassifiers>
        <_>
          <internalNodes>
            0 -1 35 3.6170922219753265e-02</internalNodes>
          <leafValues>
            -7.5934958457946777e-01 3.6842104792594910e-01</leafValues></_>
        <_>
          <internalNodes>
            0 -1 29 -6.1949938535690308e-03</internalNodes>
          <leafValues>
            6.6615879535675049e-01 -4.4662758708000183e-01</leafValues></_>
        <_>
          <internalNodes>
            0 -1 3 4.7368641942739487e-02</internalNodes>
          <leafValues>
            -7.2897785902023315e-01 4.0254092216491699e-01</leafValues></_>
        <_>
          <internalNodes>
            0 -1 0 -6.9866985082626343e-02</internalNodes>
          <leafValues>
            3.6154964566230774e-01 -7.5684779882431030e-01</leafValues></_></weakClassifiers></_>
    <!-- stage 8 -->
    <_>
      <maxWeakCount>4</maxWeakCount>
      <stageThreshold>-6.3069075345993042e-01</stageThreshold>
      <weakClassifiers>
        <_>
          <internalNodes>
            0 -1 36 -3.7027508951723576e-03</internalNodes>
          <leafValues>
            4.1269841790199280e-01 -6.4771151542663574e-01</leafValues></_>
        <_>
          <internalNodes>
            0 -1 20 -2.4285744875669479e-03</internalNodes>
          <leafValues>
            5.5770349502563477e-01 -4.7930297255516052e-01</leafValues></_>
        <_>
          <internalNodes>
            0 -1 18 -8.1625487655401230e-03</internalNodes>
          <leafValues>
            -8.6914408206939697e-01 2.9867610335350037e-01</leafValues></_>
        <_>
          <internalNodes>
            0 -1 34 -6.3817272894084454e-04</internalNodes>
          <leafValues>
            -8.3935886621475220e-01 3.1322807073593140e-01</leafValues></_></weakClassifiers></_>
    <!-- stage 9 -->
    <_>
      <maxWeakCount>4</maxWeakCount>
      <stageThreshold>-5.9541475772857666e-01</stageThreshold>
      <weakClassifiers>
        <_>
          <internalNodes>
            0 -1 7 7.5684748589992523e-03</internalNodes>
          <leafValues>
            -5.0382512807846069e-01 5.2034884691238403e-01</leafValues></_>
        <_>
          <internalNodes>
            0 -1 30 -4.4526285491883755e-03</internalNodes>
          <leafValues>
            2.5671422481536865e-01 -9.5607912540435791e-01</leafValues></_>
        <_>
          <internalNodes>
            0 -1 28 2.8532505966722965e-03</internalNodes>
          <leafValues>
            -8.6093038320541382e-01 2.2891852259635925e-01</leafValues></_>
        <_>
          <internalNodes>
            0 -1 32 4.5078154653310776e-03</internalNodes>
          <leafValues>
            -3.8860300183296204e-01 7.2145444154739380e-01</leafValues></_></weakClassifiers></_>
    <!-- stage 10 -->
    <_>
      <maxWeakCount>4</maxWeakCount>
      <stageThreshold>-9.5710313320159912e-01</stageThreshold>
      <weakClassifiers>
        <_>
          <internalNodes>
            0 -1 17 -8.2709565758705139e-03</internalNodes>
          <leafValues>
            5.5786347389221191e-01 -5.1560819149017334e-01</leafValues></_>
        <_>
          <internalNodes>
            0 -1 27 -3.4790588542819023e-03</internalNodes>
          <leafValues>
            2.7590242028236389e-01 -8.3081203699111938e-01</leafValues></_>
        <_>
          <internalNodes>
            0 -1 31 1.5358433593064547e-03</internalNodes>
          <leafValues>
            2.0776700973510742e-01 -9.4183552265167236e-01</leafValues></_>
        <_>
          <internalNodes>
            0 -1 12 9.7327008843421936e-03</internalNodes>
          <leafValues>
            -9.2516440153121948e-01 2.1814383566379547e-01</leafValues></_></weakClassifiers></_></stages>
  <features>
    <_>
      <rects>
        <_>
          0 4 15 21 -1.</_>
        <_>
          5 4 5 21 3.</_></rects>
      <tilted>0</tilted></_>
    <_>
      <rects>
        <_>
          0 5 8 7 -1.</_>
        <_>
          4 5 4 7 2.</_></rects>
      <tilted>0</tilted></_>
    <_>
      <rects>
        <_>
          0 5 8 15 -1.</_>
        <_>
          4 5 4 15 2.</_></rects>
      <tilted>0</tilted></_>
    <_>
      <rects>
        <_>
          2 2 12 12 -1.</_>
        <_>
          2 2 6 6 2.</_>
        <_>
          8 8 6 6 2.</_></rects>
      <tilted>0</tilted></_>
    <_>
      <rects>
        <_>
          2 3 18 1 -1.</_>
        <_>
          8 3 6 1 3.</_></rects>
      <tilted>0</tilted></_>
    <_>
      <rects>
        <_>
          2 19 18 4 -1.</_>
        <_>
          2 21 18 2 2.</_></rects>
      <tilted>0</tilted></_>
    <_>
      <rects>
        <_>
          3 10 12 12 -1.</_>
        <_>
          3 10 6 6 2.</_>
        <_>
          9 16 6 6 2.</_></rects>
      <tilted>0</tilted></_>
    <_>
      <rects>
        <_>
          3 19 6 4 -1.</_>
        <_>
          3 19 3 2 2.</_>
        <_>
          6 21 3 2 2.</_></rects>
      <tilted>0</tilted></_>
    <_>
      <rects>
        <_>
          3 23 12 2 -1.</_>
        <_>
          3 23 6 1 2.</_>
        <_>
          9 24 6 1 2.</_></rects>
      <tilted>0</tilted></_>
    <_>
      <rects>
        <_>
          4 5 16 9 -1.</_>
        <_>
          4 8 16 3 3.</_></rects>
      <tilted>0</tilted></_>
    <_>
      <rects>
        <_>
          4 19 18 2 -1.</_>
        <_>
          10 19 6 2 3.</_></rects>
      <tilted>0</tilted></_>
    <_>
      <rects>
        <_>
          5 0 4 10 -1.</_>
        <_>
          5 5 4 5 2.</_></rects>
      <tilted>0</tilted></_>
    <_>
      <rects>
        <_>
          5 6 13 8 -1.</_>
        <_>
          5 10 13 4 2.</_></rects>
      <tilted>0</tilted></_>
    <_>
      <rects>
        <_>
          6 1 4 2 -1.</_>
        <_>
          6 1 2 1 2.</_>
        <_>
          8 2 2 1 2.</_></rects>
      <tilted>0</tilted></_>
    <_>
      <rects>
        <_>
          6 1 13 4 -1.</_>
        <_>
          6 3 13 2 2.</_></rects>
      <tilted>0</tilted></_>
    <_>
      <rects>
        <_>
          6 9 12 5 -1.</_>
        <_>
          10 9 4 5 3.</_></rects>
      <tilted>0</tilted></_>
    <_>
      <rects>
        <_>
          6 9 10 4 -1.</_>
        <_>
          6 11 10 2 2.</_></rects>
      <tilted>0</tilted></_>
    <_>
      <rects>
        <_>
          7 1 10 2 -1.</_>
        <_>
          7 2 10 1 2.</_></rects>
      <tilted>0</tilted></_>
    <_>
      <rects>
        <_>
          7 5 10 6 -1.</_>
        <_>
          7 7 10 2 3.</_></rects>
      <tilted>0</tilted></_>
    <_>
      <rects>
        <_>
          8 17 10 6 -1.</_>
        <_>
          8 19 10 2 3.</_></rects>
      <tilted>0</tilted></_>
    <_>
      <rects>
        <_>
          9 14 6 1 -1.</_>
        <_>
          11 14 2 1 3.</_></rects>
      <tilted>0</tilted></_>
    <_>
      <rects>
        <_>
          9 20 7 4 -1.</_>
        <_>
          9 22 7 2 2.</_></rects>
      <tilted>0</tilted></_>
    <_>
      <rects>
        <_>
          10 4 4 15 -1.</_>
        <_>
          10 9 4 5 3.</_></rects>
      <tilted>0</tilted></_>
    <_>
      <rects>
        <_>
          10 4 15 15 -1.</_>
        <_>
          15 4 5 15 3.</_></rects>
      <tilted>0</tilted></_>
    <_>
      <rects>
        <_>
          10 7 15 5 -1.</_>
        <_>
          15 7 5 5 3.</_></rects>
      <tilted>0</tilted></_>
    <_>
      <rects>
        <_>
          11 11 3 8 -1.</_>
        <_>
          11 15 3 4 2.</_></rects>
      <tilted>0</tilted></_>
    <_>
      <rects>
        <_>
          12 11 1 6 -1.</_>
        <_>
          12 14 1 3 2.</_></rects>
      <tilted>0</tilted></_>
    <_>
      <rects>
        <_>
          12 12 2 9 -1.</_>
        <_>
          12 15 2 3 3.</_></rects>
      <tilted>0</tilted></_>
    <_>
      <rects>
        <_>
          12 20 10 1 -1.</_>
        <_>
          17 20 5 1 2.</_></rects>
      <tilted>0</tilted></_>
    <_>
      <rects>
        <_>
          13 21 8 2 -1.</_>
        <_>
          13 21 4 1 2.</_>
        <_>
          17 22 4 1 2.</_></rects>
      <tilted>0</tilted></_>
    <_>
      <rects>
        <_>
          15 1 3 10 -1.</_>
        <_>
          15 6 3 5 2.</_></rects>
      <tilted>0</tilted></_>
    <_>
      <rects>
        <_>
          15 9 6 2 -1.</_>
        <_>
          15 10 6 1 2.</_></rects>
      <tilted>0</tilted></_>
    <_>
      <rects>
        <_>
          15 22 8 2 -1.</_>
        <_>
          15 22 4 1 2.</_>
        <_>
          19 23 4 1 2.</_></rects>
      <tilted>0</tilted></_>
    <_>
      <rects>
        <_>
          16 5 8 7 -1.</_>
        <_>
          20 5 4 7 2.</_></rects>
      <tilted>0</tilted></_>
    <_>
      <rects>
        <_>
          17 6 1 6 -1.</_>
        <_>
          17 9 1 3 2.</_></rects>
      <tilted>0</tilted></_>
    <_>
      <rects>
        <_>
          18 4 6 14 -1.</_>
        <_>
          21 4 3 14 2.</_></rects>
      <tilted>0</tilted></_>
    <_>
      <rects>
        <_>
          20 3 1 10 -1.</_>
        <_>
          20 8 1 5 2.</_></rects>
      <tilted>0</tilted></_></features></cascade>
</opencv_storage>
