<?xml version="1.0"?>
<opencv_storage>
<stage11>
  <maxWeakCount>8</maxWeakCount>
  <stageThreshold>-1.0276128053665161e+00</stageThreshold>
  <weakClassifiers>
    <_>
      <internalNodes>
        0 -1 72010 3.3225733786821365e-02</internalNodes>
      <leafValues>
        -4.5431470870971680e-01 3.6046510934829712e-01</leafValues></_>
    <_>
      <internalNodes>
        0 -1 128686 -8.9258849620819092e-03</internalNodes>
      <leafValues>
        1.7829160392284393e-01 -8.0083483457565308e-01</leafValues></_>
    <_>
      <internalNodes>
        0 -1 77316 5.6594725698232651e-02</internalNodes>
      <leafValues>
        1.5009580552577972e-01 -9.8628944158554077e-01</leafValues></_>
    <_>
      <internalNodes>
        0 -1 83390 9.0595232322812080e-03</internalNodes>
      <leafValues>
        -6.7386239767074585e-01 1.7355956137180328e-01</leafValues></_>
    <_>
      <internalNodes>
        0 -1 149027 2.7556987479329109e-02</internalNodes>
      <leafValues>
        -5.4647403955459595e-01 2.6944735646247864e-01</leafValues></_>
    <_>
      <internalNodes>
        0 -1 181442 -2.8792710974812508e-02</internalNodes>
      <leafValues>
        5.4187172651290894e-01 -3.0789166688919067e-01</leafValues></_>
    <_>
      <internalNodes>
        0 -1 121266 -3.4450343810021877e-03</internalNodes>
      <leafValues>
        -9.0603041648864746e-01 1.4607053995132446e-01</leafValues></_>
    <_>
      <internalNodes>
        0 -1 147660 -3.4594837576150894e-02</internalNodes>
      <leafValues>
        7.2132503986358643e-01 -2.3758675158023834e-01</leafValues></_></weakClassifiers></stage11>
</opencv_storage>
