<?xml version="1.0"?>
<opencv_storage>
<stage9>
  <maxWeakCount>7</maxWeakCount>
  <stageThreshold>-6.8443709611892700e-01</stageThreshold>
  <weakClassifiers>
    <_>
      <internalNodes>
        0 -1 154854 3.0418749898672104e-02</internalNodes>
      <leafValues>
        -7.1951222419738770e-01 2.6470589637756348e-01</leafValues></_>
    <_>
      <internalNodes>
        0 -1 80479 -4.4681720435619354e-02</internalNodes>
      <leafValues>
        4.5507112145423889e-01 -4.5956999063491821e-01</leafValues></_>
    <_>
      <internalNodes>
        0 -1 142588 -2.4257605895400047e-02</internalNodes>
      <leafValues>
        2.9148998856544495e-01 -6.3704526424407959e-01</leafValues></_>
    <_>
      <internalNodes>
        0 -1 101993 -5.6013395078480244e-04</internalNodes>
      <leafValues>
        1.9014106690883636e-01 -8.5016280412673950e-01</leafValues></_>
    <_>
      <internalNodes>
        0 -1 163971 -8.5379406809806824e-03</internalNodes>
      <leafValues>
        2.1728418767452240e-01 -7.3153567314147949e-01</leafValues></_>
    <_>
      <internalNodes>
        0 -1 20982 -1.7977073788642883e-02</internalNodes>
      <leafValues>
        4.2785036563873291e-01 -4.0834113955497742e-01</leafValues></_>
    <_>
      <internalNodes>
        0 -1 103594 3.4113526344299316e-02</internalNodes>
      <leafValues>
        -5.4427975416183472e-01 3.1669929623603821e-01</leafValues></_></weakClassifiers></stage9>
</opencv_storage>
