<?xml version="1.0"?>
<opencv_storage>
<stage6>
  <maxWeakCount>5</maxWeakCount>
  <stageThreshold>-7.9744720458984375e-01</stageThreshold>
  <weakClassifiers>
    <_>
      <internalNodes>
        0 -1 62875 9.3481227755546570e-02</internalNodes>
      <leafValues>
        -5.1768487691879272e-01 6.0839158296585083e-01</leafValues></_>
    <_>
      <internalNodes>
        0 -1 101635 -3.3127292990684509e-03</internalNodes>
      <leafValues>
        2.6387953758239746e-01 -9.2166405916213989e-01</leafValues></_>
    <_>
      <internalNodes>
        0 -1 141638 -5.5416140705347061e-02</internalNodes>
      <leafValues>
        4.3083852529525757e-01 -5.2085578441619873e-01</leafValues></_>
    <_>
      <internalNodes>
        0 -1 2484 -6.5073311328887939e-02</internalNodes>
      <leafValues>
        6.6200184822082520e-01 -3.9831677079200745e-01</leafValues></_>
    <_>
      <internalNodes>
        0 -1 174179 2.6752764359116554e-02</internalNodes>
      <leafValues>
        -4.9890655279159546e-01 5.0075566768646240e-01</leafValues></_></weakClassifiers></stage6>
</opencv_storage>
