<?xml version="1.0"?>
<opencv_storage>
<cascade>
  <stageType>BOOST</stageType>
  <featureType>HAAR</featureType>
  <height>25</height>
  <width>25</width>
  <stageParams>
    <boostType>GAB</boostType>
    <minHitRate>9.9500000476837158e-01</minHitRate>
    <maxFalseAlarm>5.0000000000000000e-01</maxFalseAlarm>
    <weightTrimRate>9.4999999999999996e-01</weightTrimRate>
    <maxDepth>1</maxDepth>
    <maxWeakCount>100</maxWeakCount></stageParams>
  <featureParams>
    <maxCatCount>0</maxCatCount>
    <featSize>1</featSize>
    <mode>BASIC</mode></featureParams>
  <stageNum>14</stageNum>
  <stages>
    <!-- stage 0 -->
    <_>
      <maxWeakCount>2</maxWeakCount>
      <stageThreshold>-1.1986045539379120e-01</stageThreshold>
      <weakClassifiers>
        <_>
          <internalNodes>
            0 -1 48 1.0054972954094410e-02</internalNodes>
          <leafValues>
            -9.7076737880706787e-01 8.8505744934082031e-01</leafValues></_>
        <_>
          <internalNodes>
            0 -1 39 -2.6194944977760315e-02</internalNodes>
          <leafValues>
            8.5090690851211548e-01 -9.0562891960144043e-01</leafValues></_></weakClassifiers></_>
    <!-- stage 1 -->
    <_>
      <maxWeakCount>3</maxWeakCount>
      <stageThreshold>-1.0593942403793335e+00</stageThreshold>
      <weakClassifiers>
        <_>
          <internalNodes>
            0 -1 46 -2.6875300332903862e-02</internalNodes>
          <leafValues>
            7.8717947006225586e-01 -8.7135922908782959e-01</leafValues></_>
        <_>
          <internalNodes>
            0 -1 17 2.0965348929166794e-02</internalNodes>
          <leafValues>
            -9.1027790307998657e-01 5.6803303956985474e-01</leafValues></_>
        <_>
          <internalNodes>
            0 -1 37 -3.5462580621242523e-02</internalNodes>
          <leafValues>
            7.2224295139312744e-01 -6.8122863769531250e-01</leafValues></_></weakClassifiers></_>
    <!-- stage 2 -->
    <_>
      <maxWeakCount>3</maxWeakCount>
      <stageThreshold>-9.7122192382812500e-01</stageThreshold>
      <weakClassifiers>
        <_>
          <internalNodes>
            0 -1 22 9.9943399429321289e-02</internalNodes>
          <leafValues>
            -8.8766789436340332e-01 7.9363059997558594e-01</leafValues></_>
        <_>
          <internalNodes>
            0 -1 52 -2.7650252450257540e-03</internalNodes>
          <leafValues>
            6.5482527017593384e-01 -8.0006092786788940e-01</leafValues></_>
        <_>
          <internalNodes>
            0 -1 64 -1.4063620008528233e-02</internalNodes>
          <leafValues>
            7.1650683879852295e-01 -7.0894795656204224e-01</leafValues></_></weakClassifiers></_>
    <!-- stage 3 -->
    <_>
      <maxWeakCount>2</maxWeakCount>
      <stageThreshold>-1.7890521883964539e-01</stageThreshold>
      <weakClassifiers>
        <_>
          <internalNodes>
            0 -1 32 -7.7390551567077637e-02</internalNodes>
          <leafValues>
            8.2318842411041260e-01 -7.3522973060607910e-01</leafValues></_>
        <_>
          <internalNodes>
            0 -1 26 6.7589163780212402e-02</internalNodes>
          <leafValues>
            -9.0122437477111816e-01 5.5632454156875610e-01</leafValues></_></weakClassifiers></_>
    <!-- stage 4 -->
    <_>
      <maxWeakCount>5</maxWeakCount>
      <stageThreshold>-8.3399683237075806e-01</stageThreshold>
      <weakClassifiers>
        <_>
          <internalNodes>
            0 -1 29 -1.1865828931331635e-01</internalNodes>
          <leafValues>
            6.7213112115859985e-01 -6.8348622322082520e-01</leafValues></_>
        <_>
          <internalNodes>
            0 -1 50 1.0199051350355148e-02</internalNodes>
          <leafValues>
            -8.1309020519256592e-01 4.1091531515121460e-01</leafValues></_>
        <_>
          <internalNodes>
            0 -1 63 -1.8445743247866631e-02</internalNodes>
          <leafValues>
            5.3250652551651001e-01 -6.1730670928955078e-01</leafValues></_>
        <_>
          <internalNodes>
            0 -1 19 -1.9615804776549339e-02</internalNodes>
          <leafValues>
            5.4541003704071045e-01 -6.1640632152557373e-01</leafValues></_>
        <_>
          <internalNodes>
            0 -1 16 1.1577297002077103e-02</internalNodes>
          <leafValues>
            -4.1533693671226501e-01 7.6525819301605225e-01</leafValues></_></weakClassifiers></_>
    <!-- stage 5 -->
    <_>
      <maxWeakCount>4</maxWeakCount>
      <stageThreshold>-6.3430935144424438e-01</stageThreshold>
      <weakClassifiers>
        <_>
          <internalNodes>
            0 -1 8 2.4031899869441986e-02</internalNodes>
          <leafValues>
            -6.6666668653488159e-01 5.3101736307144165e-01</leafValues></_>
        <_>
          <internalNodes>
            0 -1 49 2.4355258792638779e-02</internalNodes>
          <leafValues>
            -7.5381058454513550e-01 3.7945392727851868e-01</leafValues></_>
        <_>
          <internalNodes>
            0 -1 41 -3.6521688103675842e-02</internalNodes>
          <leafValues>
            4.7656509280204773e-01 -6.3441944122314453e-01</leafValues></_>
        <_>
          <internalNodes>
            0 -1 44 -9.8400413990020752e-03</internalNodes>
          <leafValues>
            3.3294022083282471e-01 -8.2366168498992920e-01</leafValues></_></weakClassifiers></_>
    <!-- stage 6 -->
    <_>
      <maxWeakCount>4</maxWeakCount>
      <stageThreshold>-7.6515996456146240e-01</stageThreshold>
      <weakClassifiers>
        <_>
          <internalNodes>
            0 -1 23 1.3575395569205284e-02</internalNodes>
          <leafValues>
            -8.6256778240203857e-01 3.5490009188652039e-01</leafValues></_>
        <_>
          <internalNodes>
            0 -1 61 2.2000536322593689e-02</internalNodes>
          <leafValues>
            -5.8996933698654175e-01 4.2358404397964478e-01</leafValues></_>
        <_>
          <internalNodes>
            0 -1 1 2.5798212736845016e-02</internalNodes>
          <leafValues>
            -9.5202052593231201e-01 2.6208999752998352e-01</leafValues></_>
        <_>
          <internalNodes>
            0 -1 43 -5.5522727780044079e-03</internalNodes>
          <leafValues>
            4.2528721690177917e-01 -5.5814999341964722e-01</leafValues></_></weakClassifiers></_>
    <!-- stage 7 -->
    <_>
      <maxWeakCount>4</maxWeakCount>
      <stageThreshold>-6.2021404504776001e-01</stageThreshold>
      <weakClassifiers>
        <_>
          <internalNodes>
            0 -1 30 -8.8316865265369415e-02</internalNodes>
          <leafValues>
            4.9771690368652344e-01 -7.4175822734832764e-01</leafValues></_>
        <_>
          <internalNodes>
            0 -1 18 3.2480664551258087e-02</internalNodes>
          <leafValues>
            -9.1103690862655640e-01 2.3878157138824463e-01</leafValues></_>
        <_>
          <internalNodes>
            0 -1 72 4.6078185550868511e-03</internalNodes>
          <leafValues>
            -4.1539478302001953e-01 6.8671774864196777e-01</leafValues></_>
        <_>
          <internalNodes>
            0 -1 45 -7.3082810267806053e-03</internalNodes>
          <leafValues>
            2.9815742373466492e-01 -7.8118407726287842e-01</leafValues></_></weakClassifiers></_>
    <!-- stage 8 -->
    <_>
      <maxWeakCount>7</maxWeakCount>
      <stageThreshold>-1.3634160757064819e+00</stageThreshold>
      <weakClassifiers>
        <_>
          <internalNodes>
            0 -1 42 5.6490637362003326e-02</internalNodes>
          <leafValues>
            -7.4239712953567505e-01 2.9760766029357910e-01</leafValues></_>
        <_>
          <internalNodes>
            0 -1 11 4.8122104257345200e-02</internalNodes>
          <leafValues>
            -4.2102074623107910e-01 6.6843026876449585e-01</leafValues></_>
        <_>
          <internalNodes>
            0 -1 60 3.3789701759815216e-02</internalNodes>
          <leafValues>
            -4.4403100013732910e-01 4.8341333866119385e-01</leafValues></_>
        <_>
          <internalNodes>
            0 -1 38 4.6285703778266907e-02</internalNodes>
          <leafValues>
            -9.2977416515350342e-01 2.6197415590286255e-01</leafValues></_>
        <_>
          <internalNodes>
            0 -1 25 3.9589136838912964e-02</internalNodes>
          <leafValues>
            -3.6640977859497070e-01 6.5472841262817383e-01</leafValues></_>
        <_>
          <internalNodes>
            0 -1 62 2.8498243540525436e-02</internalNodes>
          <leafValues>
            2.2113300859928131e-01 -9.4189828634262085e-01</leafValues></_>
        <_>
          <internalNodes>
            0 -1 15 1.1943386867642403e-02</internalNodes>
          <leafValues>
            1.2733539938926697e-01 -8.9851379394531250e-01</leafValues></_></weakClassifiers></_>
    <!-- stage 9 -->
    <_>
      <maxWeakCount>7</maxWeakCount>
      <stageThreshold>-8.7351769208908081e-01</stageThreshold>
      <weakClassifiers>
        <_>
          <internalNodes>
            0 -1 57 -3.3234420698136091e-03</internalNodes>
          <leafValues>
            2.3642732203006744e-01 -8.0952382087707520e-01</leafValues></_>
        <_>
          <internalNodes>
            0 -1 69 -1.8735181074589491e-03</internalNodes>
          <leafValues>
            4.5282247662544250e-01 -4.7064489126205444e-01</leafValues></_>
        <_>
          <internalNodes>
            0 -1 51 -7.8734774142503738e-03</internalNodes>
          <leafValues>
            2.3901143670082092e-01 -8.4633916616439819e-01</leafValues></_>
        <_>
          <internalNodes>
            0 -1 2 -1.9854322075843811e-02</internalNodes>
          <leafValues>
            6.9720220565795898e-01 -3.2526504993438721e-01</leafValues></_>
        <_>
          <internalNodes>
            0 -1 27 2.4946544319391251e-02</internalNodes>
          <leafValues>
            -3.4009474515914917e-01 5.7383549213409424e-01</leafValues></_>
        <_>
          <internalNodes>
            0 -1 3 -2.9551356565207243e-03</internalNodes>
          <leafValues>
            6.5745770931243896e-01 -3.1083968281745911e-01</leafValues></_>
        <_>
          <internalNodes>
            0 -1 31 1.8910475075244904e-02</internalNodes>
          <leafValues>
            -9.7534161806106567e-01 2.2990880906581879e-01</leafValues></_></weakClassifiers></_>
    <!-- stage 10 -->
    <_>
      <maxWeakCount>7</maxWeakCount>
      <stageThreshold>-9.1344416141510010e-01</stageThreshold>
      <weakClassifiers>
        <_>
          <internalNodes>
            0 -1 34 -4.1134715080261230e-02</internalNodes>
          <leafValues>
            4.7791165113449097e-01 -5.3792297840118408e-01</leafValues></_>
        <_>
          <internalNodes>
            0 -1 71 -9.5717161893844604e-03</internalNodes>
          <leafValues>
            4.9258619546890259e-01 -3.9421314001083374e-01</leafValues></_>
        <_>
          <internalNodes>
            0 -1 14 -1.7352186143398285e-02</internalNodes>
          <leafValues>
            -8.4329366683959961e-01 2.1807008981704712e-01</leafValues></_>
        <_>
          <internalNodes>
            0 -1 20 8.4669627249240875e-03</internalNodes>
          <leafValues>
            -2.8972280025482178e-01 5.5317026376724243e-01</leafValues></_>
        <_>
          <internalNodes>
            0 -1 59 -2.0515866344794631e-04</internalNodes>
          <leafValues>
            2.7942264080047607e-01 -5.8782857656478882e-01</leafValues></_>
        <_>
          <internalNodes>
            0 -1 35 6.1124492436647415e-02</internalNodes>
          <leafValues>
            -2.7721849083900452e-01 7.6878833770751953e-01</leafValues></_>
        <_>
          <internalNodes>
            0 -1 5 3.8495834916830063e-02</internalNodes>
          <leafValues>
            2.8515189886093140e-01 -7.5475251674652100e-01</leafValues></_></weakClassifiers></_>
    <!-- stage 11 -->
    <_>
      <maxWeakCount>8</maxWeakCount>
      <stageThreshold>-1.0849821567535400e+00</stageThreshold>
      <weakClassifiers>
        <_>
          <internalNodes>
            0 -1 47 -1.2759598903357983e-03</internalNodes>
          <leafValues>
            2.7651140093803406e-01 -6.4369750022888184e-01</leafValues></_>
        <_>
          <internalNodes>
            0 -1 54 -7.2524594143033028e-03</internalNodes>
          <leafValues>
            3.8452717661857605e-01 -5.0772798061370850e-01</leafValues></_>
        <_>
          <internalNodes>
            0 -1 28 -2.4634920060634613e-02</internalNodes>
          <leafValues>
            7.1441674232482910e-01 -2.3853489756584167e-01</leafValues></_>
        <_>
          <internalNodes>
            0 -1 24 -1.7333701252937317e-02</internalNodes>
          <leafValues>
            -8.8538146018981934e-01 2.1228994429111481e-01</leafValues></_>
        <_>
          <internalNodes>
            0 -1 40 2.9648561030626297e-03</internalNodes>
          <leafValues>
            1.4655689895153046e-01 -8.8210076093673706e-01</leafValues></_>
        <_>
          <internalNodes>
            0 -1 67 -1.3441004790365696e-02</internalNodes>
          <leafValues>
            6.5860682725906372e-01 -2.4182680249214172e-01</leafValues></_>
        <_>
          <internalNodes>
            0 -1 10 4.0609270334243774e-02</internalNodes>
          <leafValues>
            -2.7048277854919434e-01 5.5032622814178467e-01</leafValues></_>
        <_>
          <internalNodes>
            0 -1 7 -4.2981199920177460e-02</internalNodes>
          <leafValues>
            7.1506518125534058e-01 -2.9727301001548767e-01</leafValues></_></weakClassifiers></_>
    <!-- stage 12 -->
    <_>
      <maxWeakCount>9</maxWeakCount>
      <stageThreshold>-9.2926925420761108e-01</stageThreshold>
      <weakClassifiers>
        <_>
          <internalNodes>
            0 -1 65 -1.9540917128324509e-02</internalNodes>
          <leafValues>
            5.3722333908081055e-01 -3.3514001965522766e-01</leafValues></_>
        <_>
          <internalNodes>
            0 -1 13 -1.6076471656560898e-02</internalNodes>
          <leafValues>
            2.8335183858871460e-01 -5.9183537960052490e-01</leafValues></_>
        <_>
          <internalNodes>
            0 -1 33 -1.8261350691318512e-02</internalNodes>
          <leafValues>
            3.1339409947395325e-01 -5.4378294944763184e-01</leafValues></_>
        <_>
          <internalNodes>
            0 -1 12 -1.6436779871582985e-02</internalNodes>
          <leafValues>
            -7.2766625881195068e-01 2.4358953535556793e-01</leafValues></_>
        <_>
          <internalNodes>
            0 -1 53 -3.4199971705675125e-03</internalNodes>
          <leafValues>
            2.4178597331047058e-01 -5.3390443325042725e-01</leafValues></_>
        <_>
          <internalNodes>
            0 -1 55 6.4003467559814453e-03</internalNodes>
          <leafValues>
            -8.2507467269897461e-01 1.8037821352481842e-01</leafValues></_>
        <_>
          <internalNodes>
            0 -1 21 3.7750584306195378e-04</internalNodes>
          <leafValues>
            -7.1270000934600830e-01 1.4965374767780304e-01</leafValues></_>
        <_>
          <internalNodes>
            0 -1 56 2.9557414352893829e-02</internalNodes>
          <leafValues>
            -2.3507699370384216e-01 6.7407697439193726e-01</leafValues></_>
        <_>
          <internalNodes>
            0 -1 66 -6.8818833678960800e-03</internalNodes>
          <leafValues>
            -9.1402864456176758e-01 2.0142306387424469e-01</leafValues></_></weakClassifiers></_>
    <!-- stage 13 -->
    <_>
      <maxWeakCount>9</maxWeakCount>
      <stageThreshold>-1.1352282762527466e+00</stageThreshold>
      <weakClassifiers>
        <_>
          <internalNodes>
            0 -1 6 -1.5680506825447083e-02</internalNodes>
          <leafValues>
            5.6993734836578369e-01 -3.3511111140251160e-01</leafValues></_>
        <_>
          <internalNodes>
            0 -1 36 -1.0397478472441435e-03</internalNodes>
          <leafValues>
            1.9516260921955109e-01 -7.7785795927047729e-01</leafValues></_>
        <_>
          <internalNodes>
            0 -1 70 -1.4547524973750114e-02</internalNodes>
          <leafValues>
            6.4971011877059937e-01 -2.5743672251701355e-01</leafValues></_>
        <_>
          <internalNodes>
            0 -1 9 -1.0395097732543945e-01</internalNodes>
          <leafValues>
            -9.8494797945022583e-01 1.3646347820758820e-01</leafValues></_>
        <_>
          <internalNodes>
            0 -1 4 -1.0067356750369072e-02</internalNodes>
          <leafValues>
            2.0325285196304321e-01 -7.1954214572906494e-01</leafValues></_>
        <_>
          <internalNodes>
            0 -1 41 -3.9920452982187271e-02</internalNodes>
          <leafValues>
            3.2231903076171875e-01 -4.8316854238510132e-01</leafValues></_>
        <_>
          <internalNodes>
            0 -1 0 4.8808686435222626e-02</internalNodes>
          <leafValues>
            -4.0536695718765259e-01 3.8088002800941467e-01</leafValues></_>
        <_>
          <internalNodes>
            0 -1 58 6.3542295247316360e-03</internalNodes>
          <leafValues>
            -5.7753342390060425e-01 2.6757261157035828e-01</leafValues></_>
        <_>
          <internalNodes>
            0 -1 68 -1.6483012586832047e-02</internalNodes>
          <leafValues>
            5.5974644422531128e-01 -2.8042992949485779e-01</leafValues></_></weakClassifiers></_></stages>
  <features>
    <_>
      <rects>
        <_>
          0 1 10 16 -1.</_>
        <_>
          0 1 5 8 2.</_>
        <_>
          5 9 5 8 2.</_></rects>
      <tilted>0</tilted></_>
    <_>
      <rects>
        <_>
          1 9 16 8 -1.</_>
        <_>
          1 9 8 4 2.</_>
        <_>
          9 13 8 4 2.</_></rects>
      <tilted>0</tilted></_>
    <_>
      <rects>
        <_>
          1 10 6 4 -1.</_>
        <_>
          3 10 2 4 3.</_></rects>
      <tilted>0</tilted></_>
    <_>
      <rects>
        <_>
          1 11 3 3 -1.</_>
        <_>
          2 11 1 3 3.</_></rects>
      <tilted>0</tilted></_>
    <_>
      <rects>
        <_>
          1 15 15 4 -1.</_>
        <_>
          1 17 15 2 2.</_></rects>
      <tilted>0</tilted></_>
    <_>
      <rects>
        <_>
          2 3 12 10 -1.</_>
        <_>
          2 8 12 5 2.</_></rects>
      <tilted>0</tilted></_>
    <_>
      <rects>
        <_>
          2 8 6 3 -1.</_>
        <_>
          4 8 2 3 3.</_></rects>
      <tilted>0</tilted></_>
    <_>
      <rects>
        <_>
          2 10 9 6 -1.</_>
        <_>
          5 10 3 6 3.</_></rects>
      <tilted>0</tilted></_>
    <_>
      <rects>
        <_>
          2 10 8 6 -1.</_>
        <_>
          6 10 4 6 2.</_></rects>
      <tilted>0</tilted></_>
    <_>
      <rects>
        <_>
          2 13 22 8 -1.</_>
        <_>
          2 17 22 4 2.</_></rects>
      <tilted>0</tilted></_>
    <_>
      <rects>
        <_>
          3 11 9 3 -1.</_>
        <_>
          6 11 3 3 3.</_></rects>
      <tilted>0</tilted></_>
    <_>
      <rects>
        <_>
          3 11 9 4 -1.</_>
        <_>
          6 11 3 4 3.</_></rects>
      <tilted>0</tilted></_>
    <_>
      <rects>
        <_>
          3 11 22 3 -1.</_>
        <_>
          14 11 11 3 2.</_></rects>
      <tilted>0</tilted></_>
    <_>
      <rects>
        <_>
          3 15 15 4 -1.</_>
        <_>
          3 17 15 2 2.</_></rects>
      <tilted>0</tilted></_>
    <_>
      <rects>
        <_>
          4 6 20 6 -1.</_>
        <_>
          4 8 20 2 3.</_></rects>
      <tilted>0</tilted></_>
    <_>
      <rects>
        <_>
          4 8 18 6 -1.</_>
        <_>
          4 10 18 2 3.</_></rects>
      <tilted>0</tilted></_>
    <_>
      <rects>
        <_>
          4 10 4 4 -1.</_>
        <_>
          6 10 2 4 2.</_></rects>
      <tilted>0</tilted></_>
    <_>
      <rects>
        <_>
          4 10 12 8 -1.</_>
        <_>
          4 10 6 4 2.</_>
        <_>
          10 14 6 4 2.</_></rects>
      <tilted>0</tilted></_>
    <_>
      <rects>
        <_>
          4 11 11 9 -1.</_>
        <_>
          4 14 11 3 3.</_></rects>
      <tilted>0</tilted></_>
    <_>
      <rects>
        <_>
          5 0 15 6 -1.</_>
        <_>
          5 3 15 3 2.</_></rects>
      <tilted>0</tilted></_>
    <_>
      <rects>
        <_>
          5 7 4 3 -1.</_>
        <_>
          7 7 2 3 2.</_></rects>
      <tilted>0</tilted></_>
    <_>
      <rects>
        <_>
          5 9 9 4 -1.</_>
        <_>
          5 11 9 2 2.</_></rects>
      <tilted>0</tilted></_>
    <_>
      <rects>
        <_>
          6 5 13 18 -1.</_>
        <_>
          6 11 13 6 3.</_></rects>
      <tilted>0</tilted></_>
    <_>
      <rects>
        <_>
          6 5 14 8 -1.</_>
        <_>
          6 9 14 4 2.</_></rects>
      <tilted>0</tilted></_>
    <_>
      <rects>
        <_>
          6 7 12 6 -1.</_>
        <_>
          6 9 12 2 3.</_></rects>
      <tilted>0</tilted></_>
    <_>
      <rects>
        <_>
          6 8 6 6 -1.</_>
        <_>
          8 8 2 6 3.</_></rects>
      <tilted>0</tilted></_>
    <_>
      <rects>
        <_>
          6 9 12 12 -1.</_>
        <_>
          6 13 12 4 3.</_></rects>
      <tilted>0</tilted></_>
    <_>
      <rects>
        <_>
          6 10 6 4 -1.</_>
        <_>
          8 10 2 4 3.</_></rects>
      <tilted>0</tilted></_>
    <_>
      <rects>
        <_>
          6 18 9 3 -1.</_>
        <_>
          9 18 3 3 3.</_></rects>
      <tilted>0</tilted></_>
    <_>
      <rects>
        <_>
          7 3 12 12 -1.</_>
        <_>
          11 3 4 12 3.</_></rects>
      <tilted>0</tilted></_>
    <_>
      <rects>
        <_>
          7 6 12 8 -1.</_>
        <_>
          11 6 4 8 3.</_></rects>
      <tilted>0</tilted></_>
    <_>
      <rects>
        <_>
          7 7 12 8 -1.</_>
        <_>
          7 11 12 4 2.</_></rects>
      <tilted>0</tilted></_>
    <_>
      <rects>
        <_>
          7 9 12 5 -1.</_>
        <_>
          11 9 4 5 3.</_></rects>
      <tilted>0</tilted></_>
    <_>
      <rects>
        <_>
          7 11 6 3 -1.</_>
        <_>
          10 11 3 3 2.</_></rects>
      <tilted>0</tilted></_>
    <_>
      <rects>
        <_>
          7 12 12 2 -1.</_>
        <_>
          11 12 4 2 3.</_></rects>
      <tilted>0</tilted></_>
    <_>
      <rects>
        <_>
          8 6 15 5 -1.</_>
        <_>
          13 6 5 5 3.</_></rects>
      <tilted>0</tilted></_>
    <_>
      <rects>
        <_>
          8 7 17 9 -1.</_>
        <_>
          8 10 17 3 3.</_></rects>
      <tilted>0</tilted></_>
    <_>
      <rects>
        <_>
          8 10 9 4 -1.</_>
        <_>
          11 10 3 4 3.</_></rects>
      <tilted>0</tilted></_>
    <_>
      <rects>
        <_>
          9 6 9 12 -1.</_>
        <_>
          9 12 9 6 2.</_></rects>
      <tilted>0</tilted></_>
    <_>
      <rects>
        <_>
          9 7 9 8 -1.</_>
        <_>
          12 7 3 8 3.</_></rects>
      <tilted>0</tilted></_>
    <_>
      <rects>
        <_>
          9 7 7 6 -1.</_>
        <_>
          9 9 7 2 3.</_></rects>
      <tilted>0</tilted></_>
    <_>
      <rects>
        <_>
          9 11 9 4 -1.</_>
        <_>
          12 11 3 4 3.</_></rects>
      <tilted>0</tilted></_>
    <_>
      <rects>
        <_>
          9 11 8 9 -1.</_>
        <_>
          9 14 8 3 3.</_></rects>
      <tilted>0</tilted></_>
    <_>
      <rects>
        <_>
          9 13 6 2 -1.</_>
        <_>
          11 13 2 2 3.</_></rects>
      <tilted>0</tilted></_>
    <_>
      <rects>
        <_>
          9 15 16 3 -1.</_>
        <_>
          17 15 8 3 2.</_></rects>
      <tilted>0</tilted></_>
    <_>
      <rects>
        <_>
          10 10 6 6 -1.</_>
        <_>
          12 10 2 6 3.</_></rects>
      <tilted>0</tilted></_>
    <_>
      <rects>
        <_>
          10 11 12 6 -1.</_>
        <_>
          10 11 6 3 2.</_>
        <_>
          16 14 6 3 2.</_></rects>
      <tilted>0</tilted></_>
    <_>
      <rects>
        <_>
          10 12 5 3 -1.</_>
        <_>
          10 13 5 1 3.</_></rects>
      <tilted>0</tilted></_>
    <_>
      <rects>
        <_>
          10 12 6 4 -1.</_>
        <_>
          10 14 6 2 2.</_></rects>
      <tilted>0</tilted></_>
    <_>
      <rects>
        <_>
          11 11 4 6 -1.</_>
        <_>
          11 14 4 3 2.</_></rects>
      <tilted>0</tilted></_>
    <_>
      <rects>
        <_>
          11 13 3 6 -1.</_>
        <_>
          11 15 3 2 3.</_></rects>
      <tilted>0</tilted></_>
    <_>
      <rects>
        <_>
          11 15 9 6 -1.</_>
        <_>
          11 18 9 3 2.</_></rects>
      <tilted>0</tilted></_>
    <_>
      <rects>
        <_>
          12 0 1 8 -1.</_>
        <_>
          12 4 1 4 2.</_></rects>
      <tilted>0</tilted></_>
    <_>
      <rects>
        <_>
          12 0 1 12 -1.</_>
        <_>
          12 4 1 4 3.</_></rects>
      <tilted>0</tilted></_>
    <_>
      <rects>
        <_>
          12 0 2 6 -1.</_>
        <_>
          12 3 2 3 2.</_></rects>
      <tilted>0</tilted></_>
    <_>
      <rects>
        <_>
          12 12 1 9 -1.</_>
        <_>
          12 15 1 3 3.</_></rects>
      <tilted>0</tilted></_>
    <_>
      <rects>
        <_>
          12 15 9 3 -1.</_>
        <_>
          15 15 3 3 3.</_></rects>
      <tilted>0</tilted></_>
    <_>
      <rects>
        <_>
          13 0 1 12 -1.</_>
        <_>
          13 6 1 6 2.</_></rects>
      <tilted>0</tilted></_>
    <_>
      <rects>
        <_>
          13 5 1 12 -1.</_>
        <_>
          13 11 1 6 2.</_></rects>
      <tilted>0</tilted></_>
    <_>
      <rects>
        <_>
          13 9 3 7 -1.</_>
        <_>
          14 9 1 7 3.</_></rects>
      <tilted>0</tilted></_>
    <_>
      <rects>
        <_>
          13 11 9 3 -1.</_>
        <_>
          16 11 3 3 3.</_></rects>
      <tilted>0</tilted></_>
    <_>
      <rects>
        <_>
          13 12 9 2 -1.</_>
        <_>
          16 12 3 2 3.</_></rects>
      <tilted>0</tilted></_>
    <_>
      <rects>
        <_>
          15 9 9 6 -1.</_>
        <_>
          15 12 9 3 2.</_></rects>
      <tilted>0</tilted></_>
    <_>
      <rects>
        <_>
          15 11 8 4 -1.</_>
        <_>
          19 11 4 4 2.</_></rects>
      <tilted>0</tilted></_>
    <_>
      <rects>
        <_>
          15 12 8 3 -1.</_>
        <_>
          19 12 4 3 2.</_></rects>
      <tilted>0</tilted></_>
    <_>
      <rects>
        <_>
          16 1 1 15 -1.</_>
        <_>
          16 6 1 5 3.</_></rects>
      <tilted>0</tilted></_>
    <_>
      <rects>
        <_>
          16 8 5 6 -1.</_>
        <_>
          16 10 5 2 3.</_></rects>
      <tilted>0</tilted></_>
    <_>
      <rects>
        <_>
          17 7 6 3 -1.</_>
        <_>
          19 7 2 3 3.</_></rects>
      <tilted>0</tilted></_>
    <_>
      <rects>
        <_>
          19 10 6 3 -1.</_>
        <_>
          21 10 2 3 3.</_></rects>
      <tilted>0</tilted></_>
    <_>
      <rects>
        <_>
          20 11 3 3 -1.</_>
        <_>
          21 11 1 3 3.</_></rects>
      <tilted>0</tilted></_>
    <_>
      <rects>
        <_>
          20 14 4 10 -1.</_>
        <_>
          20 14 2 5 2.</_>
        <_>
          22 19 2 5 2.</_></rects>
      <tilted>0</tilted></_>
    <_>
      <rects>
        <_>
          21 0 1 16 -1.</_>
        <_>
          21 8 1 8 2.</_></rects>
      <tilted>0</tilted></_>
    <_>
      <rects>
        <_>
          21 12 4 2 -1.</_>
        <_>
          23 12 2 2 2.</_></rects>
      <tilted>0</tilted></_></features></cascade>
</opencv_storage>
