<?xml version="1.0"?>
<opencv_storage>
<cascade>
  <stageType>BOOST</stageType>
  <featureType>HAAR</featureType>
  <height>25</height>
  <width>25</width>
  <stageParams>
    <boostType>GAB</boostType>
    <minHitRate>9.9500000476837158e-01</minHitRate>
    <maxFalseAlarm>5.0000000000000000e-01</maxFalseAlarm>
    <weightTrimRate>9.4999999999999996e-01</weightTrimRate>
    <maxDepth>1</maxDepth>
    <maxWeakCount>100</maxWeakCount></stageParams>
  <featureParams>
    <maxCatCount>0</maxCatCount>
    <featSize>1</featSize>
    <mode>BASIC</mode></featureParams>
  <stageNum>6</stageNum>
  <stages>
    <!-- stage 0 -->
    <_>
      <maxWeakCount>3</maxWeakCount>
      <stageThreshold>-1.0132176876068115e+00</stageThreshold>
      <weakClassifiers>
        <_>
          <internalNodes>
            0 -1 9 -1.0472123324871063e-01</internalNodes>
          <leafValues>
            1. -9.8319327831268311e-01</leafValues></_>
        <_>
          <internalNodes>
            0 -1 6 -1.1755004525184631e-01</internalNodes>
          <leafValues>
            8.5626065731048584e-01 -9.5460760593414307e-01</leafValues></_>
        <_>
          <internalNodes>
            0 -1 5 2.1572507917881012e-02</internalNodes>
          <leafValues>
            -9.4863808155059814e-01 9.2458319664001465e-01</leafValues></_></weakClassifiers></_>
    <!-- stage 1 -->
    <_>
      <maxWeakCount>3</maxWeakCount>
      <stageThreshold>-1.3339276313781738e+00</stageThreshold>
      <weakClassifiers>
        <_>
          <internalNodes>
            0 -1 16 -8.8104635477066040e-02</internalNodes>
          <leafValues>
            7.0731705427169800e-01 -9.6056336164474487e-01</leafValues></_>
        <_>
          <internalNodes>
            0 -1 11 -1.0255287587642670e-01</internalNodes>
          <leafValues>
            5.4719811677932739e-01 -9.2822837829589844e-01</leafValues></_>
        <_>
          <internalNodes>
            0 -1 3 2.1974893286824226e-02</internalNodes>
          <leafValues>
            -9.2056232690811157e-01 6.8511140346527100e-01</leafValues></_></weakClassifiers></_>
    <!-- stage 2 -->
    <_>
      <maxWeakCount>2</maxWeakCount>
      <stageThreshold>-4.5214891433715820e-01</stageThreshold>
      <weakClassifiers>
        <_>
          <internalNodes>
            0 -1 13 2.2984415292739868e-02</internalNodes>
          <leafValues>
            -9.3888890743255615e-01 7.2222220897674561e-01</leafValues></_>
        <_>
          <internalNodes>
            0 -1 8 9.1391667723655701e-02</internalNodes>
          <leafValues>
            -9.8541241884231567e-01 4.8673996329307556e-01</leafValues></_></weakClassifiers></_>
    <!-- stage 3 -->
    <_>
      <maxWeakCount>3</maxWeakCount>
      <stageThreshold>-1.1382631063461304e+00</stageThreshold>
      <weakClassifiers>
        <_>
          <internalNodes>
            0 -1 2 8.6308112367987633e-03</internalNodes>
          <leafValues>
            -9.4999998807907104e-01 8.3333331346511841e-01</leafValues></_>
        <_>
          <internalNodes>
            0 -1 4 5.3410176187753677e-02</internalNodes>
          <leafValues>
            -8.8268035650253296e-01 7.6441454887390137e-01</leafValues></_>
        <_>
          <internalNodes>
            0 -1 15 -2.0545888692140579e-02</internalNodes>
          <leafValues>
            6.9441729784011841e-01 -9.2127186059951782e-01</leafValues></_></weakClassifiers></_>
    <!-- stage 4 -->
    <_>
      <maxWeakCount>3</maxWeakCount>
      <stageThreshold>-1.1958594322204590e+00</stageThreshold>
      <weakClassifiers>
        <_>
          <internalNodes>
            0 -1 7 -1.5868267416954041e-01</internalNodes>
          <leafValues>
            5.7894736528396606e-01 -9.3296086788177490e-01</leafValues></_>
        <_>
          <internalNodes>
            0 -1 10 -2.1588716655969620e-02</internalNodes>
          <leafValues>
            6.4977616071701050e-01 -8.4376323223114014e-01</leafValues></_>
        <_>
          <internalNodes>
            0 -1 14 -6.7014517262578011e-03</internalNodes>
          <leafValues>
            5.8086472749710083e-01 -9.1282129287719727e-01</leafValues></_></weakClassifiers></_>
    <!-- stage 5 -->
    <_>
      <maxWeakCount>3</maxWeakCount>
      <stageThreshold>-9.6674430370330811e-01</stageThreshold>
      <weakClassifiers>
        <_>
          <internalNodes>
            0 -1 1 -6.5533123910427094e-02</internalNodes>
          <leafValues>
            5.6250000000000000e-01 -9.0659338235855103e-01</leafValues></_>
        <_>
          <internalNodes>
            0 -1 12 -1.9793508574366570e-02</internalNodes>
          <leafValues>
            6.3994854688644409e-01 -8.4273076057434082e-01</leafValues></_>
        <_>
          <internalNodes>
            0 -1 0 1.9962016493082047e-02</internalNodes>
          <leafValues>
            -6.8651354312896729e-01 7.8521698713302612e-01</leafValues></_></weakClassifiers></_></stages>
  <features>
    <_>
      <rects>
        <_>
          0 10 6 6 -1.</_>
        <_>
          2 10 2 6 3.</_></rects>
      <tilted>0</tilted></_>
    <_>
      <rects>
        <_>
          1 6 6 8 -1.</_>
        <_>
          3 6 2 8 3.</_></rects>
      <tilted>0</tilted></_>
    <_>
      <rects>
        <_>
          4 6 6 1 -1.</_>
        <_>
          6 6 2 1 3.</_></rects>
      <tilted>0</tilted></_>
    <_>
      <rects>
        <_>
          4 8 4 7 -1.</_>
        <_>
          6 8 2 7 2.</_></rects>
      <tilted>0</tilted></_>
    <_>
      <rects>
        <_>
          5 8 6 11 -1.</_>
        <_>
          7 8 2 11 3.</_></rects>
      <tilted>0</tilted></_>
    <_>
      <rects>
        <_>
          5 10 8 6 -1.</_>
        <_>
          5 10 4 3 2.</_>
        <_>
          9 13 4 3 2.</_></rects>
      <tilted>0</tilted></_>
    <_>
      <rects>
        <_>
          6 2 12 10 -1.</_>
        <_>
          10 2 4 10 3.</_></rects>
      <tilted>0</tilted></_>
    <_>
      <rects>
        <_>
          6 7 12 9 -1.</_>
        <_>
          10 7 4 9 3.</_></rects>
      <tilted>0</tilted></_>
    <_>
      <rects>
        <_>
          6 9 11 12 -1.</_>
        <_>
          6 13 11 4 3.</_></rects>
      <tilted>0</tilted></_>
    <_>
      <rects>
        <_>
          7 6 12 7 -1.</_>
        <_>
          11 6 4 7 3.</_></rects>
      <tilted>0</tilted></_>
    <_>
      <rects>
        <_>
          8 0 6 4 -1.</_>
        <_>
          8 2 6 2 2.</_></rects>
      <tilted>0</tilted></_>
    <_>
      <rects>
        <_>
          9 3 14 16 -1.</_>
        <_>
          9 3 7 8 2.</_>
        <_>
          16 11 7 8 2.</_></rects>
      <tilted>0</tilted></_>
    <_>
      <rects>
        <_>
          10 0 6 4 -1.</_>
        <_>
          10 2 6 2 2.</_></rects>
      <tilted>0</tilted></_>
    <_>
      <rects>
        <_>
          11 13 3 6 -1.</_>
        <_>
          11 15 3 2 3.</_></rects>
      <tilted>0</tilted></_>
    <_>
      <rects>
        <_>
          11 23 11 2 -1.</_>
        <_>
          11 24 11 1 2.</_></rects>
      <tilted>0</tilted></_>
    <_>
      <rects>
        <_>
          15 8 8 4 -1.</_>
        <_>
          19 8 4 4 2.</_></rects>
      <tilted>0</tilted></_>
    <_>
      <rects>
        <_>
          16 6 9 12 -1.</_>
        <_>
          19 6 3 12 3.</_></rects>
      <tilted>0</tilted></_></features></cascade>
</opencv_storage>
