<?xml version="1.0"?>
<opencv_storage>
<cascade>
  <stageType>BOOST</stageType>
  <featureType>HAAR</featureType>
  <height>40</height>
  <width>40</width>
  <stageParams>
    <boostType>GAB</boostType>
    <minHitRate>9.9500000476837158e-01</minHitRate>
    <maxFalseAlarm>5.0000000000000000e-01</maxFalseAlarm>
    <weightTrimRate>9.4999999999999996e-01</weightTrimRate>
    <maxDepth>1</maxDepth>
    <maxWeakCount>100</maxWeakCount></stageParams>
  <featureParams>
    <maxCatCount>0</maxCatCount>
    <featSize>1</featSize>
    <mode>BASIC</mode></featureParams>
  <stageNum>6</stageNum>
  <stages>
    <!-- stage 0 -->
    <_>
      <maxWeakCount>3</maxWeakCount>
      <stageThreshold>-1.1206061840057373e+00</stageThreshold>
      <weakClassifiers>
        <_>
          <internalNodes>
            0 -1 5 -4.9812611192464828e-02</internalNodes>
          <leafValues>
            1. -9.9436616897583008e-01</leafValues></_>
        <_>
          <internalNodes>
            0 -1 5 -4.9812611192464828e-02</internalNodes>
          <leafValues>
            1. -9.5955640077590942e-01</leafValues></_>
        <_>
          <internalNodes>
            0 -1 3 4.5831151306629181e-02</internalNodes>
          <leafValues>
            -9.9449515342712402e-01 8.3331644535064697e-01</leafValues></_></weakClassifiers></_>
    <!-- stage 1 -->
    <_>
      <maxWeakCount>2</maxWeakCount>
      <stageThreshold>-4.5296680927276611e-01</stageThreshold>
      <weakClassifiers>
        <_>
          <internalNodes>
            0 -1 14 -3.6248706281185150e-02</internalNodes>
          <leafValues>
            8.0000001192092896e-01 -9.6629214286804199e-01</leafValues></_>
        <_>
          <internalNodes>
            0 -1 7 3.3474531024694443e-02</internalNodes>
          <leafValues>
            -1. 5.1332533359527588e-01</leafValues></_></weakClassifiers></_>
    <!-- stage 2 -->
    <_>
      <maxWeakCount>3</maxWeakCount>
      <stageThreshold>-1.1882085800170898e+00</stageThreshold>
      <weakClassifiers>
        <_>
          <internalNodes>
            0 -1 4 4.3061628937721252e-02</internalNodes>
          <leafValues>
            -9.7727274894714355e-01 7.2727274894714355e-01</leafValues></_>
        <_>
          <internalNodes>
            0 -1 8 -1.3917878270149231e-02</internalNodes>
          <leafValues>
            6.8883872032165527e-01 -9.1049969196319580e-01</leafValues></_>
        <_>
          <internalNodes>
            0 -1 12 6.8418262526392937e-03</internalNodes>
          <leafValues>
            -9.1501635313034058e-01 6.9956380128860474e-01</leafValues></_></weakClassifiers></_>
    <!-- stage 3 -->
    <_>
      <maxWeakCount>2</maxWeakCount>
      <stageThreshold>-3.4914872050285339e-01</stageThreshold>
      <weakClassifiers>
        <_>
          <internalNodes>
            0 -1 9 -1.2269882485270500e-02</internalNodes>
          <leafValues>
            6.8421053886413574e-01 -9.4413405656814575e-01</leafValues></_>
        <_>
          <internalNodes>
            0 -1 6 7.9097047448158264e-02</internalNodes>
          <leafValues>
            -9.7100108861923218e-01 5.9498536586761475e-01</leafValues></_></weakClassifiers></_>
    <!-- stage 4 -->
    <_>
      <maxWeakCount>3</maxWeakCount>
      <stageThreshold>-1.1271357536315918e+00</stageThreshold>
      <weakClassifiers>
        <_>
          <internalNodes>
            0 -1 1 -8.5036009550094604e-02</internalNodes>
          <leafValues>
            6.0000002384185791e-01 -9.4382023811340332e-01</leafValues></_>
        <_>
          <internalNodes>
            0 -1 10 1.9850628450512886e-02</internalNodes>
          <leafValues>
            -8.1935220956802368e-01 6.1240619421005249e-01</leafValues></_>
        <_>
          <internalNodes>
            0 -1 11 -1.3145833509042859e-03</internalNodes>
          <leafValues>
            6.5772610902786255e-01 -7.9572165012359619e-01</leafValues></_></weakClassifiers></_>
    <!-- stage 5 -->
    <_>
      <maxWeakCount>3</maxWeakCount>
      <stageThreshold>-1.0357816219329834e+00</stageThreshold>
      <weakClassifiers>
        <_>
          <internalNodes>
            0 -1 2 -6.9341614842414856e-02</internalNodes>
          <leafValues>
            7.4193549156188965e-01 -9.1780823469161987e-01</leafValues></_>
        <_>
          <internalNodes>
            0 -1 13 1.4468041248619556e-02</internalNodes>
          <leafValues>
            -8.1487584114074707e-01 6.3774716854095459e-01</leafValues></_>
        <_>
          <internalNodes>
            0 -1 0 2.6648875325918198e-02</internalNodes>
          <leafValues>
            -7.3803400993347168e-01 6.9690245389938354e-01</leafValues></_></weakClassifiers></_></stages>
  <features>
    <_>
      <rects>
        <_>
          1 6 8 30 -1.</_>
        <_>
          1 6 4 15 2.</_>
        <_>
          5 21 4 15 2.</_></rects>
      <tilted>0</tilted></_>
    <_>
      <rects>
        <_>
          1 7 12 16 -1.</_>
        <_>
          5 7 4 16 3.</_></rects>
      <tilted>0</tilted></_>
    <_>
      <rects>
        <_>
          1 12 12 10 -1.</_>
        <_>
          5 12 4 10 3.</_></rects>
      <tilted>0</tilted></_>
    <_>
      <rects>
        <_>
          2 13 22 14 -1.</_>
        <_>
          2 13 11 7 2.</_>
        <_>
          13 20 11 7 2.</_></rects>
      <tilted>0</tilted></_>
    <_>
      <rects>
        <_>
          6 9 12 8 -1.</_>
        <_>
          10 9 4 8 3.</_></rects>
      <tilted>0</tilted></_>
    <_>
      <rects>
        <_>
          9 10 21 6 -1.</_>
        <_>
          16 10 7 6 3.</_></rects>
      <tilted>0</tilted></_>
    <_>
      <rects>
        <_>
          12 6 14 20 -1.</_>
        <_>
          12 16 14 10 2.</_></rects>
      <tilted>0</tilted></_>
    <_>
      <rects>
        <_>
          15 19 10 12 -1.</_>
        <_>
          15 23 10 4 3.</_></rects>
      <tilted>0</tilted></_>
    <_>
      <rects>
        <_>
          17 0 7 6 -1.</_>
        <_>
          17 3 7 3 2.</_></rects>
      <tilted>0</tilted></_>
    <_>
      <rects>
        <_>
          18 0 6 6 -1.</_>
        <_>
          18 3 6 3 2.</_></rects>
      <tilted>0</tilted></_>
    <_>
      <rects>
        <_>
          20 19 15 2 -1.</_>
        <_>
          25 19 5 2 3.</_></rects>
      <tilted>0</tilted></_>
    <_>
      <rects>
        <_>
          21 38 9 2 -1.</_>
        <_>
          21 39 9 1 2.</_></rects>
      <tilted>0</tilted></_>
    <_>
      <rects>
        <_>
          22 15 4 7 -1.</_>
        <_>
          24 15 2 7 2.</_></rects>
      <tilted>0</tilted></_>
    <_>
      <rects>
        <_>
          24 10 9 3 -1.</_>
        <_>
          27 10 3 3 3.</_></rects>
      <tilted>0</tilted></_>
    <_>
      <rects>
        <_>
          28 7 9 24 -1.</_>
        <_>
          31 7 3 24 3.</_></rects>
      <tilted>0</tilted></_></features></cascade>
</opencv_storage>
