<?xml version="1.0"?>
<opencv_storage>
<cascade>
  <stageType>BOOST</stageType>
  <featureType>HAAR</featureType>
  <height>25</height>
  <width>25</width>
  <stageParams>
    <boostType>GAB</boostType>
    <minHitRate>9.9500000476837158e-01</minHitRate>
    <maxFalseAlarm>5.0000000000000000e-01</maxFalseAlarm>
    <weightTrimRate>9.4999999999999996e-01</weightTrimRate>
    <maxDepth>1</maxDepth>
    <maxWeakCount>100</maxWeakCount></stageParams>
  <featureParams>
    <maxCatCount>0</maxCatCount>
    <featSize>1</featSize>
    <mode>BASIC</mode></featureParams>
  <stageNum>10</stageNum>
  <stages>
    <!-- stage 0 -->
    <_>
      <maxWeakCount>2</maxWeakCount>
      <stageThreshold>-8.8276334106922150e-02</stageThreshold>
      <weakClassifiers>
        <_>
          <internalNodes>
            0 -1 17 -6.9209754467010498e-02</internalNodes>
          <leafValues>
            9.8947370052337646e-01 -9.3956041336059570e-01</leafValues></_>
        <_>
          <internalNodes>
            0 -1 26 1.9729554653167725e-02</internalNodes>
          <leafValues>
            -9.8334622383117676e-01 8.5128408670425415e-01</leafValues></_></weakClassifiers></_>
    <!-- stage 1 -->
    <_>
      <maxWeakCount>3</maxWeakCount>
      <stageThreshold>-1.0700908899307251e+00</stageThreshold>
      <weakClassifiers>
        <_>
          <internalNodes>
            0 -1 19 -2.1365735679864883e-02</internalNodes>
          <leafValues>
            8.5310733318328857e-01 -8.0901855230331421e-01</leafValues></_>
        <_>
          <internalNodes>
            0 -1 16 -5.0852674990892410e-02</internalNodes>
          <leafValues>
            7.0193064212799072e-01 -8.7101721763610840e-01</leafValues></_>
        <_>
          <internalNodes>
            0 -1 0 6.0325846076011658e-02</internalNodes>
          <leafValues>
            -8.4085446596145630e-01 6.0994482040405273e-01</leafValues></_></weakClassifiers></_>
    <!-- stage 2 -->
    <_>
      <maxWeakCount>3</maxWeakCount>
      <stageThreshold>-9.7442007064819336e-01</stageThreshold>
      <weakClassifiers>
        <_>
          <internalNodes>
            0 -1 15 9.1462358832359314e-02</internalNodes>
          <leafValues>
            -9.8657715320587158e-01 5.4687500000000000e-01</leafValues></_>
        <_>
          <internalNodes>
            0 -1 29 1.4938432723283768e-02</internalNodes>
          <leafValues>
            -8.4163475036621094e-01 7.0538467168807983e-01</leafValues></_>
        <_>
          <internalNodes>
            0 -1 34 -1.8882812932133675e-02</internalNodes>
          <leafValues>
            8.5379189252853394e-01 -6.3354039192199707e-01</leafValues></_></weakClassifiers></_>
    <!-- stage 3 -->
    <_>
      <maxWeakCount>2</maxWeakCount>
      <stageThreshold>-3.6791989207267761e-01</stageThreshold>
      <weakClassifiers>
        <_>
          <internalNodes>
            0 -1 8 1.1025241576135159e-02</internalNodes>
          <leafValues>
            -8.1869685649871826e-01 6.7164176702499390e-01</leafValues></_>
        <_>
          <internalNodes>
            0 -1 30 1.4581065624952316e-02</internalNodes>
          <leafValues>
            -8.9618200063705444e-01 4.5077699422836304e-01</leafValues></_></weakClassifiers></_>
    <!-- stage 4 -->
    <_>
      <maxWeakCount>5</maxWeakCount>
      <stageThreshold>-1.2111997604370117e+00</stageThreshold>
      <weakClassifiers>
        <_>
          <internalNodes>
            0 -1 18 -8.1492424011230469e-02</internalNodes>
          <leafValues>
            5.0214594602584839e-01 -8.4423673152923584e-01</leafValues></_>
        <_>
          <internalNodes>
            0 -1 25 -1.2634905055165291e-02</internalNodes>
          <leafValues>
            6.3625663518905640e-01 -6.5698504447937012e-01</leafValues></_>
        <_>
          <internalNodes>
            0 -1 21 -3.6111682653427124e-02</internalNodes>
          <leafValues>
            3.6546042561531067e-01 -9.2791378498077393e-01</leafValues></_>
        <_>
          <internalNodes>
            0 -1 31 3.1868588179349899e-02</internalNodes>
          <leafValues>
            -4.9279713630676270e-01 7.6465207338333130e-01</leafValues></_>
        <_>
          <internalNodes>
            0 -1 3 6.1665453016757965e-02</internalNodes>
          <leafValues>
            -8.9196819067001343e-01 4.1735869646072388e-01</leafValues></_></weakClassifiers></_>
    <!-- stage 5 -->
    <_>
      <maxWeakCount>4</maxWeakCount>
      <stageThreshold>-5.6421089172363281e-01</stageThreshold>
      <weakClassifiers>
        <_>
          <internalNodes>
            0 -1 35 -1.2663343921303749e-02</internalNodes>
          <leafValues>
            5.0710898637771606e-01 -7.6093292236328125e-01</leafValues></_>
        <_>
          <internalNodes>
            0 -1 2 5.6126199662685394e-02</internalNodes>
          <leafValues>
            -9.8234015703201294e-01 3.2801628112792969e-01</leafValues></_>
        <_>
          <internalNodes>
            0 -1 24 -3.9184843190014362e-03</internalNodes>
          <leafValues>
            4.2941540479660034e-01 -7.8118556737899780e-01</leafValues></_>
        <_>
          <internalNodes>
            0 -1 10 1.3751757331192493e-02</internalNodes>
          <leafValues>
            -5.6070959568023682e-01 6.5649706125259399e-01</leafValues></_></weakClassifiers></_>
    <!-- stage 6 -->
    <_>
      <maxWeakCount>5</maxWeakCount>
      <stageThreshold>-1.3193215131759644e+00</stageThreshold>
      <weakClassifiers>
        <_>
          <internalNodes>
            0 -1 11 -1.1064353585243225e-01</internalNodes>
          <leafValues>
            5.3153151273727417e-01 -8.1927710771560669e-01</leafValues></_>
        <_>
          <internalNodes>
            0 -1 33 -2.4507086724042892e-02</internalNodes>
          <leafValues>
            6.9728595018386841e-01 -5.9640169143676758e-01</leafValues></_>
        <_>
          <internalNodes>
            0 -1 13 4.8469980247318745e-03</internalNodes>
          <leafValues>
            -9.7899997234344482e-01 3.6380961537361145e-01</leafValues></_>
        <_>
          <internalNodes>
            0 -1 20 -5.8898679912090302e-02</internalNodes>
          <leafValues>
            4.6981433033943176e-01 -6.3922369480133057e-01</leafValues></_>
        <_>
          <internalNodes>
            0 -1 7 1.7752138897776604e-02</internalNodes>
          <leafValues>
            -8.9005172252655029e-01 3.7177130579948425e-01</leafValues></_></weakClassifiers></_>
    <!-- stage 7 -->
    <_>
      <maxWeakCount>5</maxWeakCount>
      <stageThreshold>-9.7866249084472656e-01</stageThreshold>
      <weakClassifiers>
        <_>
          <internalNodes>
            0 -1 27 5.4484628140926361e-02</internalNodes>
          <leafValues>
            -8.1761008501052856e-01 4.4915252923965454e-01</leafValues></_>
        <_>
          <internalNodes>
            0 -1 20 -6.8705335259437561e-02</internalNodes>
          <leafValues>
            4.5654264092445374e-01 -6.8222087621688843e-01</leafValues></_>
        <_>
          <internalNodes>
            0 -1 36 -1.1244401335716248e-02</internalNodes>
          <leafValues>
            6.4277356863021851e-01 -5.1076638698577881e-01</leafValues></_>
        <_>
          <internalNodes>
            0 -1 9 7.9346196725964546e-03</internalNodes>
          <leafValues>
            -4.9622663855552673e-01 6.4355373382568359e-01</leafValues></_>
        <_>
          <internalNodes>
            0 -1 5 1.5318360179662704e-02</internalNodes>
          <leafValues>
            3.8939794898033142e-01 -9.7282940149307251e-01</leafValues></_></weakClassifiers></_>
    <!-- stage 8 -->
    <_>
      <maxWeakCount>3</maxWeakCount>
      <stageThreshold>-4.5790109038352966e-01</stageThreshold>
      <weakClassifiers>
        <_>
          <internalNodes>
            0 -1 14 1.4149423805065453e-04</internalNodes>
          <leafValues>
            -9.2000001668930054e-01 8.4745764732360840e-02</leafValues></_>
        <_>
          <internalNodes>
            0 -1 23 -8.1639491021633148e-02</internalNodes>
          <leafValues>
            2.8323245048522949e-01 -7.7717131376266479e-01</leafValues></_>
        <_>
          <internalNodes>
            0 -1 28 -7.8117637895047665e-03</internalNodes>
          <leafValues>
            3.9037096500396729e-01 -8.2587933540344238e-01</leafValues></_></weakClassifiers></_>
    <!-- stage 9 -->
    <_>
      <maxWeakCount>6</maxWeakCount>
      <stageThreshold>-8.2408255338668823e-01</stageThreshold>
      <weakClassifiers>
        <_>
          <internalNodes>
            0 -1 6 -1.7617631703615189e-02</internalNodes>
          <leafValues>
            6.0583943128585815e-01 -5.6834530830383301e-01</leafValues></_>
        <_>
          <internalNodes>
            0 -1 22 -9.5506571233272552e-03</internalNodes>
          <leafValues>
            3.4383499622344971e-01 -6.9943207502365112e-01</leafValues></_>
        <_>
          <internalNodes>
            0 -1 12 2.8033137321472168e-02</internalNodes>
          <leafValues>
            -9.0958333015441895e-01 2.7221572399139404e-01</leafValues></_>
        <_>
          <internalNodes>
            0 -1 32 4.1723698377609253e-03</internalNodes>
          <leafValues>
            -7.2983962297439575e-01 3.6109459400177002e-01</leafValues></_>
        <_>
          <internalNodes>
            0 -1 1 -1.2978848069906235e-02</internalNodes>
          <leafValues>
            8.4136849641799927e-01 -3.8088071346282959e-01</leafValues></_>
        <_>
          <internalNodes>
            0 -1 4 2.1925207227468491e-02</internalNodes>
          <leafValues>
            3.5277071595191956e-01 -8.5200178623199463e-01</leafValues></_></weakClassifiers></_></stages>
  <features>
    <_>
      <rects>
        <_>
          0 5 18 14 -1.</_>
        <_>
          0 5 9 7 2.</_>
        <_>
          9 12 9 7 2.</_></rects>
      <tilted>0</tilted></_>
    <_>
      <rects>
        <_>
          0 9 4 4 -1.</_>
        <_>
          2 9 2 4 2.</_></rects>
      <tilted>0</tilted></_>
    <_>
      <rects>
        <_>
          0 11 20 9 -1.</_>
        <_>
          0 14 20 3 3.</_></rects>
      <tilted>0</tilted></_>
    <_>
      <rects>
        <_>
          1 4 16 20 -1.</_>
        <_>
          1 4 8 10 2.</_>
        <_>
          9 14 8 10 2.</_></rects>
      <tilted>0</tilted></_>
    <_>
      <rects>
        <_>
          2 5 22 6 -1.</_>
        <_>
          2 8 22 3 2.</_></rects>
      <tilted>0</tilted></_>
    <_>
      <rects>
        <_>
          2 8 23 4 -1.</_>
        <_>
          2 10 23 2 2.</_></rects>
      <tilted>0</tilted></_>
    <_>
      <rects>
        <_>
          2 14 6 3 -1.</_>
        <_>
          4 14 2 3 3.</_></rects>
      <tilted>0</tilted></_>
    <_>
      <rects>
        <_>
          3 15 18 2 -1.</_>
        <_>
          9 15 6 2 3.</_></rects>
      <tilted>0</tilted></_>
    <_>
      <rects>
        <_>
          4 10 4 5 -1.</_>
        <_>
          6 10 2 5 2.</_></rects>
      <tilted>0</tilted></_>
    <_>
      <rects>
        <_>
          4 12 4 2 -1.</_>
        <_>
          6 12 2 2 2.</_></rects>
      <tilted>0</tilted></_>
    <_>
      <rects>
        <_>
          4 13 9 1 -1.</_>
        <_>
          7 13 3 1 3.</_></rects>
      <tilted>0</tilted></_>
    <_>
      <rects>
        <_>
          5 8 15 6 -1.</_>
        <_>
          10 8 5 6 3.</_></rects>
      <tilted>0</tilted></_>
    <_>
      <rects>
        <_>
          6 3 12 12 -1.</_>
        <_>
          6 9 12 6 2.</_></rects>
      <tilted>0</tilted></_>
    <_>
      <rects>
        <_>
          6 6 15 6 -1.</_>
        <_>
          6 9 15 3 2.</_></rects>
      <tilted>0</tilted></_>
    <_>
      <rects>
        <_>
          6 9 15 2 -1.</_>
        <_>
          6 10 15 1 2.</_></rects>
      <tilted>0</tilted></_>
    <_>
      <rects>
        <_>
          7 5 11 18 -1.</_>
        <_>
          7 11 11 6 3.</_></rects>
      <tilted>0</tilted></_>
    <_>
      <rects>
        <_>
          7 7 18 10 -1.</_>
        <_>
          7 7 9 5 2.</_>
        <_>
          16 12 9 5 2.</_></rects>
      <tilted>0</tilted></_>
    <_>
      <rects>
        <_>
          7 9 12 5 -1.</_>
        <_>
          11 9 4 5 3.</_></rects>
      <tilted>0</tilted></_>
    <_>
      <rects>
        <_>
          7 10 12 5 -1.</_>
        <_>
          11 10 4 5 3.</_></rects>
      <tilted>0</tilted></_>
    <_>
      <rects>
        <_>
          7 13 12 1 -1.</_>
        <_>
          11 13 4 1 3.</_></rects>
      <tilted>0</tilted></_>
    <_>
      <rects>
        <_>
          8 0 9 14 -1.</_>
        <_>
          11 0 3 14 3.</_></rects>
      <tilted>0</tilted></_>
    <_>
      <rects>
        <_>
          9 9 14 8 -1.</_>
        <_>
          9 9 7 4 2.</_>
        <_>
          16 13 7 4 2.</_></rects>
      <tilted>0</tilted></_>
    <_>
      <rects>
        <_>
          9 11 6 4 -1.</_>
        <_>
          11 11 2 4 3.</_></rects>
      <tilted>0</tilted></_>
    <_>
      <rects>
        <_>
          10 0 5 18 -1.</_>
        <_>
          10 6 5 6 3.</_></rects>
      <tilted>0</tilted></_>
    <_>
      <rects>
        <_>
          11 0 1 8 -1.</_>
        <_>
          11 4 1 4 2.</_></rects>
      <tilted>0</tilted></_>
    <_>
      <rects>
        <_>
          11 0 3 6 -1.</_>
        <_>
          11 3 3 3 2.</_></rects>
      <tilted>0</tilted></_>
    <_>
      <rects>
        <_>
          11 11 3 6 -1.</_>
        <_>
          11 14 3 3 2.</_></rects>
      <tilted>0</tilted></_>
    <_>
      <rects>
        <_>
          11 11 12 4 -1.</_>
        <_>
          15 11 4 4 3.</_></rects>
      <tilted>0</tilted></_>
    <_>
      <rects>
        <_>
          11 12 6 3 -1.</_>
        <_>
          13 12 2 3 3.</_></rects>
      <tilted>0</tilted></_>
    <_>
      <rects>
        <_>
          11 13 12 1 -1.</_>
        <_>
          15 13 4 1 3.</_></rects>
      <tilted>0</tilted></_>
    <_>
      <rects>
        <_>
          12 13 3 6 -1.</_>
        <_>
          12 15 3 2 3.</_></rects>
      <tilted>0</tilted></_>
    <_>
      <rects>
        <_>
          14 10 9 3 -1.</_>
        <_>
          17 10 3 3 3.</_></rects>
      <tilted>0</tilted></_>
    <_>
      <rects>
        <_>
          14 12 1 4 -1.</_>
        <_>
          14 14 1 2 2.</_></rects>
      <tilted>0</tilted></_>
    <_>
      <rects>
        <_>
          16 11 6 4 -1.</_>
        <_>
          19 11 3 4 2.</_></rects>
      <tilted>0</tilted></_>
    <_>
      <rects>
        <_>
          18 8 6 6 -1.</_>
        <_>
          20 8 2 6 3.</_></rects>
      <tilted>0</tilted></_>
    <_>
      <rects>
        <_>
          18 11 6 4 -1.</_>
        <_>
          20 11 2 4 3.</_></rects>
      <tilted>0</tilted></_>
    <_>
      <rects>
        <_>
          21 10 4 14 -1.</_>
        <_>
          21 10 2 7 2.</_>
        <_>
          23 17 2 7 2.</_></rects>
      <tilted>0</tilted></_></features></cascade>
</opencv_storage>
