<?xml version="1.0"?>
<opencv_storage>
<stage6>
  <maxWeakCount>6</maxWeakCount>
  <stageThreshold>-1.2820435762405396e+00</stageThreshold>
  <weakClassifiers>
    <_>
      <internalNodes>
        0 -1 64528 1.1982970871031284e-02</internalNodes>
      <leafValues>
        -5.7266604900360107e-01 4.8126801848411560e-01</leafValues></_>
    <_>
      <internalNodes>
        0 -1 109367 6.7288152873516083e-02</internalNodes>
      <leafValues>
        -8.1469070911407471e-01 2.9368099570274353e-01</leafValues></_>
    <_>
      <internalNodes>
        0 -1 177678 -2.2033125162124634e-02</internalNodes>
      <leafValues>
        7.0098763704299927e-01 -3.7086138129234314e-01</leafValues></_>
    <_>
      <internalNodes>
        0 -1 109935 -1.9062019884586334e-02</internalNodes>
      <leafValues>
        5.1197177171707153e-01 -5.5349236726760864e-01</leafValues></_>
    <_>
      <internalNodes>
        0 -1 8045 -3.2105918973684311e-02</internalNodes>
      <leafValues>
        7.4277430772781372e-01 -3.4290829300880432e-01</leafValues></_>
    <_>
      <internalNodes>
        0 -1 107465 2.7444567531347275e-03</internalNodes>
      <leafValues>
        2.8689262270927429e-01 -9.5358788967132568e-01</leafValues></_></weakClassifiers></stage6>
</opencv_storage>
