<?xml version="1.0"?>
<opencv_storage>
<stage10>
  <maxWeakCount>6</maxWeakCount>
  <stageThreshold>-5.7358038425445557e-01</stageThreshold>
  <weakClassifiers>
    <_>
      <internalNodes>
        0 -1 52300 1.1412218555051368e-05</internalNodes>
      <leafValues>
        -8.5132384300231934e-01 2.5361570715904236e-01</leafValues></_>
    <_>
      <internalNodes>
        0 -1 139383 -1.8220962956547737e-03</internalNodes>
      <leafValues>
        3.3338457345962524e-01 -5.0967741012573242e-01</leafValues></_>
    <_>
      <internalNodes>
        0 -1 136679 4.0864948183298111e-02</internalNodes>
      <leafValues>
        -5.7391232252120972e-01 3.4070608019828796e-01</leafValues></_>
    <_>
      <internalNodes>
        0 -1 22178 -1.4735668897628784e-02</internalNodes>
      <leafValues>
        1.7811396718025208e-01 -9.0863668918609619e-01</leafValues></_>
    <_>
      <internalNodes>
        0 -1 116620 -1.0535502806305885e-02</internalNodes>
      <leafValues>
        -8.3804202079772949e-01 1.6345076262950897e-01</leafValues></_>
    <_>
      <internalNodes>
        0 -1 26713 2.4450084194540977e-02</internalNodes>
      <leafValues>
        -9.6535605192184448e-01 1.5851759910583496e-01</leafValues></_></weakClassifiers></stage10>
</opencv_storage>
