<?xml version="1.0"?>
<opencv_storage>
<stage4>
  <maxWeakCount>5</maxWeakCount>
  <stageThreshold>-1.2111997604370117e+00</stageThreshold>
  <weakClassifiers>
    <_>
      <internalNodes>
        0 -1 98538 -8.1492424011230469e-02</internalNodes>
      <leafValues>
        5.0214594602584839e-01 -8.4423673152923584e-01</leafValues></_>
    <_>
      <internalNodes>
        0 -1 130712 -1.2634905055165291e-02</internalNodes>
      <leafValues>
        6.3625663518905640e-01 -6.5698504447937012e-01</leafValues></_>
    <_>
      <internalNodes>
        0 -1 118078 -3.6111682653427124e-02</internalNodes>
      <leafValues>
        3.6546042561531067e-01 -9.2791378498077393e-01</leafValues></_>
    <_>
      <internalNodes>
        0 -1 157625 3.1868588179349899e-02</internalNodes>
      <leafValues>
        -4.9279713630676270e-01 7.6465207338333130e-01</leafValues></_>
    <_>
      <internalNodes>
        0 -1 19557 6.1665453016757965e-02</internalNodes>
      <leafValues>
        -8.9196819067001343e-01 4.1735869646072388e-01</leafValues></_></weakClassifiers></stage4>
</opencv_storage>
