<?xml version="1.0"?>
<opencv_storage>
<stage8>
  <maxWeakCount>6</maxWeakCount>
  <stageThreshold>-5.6619089841842651e-01</stageThreshold>
  <weakClassifiers>
    <_>
      <internalNodes>
        0 -1 17334 4.0699940174818039e-02</internalNodes>
      <leafValues>
        -6.5448504686355591e-01 3.3771276473999023e-01</leafValues></_>
    <_>
      <internalNodes>
        0 -1 181947 -1.6895495355129242e-02</internalNodes>
      <leafValues>
        6.3721114397048950e-01 -3.6818626523017883e-01</leafValues></_>
    <_>
      <internalNodes>
        0 -1 151285 -1.1933599598705769e-03</internalNodes>
      <leafValues>
        3.6540284752845764e-01 -6.3046383857727051e-01</leafValues></_>
    <_>
      <internalNodes>
        0 -1 119157 -5.5053224787116051e-03</internalNodes>
      <leafValues>
        2.7941921353340149e-01 -7.5301444530487061e-01</leafValues></_>
    <_>
      <internalNodes>
        0 -1 10643 5.4914336651563644e-02</internalNodes>
      <leafValues>
        -8.8144803047180176e-01 1.6162185370922089e-01</leafValues></_>
    <_>
      <internalNodes>
        0 -1 90333 -3.0620254576206207e-02</internalNodes>
      <leafValues>
        7.0124244689941406e-01 -2.7205520868301392e-01</leafValues></_></weakClassifiers></stage8>
</opencv_storage>
