<?xml version="1.0"?>
<opencv_storage>
<stage9>
  <maxWeakCount>5</maxWeakCount>
  <stageThreshold>-3.3282560110092163e-01</stageThreshold>
  <weakClassifiers>
    <_>
      <internalNodes>
        0 -1 40176 -2.8335087001323700e-02</internalNodes>
      <leafValues>
        7.1063828468322754e-01 -2.4854819476604462e-01</leafValues></_>
    <_>
      <internalNodes>
        0 -1 37187 1.7319992184638977e-02</internalNodes>
      <leafValues>
        2.2315113246440887e-01 -9.5390665531158447e-01</leafValues></_>
    <_>
      <internalNodes>
        0 -1 134615 3.3248000545427203e-04</internalNodes>
      <leafValues>
        1.7310783267021179e-01 -8.5175007581710815e-01</leafValues></_>
    <_>
      <internalNodes>
        0 -1 56921 -5.1988530904054642e-03</internalNodes>
      <leafValues>
        5.1359450817108154e-01 -3.6322662234306335e-01</leafValues></_>
    <_>
      <internalNodes>
        0 -1 75336 -1.8975554034113884e-02</internalNodes>
      <leafValues>
        -8.9420711994171143e-01 1.8292692303657532e-01</leafValues></_></weakClassifiers></stage9>
</opencv_storage>
