<?xml version="1.0"?>
<opencv_storage>
<stage9>
  <maxWeakCount>6</maxWeakCount>
  <stageThreshold>-8.2408255338668823e-01</stageThreshold>
  <weakClassifiers>
    <_>
      <internalNodes>
        0 -1 40167 -1.7617631703615189e-02</internalNodes>
      <leafValues>
        6.0583943128585815e-01 -5.6834530830383301e-01</leafValues></_>
    <_>
      <internalNodes>
        0 -1 118747 -9.5506571233272552e-03</internalNodes>
      <leafValues>
        3.4383499622344971e-01 -6.9943207502365112e-01</leafValues></_>
    <_>
      <internalNodes>
        0 -1 83415 2.8033137321472168e-02</internalNodes>
      <leafValues>
        -9.0958333015441895e-01 2.7221572399139404e-01</leafValues></_>
    <_>
      <internalNodes>
        0 -1 158076 4.1723698377609253e-03</internalNodes>
      <leafValues>
        -7.2983962297439575e-01 3.6109459400177002e-01</leafValues></_>
    <_>
      <internalNodes>
        0 -1 8752 -1.2978848069906235e-02</internalNodes>
      <leafValues>
        8.4136849641799927e-01 -3.8088071346282959e-01</leafValues></_>
    <_>
      <internalNodes>
        0 -1 34923 2.1925207227468491e-02</internalNodes>
      <leafValues>
        3.5277071595191956e-01 -8.5200178623199463e-01</leafValues></_></weakClassifiers></stage9>
</opencv_storage>
