<?xml version="1.0"?>
<opencv_storage>
<stage6>
  <maxWeakCount>5</maxWeakCount>
  <stageThreshold>-1.3193215131759644e+00</stageThreshold>
  <weakClassifiers>
    <_>
      <internalNodes>
        0 -1 75020 -1.1064353585243225e-01</internalNodes>
      <leafValues>
        5.3153151273727417e-01 -8.1927710771560669e-01</leafValues></_>
    <_>
      <internalNodes>
        0 -1 169364 -2.4507086724042892e-02</internalNodes>
      <leafValues>
        6.9728595018386841e-01 -5.9640169143676758e-01</leafValues></_>
    <_>
      <internalNodes>
        0 -1 85551 4.8469980247318745e-03</internalNodes>
      <leafValues>
        -9.7899997234344482e-01 3.6380961537361145e-01</leafValues></_>
    <_>
      <internalNodes>
        0 -1 102534 -5.8898679912090302e-02</internalNodes>
      <leafValues>
        4.6981433033943176e-01 -6.3922369480133057e-01</leafValues></_>
    <_>
      <internalNodes>
        0 -1 53967 1.7752138897776604e-02</internalNodes>
      <leafValues>
        -8.9005172252655029e-01 3.7177130579948425e-01</leafValues></_></weakClassifiers></stage6>
</opencv_storage>
