<?xml version="1.0"?>
<opencv_storage>
<stage13>
  <maxWeakCount>9</maxWeakCount>
  <stageThreshold>-1.1352282762527466e+00</stageThreshold>
  <weakClassifiers>
    <_>
      <internalNodes>
        0 -1 36572 -1.5680506825447083e-02</internalNodes>
      <leafValues>
        5.6993734836578369e-01 -3.3511111140251160e-01</leafValues></_>
    <_>
      <internalNodes>
        0 -1 107572 -1.0397478472441435e-03</internalNodes>
      <leafValues>
        1.9516260921955109e-01 -7.7785795927047729e-01</leafValues></_>
    <_>
      <internalNodes>
        0 -1 185156 -1.4547524973750114e-02</internalNodes>
      <leafValues>
        6.4971011877059937e-01 -2.5743672251701355e-01</leafValues></_>
    <_>
      <internalNodes>
        0 -1 40106 -1.0395097732543945e-01</internalNodes>
      <leafValues>
        -9.8494797945022583e-01 1.3646347820758820e-01</leafValues></_>
    <_>
      <internalNodes>
        0 -1 27302 -1.0067356750369072e-02</internalNodes>
      <leafValues>
        2.0325285196304321e-01 -7.1954214572906494e-01</leafValues></_>
    <_>
      <internalNodes>
        0 -1 118793 -3.9920452982187271e-02</internalNodes>
      <leafValues>
        3.2231903076171875e-01 -4.8316854238510132e-01</leafValues></_>
    <_>
      <internalNodes>
        0 -1 1503 4.8808686435222626e-02</internalNodes>
      <leafValues>
        -4.0536695718765259e-01 3.8088002800941467e-01</leafValues></_>
    <_>
      <internalNodes>
        0 -1 148930 6.3542295247316360e-03</internalNodes>
      <leafValues>
        -5.7753342390060425e-01 2.6757261157035828e-01</leafValues></_>
    <_>
      <internalNodes>
        0 -1 181782 -1.6483012586832047e-02</internalNodes>
      <leafValues>
        5.5974644422531128e-01 -2.8042992949485779e-01</leafValues></_></weakClassifiers></stage13>
</opencv_storage>
