<?xml version="1.0"?>
<opencv_storage>
<stage10>
  <maxWeakCount>7</maxWeakCount>
  <stageThreshold>-9.1344416141510010e-01</stageThreshold>
  <weakClassifiers>
    <_>
      <internalNodes>
        0 -1 99477 -4.1134715080261230e-02</internalNodes>
      <leafValues>
        4.7791165113449097e-01 -5.3792297840118408e-01</leafValues></_>
    <_>
      <internalNodes>
        0 -1 185638 -9.5717161893844604e-03</internalNodes>
      <leafValues>
        4.9258619546890259e-01 -3.9421314001083374e-01</leafValues></_>
    <_>
      <internalNodes>
        0 -1 61885 -1.7352186143398285e-02</internalNodes>
      <leafValues>
        -8.4329366683959961e-01 2.1807008981704712e-01</leafValues></_>
    <_>
      <internalNodes>
        0 -1 74165 8.4669627249240875e-03</internalNodes>
      <leafValues>
        -2.8972280025482178e-01 5.5317026376724243e-01</leafValues></_>
    <_>
      <internalNodes>
        0 -1 150599 -2.0515866344794631e-04</internalNodes>
      <leafValues>
        2.7942264080047607e-01 -5.8782857656478882e-01</leafValues></_>
    <_>
      <internalNodes>
        0 -1 106717 6.1124492436647415e-02</internalNodes>
      <leafValues>
        -2.7721849083900452e-01 7.6878833770751953e-01</leafValues></_>
    <_>
      <internalNodes>
        0 -1 33026 3.8495834916830063e-02</internalNodes>
      <leafValues>
        2.8515189886093140e-01 -7.5475251674652100e-01</leafValues></_></weakClassifiers></stage10>
</opencv_storage>
