<?xml version="1.0"?>
<opencv_storage>
<stage4>
  <maxWeakCount>5</maxWeakCount>
  <stageThreshold>-8.3399683237075806e-01</stageThreshold>
  <weakClassifiers>
    <_>
      <internalNodes>
        0 -1 94134 -1.1865828931331635e-01</internalNodes>
      <leafValues>
        6.7213112115859985e-01 -6.8348622322082520e-01</leafValues></_>
    <_>
      <internalNodes>
        0 -1 136954 1.0199051350355148e-02</internalNodes>
      <leafValues>
        -8.1309020519256592e-01 4.1091531515121460e-01</leafValues></_>
    <_>
      <internalNodes>
        0 -1 163971 -1.8445743247866631e-02</internalNodes>
      <leafValues>
        5.3250652551651001e-01 -6.1730670928955078e-01</leafValues></_>
    <_>
      <internalNodes>
        0 -1 69205 -1.9615804776549339e-02</internalNodes>
      <leafValues>
        5.4541003704071045e-01 -6.1640632152557373e-01</leafValues></_>
    <_>
      <internalNodes>
        0 -1 63954 1.1577297002077103e-02</internalNodes>
      <leafValues>
        -4.1533693671226501e-01 7.6525819301605225e-01</leafValues></_></weakClassifiers></stage4>
</opencv_storage>
