<?xml version="1.0"?>
<opencv_storage>
<cascade>
  <stageType>BOOST</stageType>
  <featureType>HAAR</featureType>
  <height>25</height>
  <width>25</width>
  <stageParams>
    <boostType>GAB</boostType>
    <minHitRate>9.9500000476837158e-01</minHitRate>
    <maxFalseAlarm>5.0000000000000000e-01</maxFalseAlarm>
    <weightTrimRate>9.4999999999999996e-01</weightTrimRate>
    <maxDepth>1</maxDepth>
    <maxWeakCount>100</maxWeakCount></stageParams>
  <featureParams>
    <maxCatCount>0</maxCatCount>
    <featSize>1</featSize>
    <mode>BASIC</mode></featureParams>
  <stageNum>12</stageNum>
  <stages>
    <!-- stage 0 -->
    <_>
      <maxWeakCount>2</maxWeakCount>
      <stageThreshold>-2.0531812310218811e-01</stageThreshold>
      <weakClassifiers>
        <_>
          <internalNodes>
            0 -1 31 4.3916765600442886e-02</internalNodes>
          <leafValues>
            -9.9012345075607300e-01 9.1346156597137451e-01</leafValues></_>
        <_>
          <internalNodes>
            0 -1 23 2.9070734977722168e-02</internalNodes>
          <leafValues>
            -9.5804983377456665e-01 7.8480535745620728e-01</leafValues></_></weakClassifiers></_>
    <!-- stage 1 -->
    <_>
      <maxWeakCount>2</maxWeakCount>
      <stageThreshold>-1.3021990656852722e-01</stageThreshold>
      <weakClassifiers>
        <_>
          <internalNodes>
            0 -1 37 6.6126719117164612e-02</internalNodes>
          <leafValues>
            -9.0272837877273560e-01 8.9987486600875854e-01</leafValues></_>
        <_>
          <internalNodes>
            0 -1 14 1.1850436218082905e-02</internalNodes>
          <leafValues>
            -8.4210962057113647e-01 7.7250844240188599e-01</leafValues></_></weakClassifiers></_>
    <!-- stage 2 -->
    <_>
      <maxWeakCount>3</maxWeakCount>
      <stageThreshold>-9.6547263860702515e-01</stageThreshold>
      <weakClassifiers>
        <_>
          <internalNodes>
            0 -1 7 -2.9245376586914062e-02</internalNodes>
          <leafValues>
            8.6561262607574463e-01 -7.9161947965621948e-01</leafValues></_>
        <_>
          <internalNodes>
            0 -1 43 -2.0928870886564255e-02</internalNodes>
          <leafValues>
            7.2937566041946411e-01 -8.1843340396881104e-01</leafValues></_>
        <_>
          <internalNodes>
            0 -1 29 7.6114475727081299e-02</internalNodes>
          <leafValues>
            -8.2881611585617065e-01 6.4458024501800537e-01</leafValues></_></weakClassifiers></_>
    <!-- stage 3 -->
    <_>
      <maxWeakCount>4</maxWeakCount>
      <stageThreshold>-5.3634589910507202e-01</stageThreshold>
      <weakClassifiers>
        <_>
          <internalNodes>
            0 -1 2 -1.7890075221657753e-02</internalNodes>
          <leafValues>
            6.7741936445236206e-01 -7.5652176141738892e-01</leafValues></_>
        <_>
          <internalNodes>
            0 -1 9 -3.5735711455345154e-02</internalNodes>
          <leafValues>
            6.4461880922317505e-01 -7.3453521728515625e-01</leafValues></_>
        <_>
          <internalNodes>
            0 -1 5 -5.4279841482639313e-02</internalNodes>
          <leafValues>
            5.4226827621459961e-01 -8.8713759183883667e-01</leafValues></_>
        <_>
          <internalNodes>
            0 -1 16 -1.9099254161119461e-02</internalNodes>
          <leafValues>
            4.6269461512565613e-01 -8.8251447677612305e-01</leafValues></_></weakClassifiers></_>
    <!-- stage 4 -->
    <_>
      <maxWeakCount>3</maxWeakCount>
      <stageThreshold>-7.7174240350723267e-01</stageThreshold>
      <weakClassifiers>
        <_>
          <internalNodes>
            0 -1 40 -3.6278437823057175e-02</internalNodes>
          <leafValues>
            6.4595544338226318e-01 -7.5158429145812988e-01</leafValues></_>
        <_>
          <internalNodes>
            0 -1 11 -2.2678041830658913e-02</internalNodes>
          <leafValues>
            7.3765701055526733e-01 -6.0172933340072632e-01</leafValues></_>
        <_>
          <internalNodes>
            0 -1 33 1.1525921523571014e-02</internalNodes>
          <leafValues>
            -7.1356469392776489e-01 5.8157122135162354e-01</leafValues></_></weakClassifiers></_>
    <!-- stage 5 -->
    <_>
      <maxWeakCount>5</maxWeakCount>
      <stageThreshold>-1.0734231472015381e+00</stageThreshold>
      <weakClassifiers>
        <_>
          <internalNodes>
            0 -1 45 7.1839727461338043e-03</internalNodes>
          <leafValues>
            -7.9300290346145630e-01 5.2510458230972290e-01</leafValues></_>
        <_>
          <internalNodes>
            0 -1 24 -3.2266229391098022e-02</internalNodes>
          <leafValues>
            4.1469341516494751e-01 -7.7779251337051392e-01</leafValues></_>
        <_>
          <internalNodes>
            0 -1 10 -2.3148596286773682e-02</internalNodes>
          <leafValues>
            6.6097420454025269e-01 -5.1344323158264160e-01</leafValues></_>
        <_>
          <internalNodes>
            0 -1 39 2.1344600245356560e-03</internalNodes>
          <leafValues>
            -5.5492973327636719e-01 6.2016206979751587e-01</leafValues></_>
        <_>
          <internalNodes>
            0 -1 30 4.4511772692203522e-02</internalNodes>
          <leafValues>
            -8.0115807056427002e-01 4.3990945816040039e-01</leafValues></_></weakClassifiers></_>
    <!-- stage 6 -->
    <_>
      <maxWeakCount>4</maxWeakCount>
      <stageThreshold>-5.7898712158203125e-01</stageThreshold>
      <weakClassifiers>
        <_>
          <internalNodes>
            0 -1 48 1.9118785858154297e-02</internalNodes>
          <leafValues>
            -5.2371543645858765e-01 7.7460318803787231e-01</leafValues></_>
        <_>
          <internalNodes>
            0 -1 17 -2.2667605429887772e-02</internalNodes>
          <leafValues>
            4.1995453834533691e-01 -8.2465517520904541e-01</leafValues></_>
        <_>
          <internalNodes>
            0 -1 41 2.9322020709514618e-03</internalNodes>
          <leafValues>
            -7.2783273458480835e-01 3.7774875760078430e-01</leafValues></_>
        <_>
          <internalNodes>
            0 -1 34 9.5323529094457626e-03</internalNodes>
          <leafValues>
            -7.8166490793228149e-01 3.9163467288017273e-01</leafValues></_></weakClassifiers></_>
    <!-- stage 7 -->
    <_>
      <maxWeakCount>6</maxWeakCount>
      <stageThreshold>-1.0329912900924683e+00</stageThreshold>
      <weakClassifiers>
        <_>
          <internalNodes>
            0 -1 42 3.7316724658012390e-02</internalNodes>
          <leafValues>
            -6.8681317567825317e-01 5.0109410285949707e-01</leafValues></_>
        <_>
          <internalNodes>
            0 -1 13 -1.5753120183944702e-02</internalNodes>
          <leafValues>
            5.4477787017822266e-01 -4.6674561500549316e-01</leafValues></_>
        <_>
          <internalNodes>
            0 -1 12 3.3108547329902649e-02</internalNodes>
          <leafValues>
            2.8970763087272644e-01 -9.3654906749725342e-01</leafValues></_>
        <_>
          <internalNodes>
            0 -1 44 -7.4853342957794666e-03</internalNodes>
          <leafValues>
            4.9574172496795654e-01 -5.0587815046310425e-01</leafValues></_>
        <_>
          <internalNodes>
            0 -1 1 -6.0915973037481308e-02</internalNodes>
          <leafValues>
            3.2574355602264404e-01 -7.7799868583679199e-01</leafValues></_>
        <_>
          <internalNodes>
            0 -1 20 9.4343011733144522e-04</internalNodes>
          <leafValues>
            -9.4175738096237183e-01 2.2572766244411469e-01</leafValues></_></weakClassifiers></_>
    <!-- stage 8 -->
    <_>
      <maxWeakCount>5</maxWeakCount>
      <stageThreshold>-1.1056545972824097e+00</stageThreshold>
      <weakClassifiers>
        <_>
          <internalNodes>
            0 -1 21 -3.4586951136589050e-02</internalNodes>
          <leafValues>
            4.3062692880630493e-01 -6.8908816576004028e-01</leafValues></_>
        <_>
          <internalNodes>
            0 -1 8 -7.5352992862462997e-03</internalNodes>
          <leafValues>
            4.5129930973052979e-01 -5.3388625383377075e-01</leafValues></_>
        <_>
          <internalNodes>
            0 -1 22 1.7458505928516388e-02</internalNodes>
          <leafValues>
            2.6787242293357849e-01 -9.7117465734481812e-01</leafValues></_>
        <_>
          <internalNodes>
            0 -1 50 7.2200531139969826e-03</internalNodes>
          <leafValues>
            -3.6344593763351440e-01 7.1337884664535522e-01</leafValues></_>
        <_>
          <internalNodes>
            0 -1 26 1.2590739876031876e-02</internalNodes>
          <leafValues>
            -8.6393147706985474e-01 2.9553765058517456e-01</leafValues></_></weakClassifiers></_>
    <!-- stage 9 -->
    <_>
      <maxWeakCount>6</maxWeakCount>
      <stageThreshold>-1.3012282848358154e+00</stageThreshold>
      <weakClassifiers>
        <_>
          <internalNodes>
            0 -1 25 -1.3070923089981079e-01</internalNodes>
          <leafValues>
            4.6710526943206787e-01 -6.4109587669372559e-01</leafValues></_>
        <_>
          <internalNodes>
            0 -1 51 7.0858318358659744e-03</internalNodes>
          <leafValues>
            -4.1415050625801086e-01 6.8561011552810669e-01</leafValues></_>
        <_>
          <internalNodes>
            0 -1 35 7.5630666688084602e-03</internalNodes>
          <leafValues>
            -6.0367649793624878e-01 3.7607648968696594e-01</leafValues></_>
        <_>
          <internalNodes>
            0 -1 15 -1.8500033766031265e-02</internalNodes>
          <leafValues>
            4.5330601930618286e-01 -4.8884108662605286e-01</leafValues></_>
        <_>
          <internalNodes>
            0 -1 18 2.8481885790824890e-02</internalNodes>
          <leafValues>
            2.6616454124450684e-01 -8.6018353700637817e-01</leafValues></_>
        <_>
          <internalNodes>
            0 -1 28 -4.6145636588335037e-03</internalNodes>
          <leafValues>
            7.2603797912597656e-01 -3.8123491406440735e-01</leafValues></_></weakClassifiers></_>
    <!-- stage 10 -->
    <_>
      <maxWeakCount>7</maxWeakCount>
      <stageThreshold>-8.5807156562805176e-01</stageThreshold>
      <weakClassifiers>
        <_>
          <internalNodes>
            0 -1 6 -1.7819900065660477e-02</internalNodes>
          <leafValues>
            4.9217003583908081e-01 -6.4438503980636597e-01</leafValues></_>
        <_>
          <internalNodes>
            0 -1 46 -1.2875755317509174e-02</internalNodes>
          <leafValues>
            5.8989727497100830e-01 -4.4850754737854004e-01</leafValues></_>
        <_>
          <internalNodes>
            0 -1 19 -3.7785239517688751e-02</internalNodes>
          <leafValues>
            -9.1539263725280762e-01 2.7204170823097229e-01</leafValues></_>
        <_>
          <internalNodes>
            0 -1 32 -2.2064428776502609e-02</internalNodes>
          <leafValues>
            3.1018921732902527e-01 -8.2269483804702759e-01</leafValues></_>
        <_>
          <internalNodes>
            0 -1 38 1.9611613824963570e-03</internalNodes>
          <leafValues>
            -5.7768201828002930e-01 4.0391004085540771e-01</leafValues></_>
        <_>
          <internalNodes>
            0 -1 3 1.4764588326215744e-02</internalNodes>
          <leafValues>
            -3.1359830498695374e-01 8.5869258642196655e-01</leafValues></_>
        <_>
          <internalNodes>
            0 -1 47 1.5681748045608401e-03</internalNodes>
          <leafValues>
            -3.4502488374710083e-01 6.9516235589981079e-01</leafValues></_></weakClassifiers></_>
    <!-- stage 11 -->
    <_>
      <maxWeakCount>6</maxWeakCount>
      <stageThreshold>-1.3190394639968872e+00</stageThreshold>
      <weakClassifiers>
        <_>
          <internalNodes>
            0 -1 27 -6.6830977797508240e-02</internalNodes>
          <leafValues>
            3.6345380544662476e-01 -6.2538701295852661e-01</leafValues></_>
        <_>
          <internalNodes>
            0 -1 49 1.2308688834309578e-02</internalNodes>
          <leafValues>
            -4.2085650563240051e-01 5.3520113229751587e-01</leafValues></_>
        <_>
          <internalNodes>
            0 -1 4 -8.5042156279087067e-03</internalNodes>
          <leafValues>
            5.0330644845962524e-01 -4.1879832744598389e-01</leafValues></_>
        <_>
          <internalNodes>
            0 -1 36 -3.1576395034790039e-02</internalNodes>
          <leafValues>
            2.8793197870254517e-01 -7.2593915462493896e-01</leafValues></_>
        <_>
          <internalNodes>
            0 -1 52 5.8261468075215816e-03</internalNodes>
          <leafValues>
            -3.7043610215187073e-01 5.4234290122985840e-01</leafValues></_>
        <_>
          <internalNodes>
            0 -1 0 1.1903597973287106e-02</internalNodes>
          <leafValues>
            2.2850647568702698e-01 -8.2434219121932983e-01</leafValues></_></weakClassifiers></_></stages>
  <features>
    <_>
      <rects>
        <_>
          0 7 21 14 -1.</_>
        <_>
          7 7 7 14 3.</_></rects>
      <tilted>0</tilted></_>
    <_>
      <rects>
        <_>
          0 13 25 12 -1.</_>
        <_>
          0 17 25 4 3.</_></rects>
      <tilted>0</tilted></_>
    <_>
      <rects>
        <_>
          2 5 21 1 -1.</_>
        <_>
          9 5 7 1 3.</_></rects>
      <tilted>0</tilted></_>
    <_>
      <rects>
        <_>
          2 7 3 10 -1.</_>
        <_>
          3 7 1 10 3.</_></rects>
      <tilted>0</tilted></_>
    <_>
      <rects>
        <_>
          2 8 8 1 -1.</_>
        <_>
          6 8 4 1 2.</_></rects>
      <tilted>0</tilted></_>
    <_>
      <rects>
        <_>
          2 11 17 8 -1.</_>
        <_>
          2 15 17 4 2.</_></rects>
      <tilted>0</tilted></_>
    <_>
      <rects>
        <_>
          3 5 18 1 -1.</_>
        <_>
          9 5 6 1 3.</_></rects>
      <tilted>0</tilted></_>
    <_>
      <rects>
        <_>
          3 6 6 14 -1.</_>
        <_>
          6 6 3 14 2.</_></rects>
      <tilted>0</tilted></_>
    <_>
      <rects>
        <_>
          3 6 8 1 -1.</_>
        <_>
          7 6 4 1 2.</_></rects>
      <tilted>0</tilted></_>
    <_>
      <rects>
        <_>
          3 6 8 14 -1.</_>
        <_>
          7 6 4 14 2.</_></rects>
      <tilted>0</tilted></_>
    <_>
      <rects>
        <_>
          3 7 4 8 -1.</_>
        <_>
          5 7 2 8 2.</_></rects>
      <tilted>0</tilted></_>
    <_>
      <rects>
        <_>
          3 7 4 11 -1.</_>
        <_>
          5 7 2 11 2.</_></rects>
      <tilted>0</tilted></_>
    <_>
      <rects>
        <_>
          3 7 18 14 -1.</_>
        <_>
          12 7 9 14 2.</_></rects>
      <tilted>0</tilted></_>
    <_>
      <rects>
        <_>
          3 8 6 6 -1.</_>
        <_>
          5 8 2 6 3.</_></rects>
      <tilted>0</tilted></_>
    <_>
      <rects>
        <_>
          3 8 10 4 -1.</_>
        <_>
          3 8 5 2 2.</_>
        <_>
          8 10 5 2 2.</_></rects>
      <tilted>0</tilted></_>
    <_>
      <rects>
        <_>
          3 9 4 8 -1.</_>
        <_>
          5 9 2 8 2.</_></rects>
      <tilted>0</tilted></_>
    <_>
      <rects>
        <_>
          4 1 13 8 -1.</_>
        <_>
          4 5 13 4 2.</_></rects>
      <tilted>0</tilted></_>
    <_>
      <rects>
        <_>
          4 6 9 13 -1.</_>
        <_>
          7 6 3 13 3.</_></rects>
      <tilted>0</tilted></_>
    <_>
      <rects>
        <_>
          4 6 14 15 -1.</_>
        <_>
          11 6 7 15 2.</_></rects>
      <tilted>0</tilted></_>
    <_>
      <rects>
        <_>
          5 7 16 12 -1.</_>
        <_>
          13 7 8 12 2.</_></rects>
      <tilted>0</tilted></_>
    <_>
      <rects>
        <_>
          5 9 12 9 -1.</_>
        <_>
          11 9 6 9 2.</_></rects>
      <tilted>0</tilted></_>
    <_>
      <rects>
        <_>
          5 16 18 4 -1.</_>
        <_>
          11 16 6 4 3.</_></rects>
      <tilted>0</tilted></_>
    <_>
      <rects>
        <_>
          6 3 11 22 -1.</_>
        <_>
          6 14 11 11 2.</_></rects>
      <tilted>0</tilted></_>
    <_>
      <rects>
        <_>
          6 10 12 6 -1.</_>
        <_>
          10 10 4 6 3.</_></rects>
      <tilted>0</tilted></_>
    <_>
      <rects>
        <_>
          6 10 8 12 -1.</_>
        <_>
          6 10 4 6 2.</_>
        <_>
          10 16 4 6 2.</_></rects>
      <tilted>0</tilted></_>
    <_>
      <rects>
        <_>
          7 1 11 12 -1.</_>
        <_>
          7 5 11 4 3.</_></rects>
      <tilted>0</tilted></_>
    <_>
      <rects>
        <_>
          7 10 9 7 -1.</_>
        <_>
          10 10 3 7 3.</_></rects>
      <tilted>0</tilted></_>
    <_>
      <rects>
        <_>
          7 13 12 9 -1.</_>
        <_>
          7 16 12 3 3.</_></rects>
      <tilted>0</tilted></_>
    <_>
      <rects>
        <_>
          10 2 3 3 -1.</_>
        <_>
          10 3 3 1 3.</_></rects>
      <tilted>0</tilted></_>
    <_>
      <rects>
        <_>
          10 6 5 12 -1.</_>
        <_>
          10 10 5 4 3.</_></rects>
      <tilted>0</tilted></_>
    <_>
      <rects>
        <_>
          10 7 8 6 -1.</_>
        <_>
          10 10 8 3 2.</_></rects>
      <tilted>0</tilted></_>
    <_>
      <rects>
        <_>
          10 8 6 9 -1.</_>
        <_>
          10 11 6 3 3.</_></rects>
      <tilted>0</tilted></_>
    <_>
      <rects>
        <_>
          10 9 10 8 -1.</_>
        <_>
          15 9 5 8 2.</_></rects>
      <tilted>0</tilted></_>
    <_>
      <rects>
        <_>
          10 18 6 6 -1.</_>
        <_>
          10 21 6 3 2.</_></rects>
      <tilted>0</tilted></_>
    <_>
      <rects>
        <_>
          11 8 2 4 -1.</_>
        <_>
          11 10 2 2 2.</_></rects>
      <tilted>0</tilted></_>
    <_>
      <rects>
        <_>
          11 11 3 6 -1.</_>
        <_>
          11 13 3 2 3.</_></rects>
      <tilted>0</tilted></_>
    <_>
      <rects>
        <_>
          12 4 8 9 -1.</_>
        <_>
          12 7 8 3 3.</_></rects>
      <tilted>0</tilted></_>
    <_>
      <rects>
        <_>
          12 5 3 15 -1.</_>
        <_>
          12 10 3 5 3.</_></rects>
      <tilted>0</tilted></_>
    <_>
      <rects>
        <_>
          12 9 1 2 -1.</_>
        <_>
          12 10 1 1 2.</_></rects>
      <tilted>0</tilted></_>
    <_>
      <rects>
        <_>
          12 13 2 3 -1.</_>
        <_>
          12 14 2 1 3.</_></rects>
      <tilted>0</tilted></_>
    <_>
      <rects>
        <_>
          13 6 9 13 -1.</_>
        <_>
          16 6 3 13 3.</_></rects>
      <tilted>0</tilted></_>
    <_>
      <rects>
        <_>
          13 6 8 1 -1.</_>
        <_>
          17 6 4 1 2.</_></rects>
      <tilted>0</tilted></_>
    <_>
      <rects>
        <_>
          13 9 8 12 -1.</_>
        <_>
          13 9 4 6 2.</_>
        <_>
          17 15 4 6 2.</_></rects>
      <tilted>0</tilted></_>
    <_>
      <rects>
        <_>
          14 8 9 8 -1.</_>
        <_>
          17 8 3 8 3.</_></rects>
      <tilted>0</tilted></_>
    <_>
      <rects>
        <_>
          15 7 6 3 -1.</_>
        <_>
          17 7 2 3 3.</_></rects>
      <tilted>0</tilted></_>
    <_>
      <rects>
        <_>
          16 7 6 3 -1.</_>
        <_>
          19 7 3 3 2.</_></rects>
      <tilted>0</tilted></_>
    <_>
      <rects>
        <_>
          16 17 6 6 -1.</_>
        <_>
          16 17 3 3 2.</_>
        <_>
          19 20 3 3 2.</_></rects>
      <tilted>0</tilted></_>
    <_>
      <rects>
        <_>
          17 6 2 1 -1.</_>
        <_>
          18 6 1 1 2.</_></rects>
      <tilted>0</tilted></_>
    <_>
      <rects>
        <_>
          19 10 6 6 -1.</_>
        <_>
          21 10 2 6 3.</_></rects>
      <tilted>0</tilted></_>
    <_>
      <rects>
        <_>
          19 17 6 8 -1.</_>
        <_>
          19 17 3 4 2.</_>
        <_>
          22 21 3 4 2.</_></rects>
      <tilted>0</tilted></_>
    <_>
      <rects>
        <_>
          20 9 2 6 -1.</_>
        <_>
          21 9 1 6 2.</_></rects>
      <tilted>0</tilted></_>
    <_>
      <rects>
        <_>
          20 9 2 7 -1.</_>
        <_>
          21 9 1 7 2.</_></rects>
      <tilted>0</tilted></_>
    <_>
      <rects>
        <_>
          20 10 2 5 -1.</_>
        <_>
          21 10 1 5 2.</_></rects>
      <tilted>0</tilted></_></features></cascade>
</opencv_storage>
