<?xml version="1.0"?>
<opencv_storage>
<cascade>
  <stageType>BOOST</stageType>
  <featureType>HAAR</featureType>
  <height>25</height>
  <width>25</width>
  <stageParams>
    <boostType>GAB</boostType>
    <minHitRate>9.9500000476837158e-01</minHitRate>
    <maxFalseAlarm>5.0000000000000000e-01</maxFalseAlarm>
    <weightTrimRate>9.4999999999999996e-01</weightTrimRate>
    <maxDepth>1</maxDepth>
    <maxWeakCount>100</maxWeakCount></stageParams>
  <featureParams>
    <maxCatCount>0</maxCatCount>
    <featSize>1</featSize>
    <mode>BASIC</mode></featureParams>
  <stageNum>16</stageNum>
  <stages>
    <!-- stage 0 -->
    <_>
      <maxWeakCount>2</maxWeakCount>
      <stageThreshold>-3.9851896464824677e-02</stageThreshold>
      <weakClassifiers>
        <_>
          <internalNodes>
            0 -1 35 -5.5102668702602386e-02</internalNodes>
          <leafValues>
            9.2376112937927246e-01 -9.0011614561080933e-01</leafValues></_>
        <_>
          <internalNodes>
            0 -1 75 -3.5077214241027832e-02</internalNodes>
          <leafValues>
            8.6026424169540405e-01 -9.5285660028457642e-01</leafValues></_></weakClassifiers></_>
    <!-- stage 1 -->
    <_>
      <maxWeakCount>2</maxWeakCount>
      <stageThreshold>-2.2036257386207581e-01</stageThreshold>
      <weakClassifiers>
        <_>
          <internalNodes>
            0 -1 85 -2.6988003402948380e-02</internalNodes>
          <leafValues>
            7.9952830076217651e-01 -9.0750002861022949e-01</leafValues></_>
        <_>
          <internalNodes>
            0 -1 45 -4.2775347828865051e-02</internalNodes>
          <leafValues>
            6.8713742494583130e-01 -8.7406545877456665e-01</leafValues></_></weakClassifiers></_>
    <!-- stage 2 -->
    <_>
      <maxWeakCount>3</maxWeakCount>
      <stageThreshold>-9.0301215648651123e-01</stageThreshold>
      <weakClassifiers>
        <_>
          <internalNodes>
            0 -1 93 -4.0931306779384613e-02</internalNodes>
          <leafValues>
            8.1818181276321411e-01 -7.9238754510879517e-01</leafValues></_>
        <_>
          <internalNodes>
            0 -1 14 6.5041363239288330e-02</internalNodes>
          <leafValues>
            -7.2985744476318359e-01 7.8836834430694580e-01</leafValues></_>
        <_>
          <internalNodes>
            0 -1 39 3.2013986259698868e-02</internalNodes>
          <leafValues>
            -8.2326430082321167e-01 6.1923289299011230e-01</leafValues></_></weakClassifiers></_>
    <!-- stage 3 -->
    <_>
      <maxWeakCount>5</maxWeakCount>
      <stageThreshold>-1.0427801609039307e+00</stageThreshold>
      <weakClassifiers>
        <_>
          <internalNodes>
            0 -1 77 8.7482497096061707e-02</internalNodes>
          <leafValues>
            -7.9392337799072266e-01 6.2065094709396362e-01</leafValues></_>
        <_>
          <internalNodes>
            0 -1 8 5.6503355503082275e-02</internalNodes>
          <leafValues>
            -7.1876490116119385e-01 5.5577814579010010e-01</leafValues></_>
        <_>
          <internalNodes>
            0 -1 59 -1.5631649643182755e-02</internalNodes>
          <leafValues>
            3.3537521958351135e-01 -9.5146501064300537e-01</leafValues></_>
        <_>
          <internalNodes>
            0 -1 33 -1.0461553931236267e-01</internalNodes>
          <leafValues>
            7.5023853778839111e-01 -5.9102857112884521e-01</leafValues></_>
        <_>
          <internalNodes>
            0 -1 3 3.8750305771827698e-02</internalNodes>
          <leafValues>
            -4.9130001664161682e-01 7.2556149959564209e-01</leafValues></_></weakClassifiers></_>
    <!-- stage 4 -->
    <_>
      <maxWeakCount>5</maxWeakCount>
      <stageThreshold>-9.8186492919921875e-01</stageThreshold>
      <weakClassifiers>
        <_>
          <internalNodes>
            0 -1 11 2.3332007229328156e-02</internalNodes>
          <leafValues>
            -6.3968074321746826e-01 6.6536962985992432e-01</leafValues></_>
        <_>
          <internalNodes>
            0 -1 90 -8.9149959385395050e-03</internalNodes>
          <leafValues>
            3.7014669179916382e-01 -9.2108756303787231e-01</leafValues></_>
        <_>
          <internalNodes>
            0 -1 65 6.1230067163705826e-02</internalNodes>
          <leafValues>
            -6.2303990125656128e-01 5.5968844890594482e-01</leafValues></_>
        <_>
          <internalNodes>
            0 -1 49 4.1884062811732292e-03</internalNodes>
          <leafValues>
            -5.3875148296356201e-01 5.2973783016204834e-01</leafValues></_>
        <_>
          <internalNodes>
            0 -1 23 9.2642977833747864e-03</internalNodes>
          <leafValues>
            -6.1902880668640137e-01 5.4225224256515503e-01</leafValues></_></weakClassifiers></_>
    <!-- stage 5 -->
    <_>
      <maxWeakCount>4</maxWeakCount>
      <stageThreshold>-6.8615180253982544e-01</stageThreshold>
      <weakClassifiers>
        <_>
          <internalNodes>
            0 -1 43 -2.0821373909711838e-02</internalNodes>
          <leafValues>
            4.4433498382568359e-01 -7.8830963373184204e-01</leafValues></_>
        <_>
          <internalNodes>
            0 -1 96 6.0455363243818283e-02</internalNodes>
          <leafValues>
            -6.5874987840652466e-01 4.4461244344711304e-01</leafValues></_>
        <_>
          <internalNodes>
            0 -1 40 2.5364663451910019e-02</internalNodes>
          <leafValues>
            -8.3739602565765381e-01 2.9453188180923462e-01</leafValues></_>
        <_>
          <internalNodes>
            0 -1 88 3.2682426273822784e-02</internalNodes>
          <leafValues>
            -5.7654106616973877e-01 4.6637579798698425e-01</leafValues></_></weakClassifiers></_>
    <!-- stage 6 -->
    <_>
      <maxWeakCount>5</maxWeakCount>
      <stageThreshold>-7.9744720458984375e-01</stageThreshold>
      <weakClassifiers>
        <_>
          <internalNodes>
            0 -1 21 9.3481227755546570e-02</internalNodes>
          <leafValues>
            -5.1768487691879272e-01 6.0839158296585083e-01</leafValues></_>
        <_>
          <internalNodes>
            0 -1 46 -3.3127292990684509e-03</internalNodes>
          <leafValues>
            2.6387953758239746e-01 -9.2166405916213989e-01</leafValues></_>
        <_>
          <internalNodes>
            0 -1 82 -5.5416140705347061e-02</internalNodes>
          <leafValues>
            4.3083852529525757e-01 -5.2085578441619873e-01</leafValues></_>
        <_>
          <internalNodes>
            0 -1 1 -6.5073311328887939e-02</internalNodes>
          <leafValues>
            6.6200184822082520e-01 -3.9831677079200745e-01</leafValues></_>
        <_>
          <internalNodes>
            0 -1 98 2.6752764359116554e-02</internalNodes>
          <leafValues>
            -4.9890655279159546e-01 5.0075566768646240e-01</leafValues></_></weakClassifiers></_>
    <!-- stage 7 -->
    <_>
      <maxWeakCount>6</maxWeakCount>
      <stageThreshold>-8.3701437711715698e-01</stageThreshold>
      <weakClassifiers>
        <_>
          <internalNodes>
            0 -1 83 8.6490303277969360e-02</internalNodes>
          <leafValues>
            -5.5802470445632935e-01 4.8210024833679199e-01</leafValues></_>
        <_>
          <internalNodes>
            0 -1 76 3.2355602830648422e-02</internalNodes>
          <leafValues>
            -4.7129398584365845e-01 5.3142124414443970e-01</leafValues></_>
        <_>
          <internalNodes>
            0 -1 36 3.9405796676874161e-02</internalNodes>
          <leafValues>
            -4.5638576149940491e-01 4.6557572484016418e-01</leafValues></_>
        <_>
          <internalNodes>
            0 -1 20 4.9212221056222916e-02</internalNodes>
          <leafValues>
            -2.9526251554489136e-01 7.0306032896041870e-01</leafValues></_>
        <_>
          <internalNodes>
            0 -1 10 2.9857277870178223e-02</internalNodes>
          <leafValues>
            -3.1336256861686707e-01 6.8528264760971069e-01</leafValues></_>
        <_>
          <internalNodes>
            0 -1 70 -2.1792739629745483e-02</internalNodes>
          <leafValues>
            4.3686309456825256e-01 -6.6736155748367310e-01</leafValues></_></weakClassifiers></_>
    <!-- stage 8 -->
    <_>
      <maxWeakCount>6</maxWeakCount>
      <stageThreshold>-9.4037777185440063e-01</stageThreshold>
      <weakClassifiers>
        <_>
          <internalNodes>
            0 -1 100 -2.8503701090812683e-02</internalNodes>
          <leafValues>
            5.3977274894714355e-01 -4.5338982343673706e-01</leafValues></_>
        <_>
          <internalNodes>
            0 -1 53 -1.8137723207473755e-02</internalNodes>
          <leafValues>
            2.7458474040031433e-01 -9.2914831638336182e-01</leafValues></_>
        <_>
          <internalNodes>
            0 -1 79 -6.5001854673027992e-03</internalNodes>
          <leafValues>
            2.5967213511466980e-01 -7.7763193845748901e-01</leafValues></_>
        <_>
          <internalNodes>
            0 -1 41 4.7964770346879959e-03</internalNodes>
          <leafValues>
            -5.4634445905685425e-01 3.8681939244270325e-01</leafValues></_>
        <_>
          <internalNodes>
            0 -1 52 -2.6066947728395462e-02</internalNodes>
          <leafValues>
            2.2493822872638702e-01 -8.3696722984313965e-01</leafValues></_>
        <_>
          <internalNodes>
            0 -1 51 9.1220559552311897e-03</internalNodes>
          <leafValues>
            -5.7661002874374390e-01 3.6206692457199097e-01</leafValues></_></weakClassifiers></_>
    <!-- stage 9 -->
    <_>
      <maxWeakCount>7</maxWeakCount>
      <stageThreshold>-6.8443709611892700e-01</stageThreshold>
      <weakClassifiers>
        <_>
          <internalNodes>
            0 -1 91 3.0418749898672104e-02</internalNodes>
          <leafValues>
            -7.1951222419738770e-01 2.6470589637756348e-01</leafValues></_>
        <_>
          <internalNodes>
            0 -1 31 -4.4681720435619354e-02</internalNodes>
          <leafValues>
            4.5507112145423889e-01 -4.5956999063491821e-01</leafValues></_>
        <_>
          <internalNodes>
            0 -1 84 -2.4257605895400047e-02</internalNodes>
          <leafValues>
            2.9148998856544495e-01 -6.3704526424407959e-01</leafValues></_>
        <_>
          <internalNodes>
            0 -1 47 -5.6013395078480244e-04</internalNodes>
          <leafValues>
            1.9014106690883636e-01 -8.5016280412673950e-01</leafValues></_>
        <_>
          <internalNodes>
            0 -1 94 -8.5379406809806824e-03</internalNodes>
          <leafValues>
            2.1728418767452240e-01 -7.3153567314147949e-01</leafValues></_>
        <_>
          <internalNodes>
            0 -1 6 -1.7977073788642883e-02</internalNodes>
          <leafValues>
            4.2785036563873291e-01 -4.0834113955497742e-01</leafValues></_>
        <_>
          <internalNodes>
            0 -1 50 3.4113526344299316e-02</internalNodes>
          <leafValues>
            -5.4427975416183472e-01 3.1669929623603821e-01</leafValues></_></weakClassifiers></_>
    <!-- stage 10 -->
    <_>
      <maxWeakCount>10</maxWeakCount>
      <stageThreshold>-9.3012791872024536e-01</stageThreshold>
      <weakClassifiers>
        <_>
          <internalNodes>
            0 -1 97 -5.9437576681375504e-02</internalNodes>
          <leafValues>
            4.5931035280227661e-01 -4.1278439760208130e-01</leafValues></_>
        <_>
          <internalNodes>
            0 -1 55 -5.3259521722793579e-02</internalNodes>
          <leafValues>
            3.5794275999069214e-01 -4.4236400723457336e-01</leafValues></_>
        <_>
          <internalNodes>
            0 -1 30 3.6367326974868774e-03</internalNodes>
          <leafValues>
            -7.2076582908630371e-01 2.3865903913974762e-01</leafValues></_>
        <_>
          <internalNodes>
            0 -1 4 2.1048810333013535e-02</internalNodes>
          <leafValues>
            -4.0907156467437744e-01 4.1878712177276611e-01</leafValues></_>
        <_>
          <internalNodes>
            0 -1 29 -7.7443954069167376e-04</internalNodes>
          <leafValues>
            2.2834409773349762e-01 -6.2308448553085327e-01</leafValues></_>
        <_>
          <internalNodes>
            0 -1 99 -9.9667004178627394e-06</internalNodes>
          <leafValues>
            1.6621886193752289e-01 -8.3279353380203247e-01</leafValues></_>
        <_>
          <internalNodes>
            0 -1 5 -2.1471060812473297e-02</internalNodes>
          <leafValues>
            2.7597528696060181e-01 -4.6293029189109802e-01</leafValues></_>
        <_>
          <internalNodes>
            0 -1 67 -5.1215295679867268e-03</internalNodes>
          <leafValues>
            2.9546687006950378e-01 -5.7278025150299072e-01</leafValues></_>
        <_>
          <internalNodes>
            0 -1 80 2.7672784402966499e-02</internalNodes>
          <leafValues>
            -3.4501627087593079e-01 4.3296024203300476e-01</leafValues></_>
        <_>
          <internalNodes>
            0 -1 12 -8.4765348583459854e-03</internalNodes>
          <leafValues>
            6.4089798927307129e-01 -2.3952005803585052e-01</leafValues></_></weakClassifiers></_>
    <!-- stage 11 -->
    <_>
      <maxWeakCount>8</maxWeakCount>
      <stageThreshold>-1.0276128053665161e+00</stageThreshold>
      <weakClassifiers>
        <_>
          <internalNodes>
            0 -1 25 3.3225733786821365e-02</internalNodes>
          <leafValues>
            -4.5431470870971680e-01 3.6046510934829712e-01</leafValues></_>
        <_>
          <internalNodes>
            0 -1 69 -8.9258849620819092e-03</internalNodes>
          <leafValues>
            1.7829160392284393e-01 -8.0083483457565308e-01</leafValues></_>
        <_>
          <internalNodes>
            0 -1 27 5.6594725698232651e-02</internalNodes>
          <leafValues>
            1.5009580552577972e-01 -9.8628944158554077e-01</leafValues></_>
        <_>
          <internalNodes>
            0 -1 32 9.0595232322812080e-03</internalNodes>
          <leafValues>
            -6.7386239767074585e-01 1.7355956137180328e-01</leafValues></_>
        <_>
          <internalNodes>
            0 -1 89 2.7556987479329109e-02</internalNodes>
          <leafValues>
            -5.4647403955459595e-01 2.6944735646247864e-01</leafValues></_>
        <_>
          <internalNodes>
            0 -1 101 -2.8792710974812508e-02</internalNodes>
          <leafValues>
            5.4187172651290894e-01 -3.0789166688919067e-01</leafValues></_>
        <_>
          <internalNodes>
            0 -1 63 -3.4450343810021877e-03</internalNodes>
          <leafValues>
            -9.0603041648864746e-01 1.4607053995132446e-01</leafValues></_>
        <_>
          <internalNodes>
            0 -1 87 -3.4594837576150894e-02</internalNodes>
          <leafValues>
            7.2132503986358643e-01 -2.3758675158023834e-01</leafValues></_></weakClassifiers></_>
    <!-- stage 12 -->
    <_>
      <maxWeakCount>11</maxWeakCount>
      <stageThreshold>-9.0745556354522705e-01</stageThreshold>
      <weakClassifiers>
        <_>
          <internalNodes>
            0 -1 17 1.7334214644506574e-03</internalNodes>
          <leafValues>
            -5.4010695219039917e-01 2.3459061980247498e-01</leafValues></_>
        <_>
          <internalNodes>
            0 -1 18 -4.8461973667144775e-02</internalNodes>
          <leafValues>
            4.6214634180068970e-01 -3.2734945416450500e-01</leafValues></_>
        <_>
          <internalNodes>
            0 -1 22 2.9624059796333313e-02</internalNodes>
          <leafValues>
            -2.5562089681625366e-01 5.4443025588989258e-01</leafValues></_>
        <_>
          <internalNodes>
            0 -1 13 1.5192261897027493e-02</internalNodes>
          <leafValues>
            -2.8851112723350525e-01 5.1171052455902100e-01</leafValues></_>
        <_>
          <internalNodes>
            0 -1 42 4.3424926698207855e-02</internalNodes>
          <leafValues>
            2.3767195641994476e-01 -8.1801998615264893e-01</leafValues></_>
        <_>
          <internalNodes>
            0 -1 54 -1.8324509263038635e-02</internalNodes>
          <leafValues>
            4.4618958234786987e-01 -3.0904361605644226e-01</leafValues></_>
        <_>
          <internalNodes>
            0 -1 38 -2.6378612965345383e-02</internalNodes>
          <leafValues>
            2.3946766555309296e-01 -5.2957767248153687e-01</leafValues></_>
        <_>
          <internalNodes>
            0 -1 44 -5.0656304665608332e-05</internalNodes>
          <leafValues>
            1.5451751649379730e-01 -8.3785533905029297e-01</leafValues></_>
        <_>
          <internalNodes>
            0 -1 58 -5.5063795298337936e-03</internalNodes>
          <leafValues>
            -8.0647611618041992e-01 1.1058371514081955e-01</leafValues></_>
        <_>
          <internalNodes>
            0 -1 72 -6.5944464877247810e-03</internalNodes>
          <leafValues>
            6.6456025838851929e-01 -1.9312344491481781e-01</leafValues></_>
        <_>
          <internalNodes>
            0 -1 0 -3.9752885699272156e-02</internalNodes>
          <leafValues>
            5.4505342245101929e-01 -2.3437266051769257e-01</leafValues></_></weakClassifiers></_>
    <!-- stage 13 -->
    <_>
      <maxWeakCount>9</maxWeakCount>
      <stageThreshold>-1.0352209806442261e+00</stageThreshold>
      <weakClassifiers>
        <_>
          <internalNodes>
            0 -1 66 3.1478207092732191e-03</internalNodes>
          <leafValues>
            -4.8328268527984619e-01 2.7272728085517883e-01</leafValues></_>
        <_>
          <internalNodes>
            0 -1 86 6.0001779347658157e-03</internalNodes>
          <leafValues>
            -6.2665688991546631e-01 1.8850439786911011e-01</leafValues></_>
        <_>
          <internalNodes>
            0 -1 26 1.1322185397148132e-02</internalNodes>
          <leafValues>
            1.5663705766201019e-01 -9.4175368547439575e-01</leafValues></_>
        <_>
          <internalNodes>
            0 -1 7 -9.6509163267910480e-04</internalNodes>
          <leafValues>
            2.5893259048461914e-01 -4.1288033127784729e-01</leafValues></_>
        <_>
          <internalNodes>
            0 -1 37 -1.2627119198441505e-02</internalNodes>
          <leafValues>
            2.8559395670890808e-01 -5.0718045234680176e-01</leafValues></_>
        <_>
          <internalNodes>
            0 -1 71 -9.2596262693405151e-03</internalNodes>
          <leafValues>
            -8.3797430992126465e-01 1.0666086524724960e-01</leafValues></_>
        <_>
          <internalNodes>
            0 -1 64 3.6769881844520569e-02</internalNodes>
          <leafValues>
            1.0674468427896500e-01 -8.4159994125366211e-01</leafValues></_>
        <_>
          <internalNodes>
            0 -1 19 -1.1945003643631935e-02</internalNodes>
          <leafValues>
            -7.5883692502975464e-01 1.2019661813974380e-01</leafValues></_>
        <_>
          <internalNodes>
            0 -1 2 -7.5701817870140076e-02</internalNodes>
          <leafValues>
            7.4135714769363403e-01 -1.6727286577224731e-01</leafValues></_></weakClassifiers></_>
    <!-- stage 14 -->
    <_>
      <maxWeakCount>10</maxWeakCount>
      <stageThreshold>-8.0193018913269043e-01</stageThreshold>
      <weakClassifiers>
        <_>
          <internalNodes>
            0 -1 92 3.8635376840829849e-02</internalNodes>
          <leafValues>
            -6.4127767086029053e-01 1.7163577675819397e-01</leafValues></_>
        <_>
          <internalNodes>
            0 -1 102 -1.4289827086031437e-02</internalNodes>
          <leafValues>
            2.7164867520332336e-01 -4.3995451927185059e-01</leafValues></_>
        <_>
          <internalNodes>
            0 -1 9 1.4043961418792605e-03</internalNodes>
          <leafValues>
            -6.7252433300018311e-01 1.5746536850929260e-01</leafValues></_>
        <_>
          <internalNodes>
            0 -1 68 7.8341527841985226e-04</internalNodes>
          <leafValues>
            -6.6266870498657227e-01 1.7329199612140656e-01</leafValues></_>
        <_>
          <internalNodes>
            0 -1 28 -6.8458466557785869e-04</internalNodes>
          <leafValues>
            -7.1780985593795776e-01 1.6101308166980743e-01</leafValues></_>
        <_>
          <internalNodes>
            0 -1 95 -3.5633842344395816e-05</internalNodes>
          <leafValues>
            1.9279709458351135e-01 -5.0566250085830688e-01</leafValues></_>
        <_>
          <internalNodes>
            0 -1 24 -8.7268026545643806e-03</internalNodes>
          <leafValues>
            -6.9893139600753784e-01 1.3810025155544281e-01</leafValues></_>
        <_>
          <internalNodes>
            0 -1 74 3.1585156917572021e-02</internalNodes>
          <leafValues>
            7.3685899376869202e-02 -8.3069860935211182e-01</leafValues></_>
        <_>
          <internalNodes>
            0 -1 73 8.4607273340225220e-02</internalNodes>
          <leafValues>
            1.4027915894985199e-01 -6.3928556442260742e-01</leafValues></_>
        <_>
          <internalNodes>
            0 -1 48 6.0365763492882252e-03</internalNodes>
          <leafValues>
            -7.6793265342712402e-01 1.3856835663318634e-01</leafValues></_></weakClassifiers></_>
    <!-- stage 15 -->
    <_>
      <maxWeakCount>10</maxWeakCount>
      <stageThreshold>-1.0330219268798828e+00</stageThreshold>
      <weakClassifiers>
        <_>
          <internalNodes>
            0 -1 34 -9.9742561578750610e-02</internalNodes>
          <leafValues>
            3.3997508883476257e-01 -3.7988165020942688e-01</leafValues></_>
        <_>
          <internalNodes>
            0 -1 57 -9.1630956158041954e-03</internalNodes>
          <leafValues>
            2.5772273540496826e-01 -5.0903815031051636e-01</leafValues></_>
        <_>
          <internalNodes>
            0 -1 56 -2.7636790648102760e-02</internalNodes>
          <leafValues>
            -1. 1.2536206841468811e-01</leafValues></_>
        <_>
          <internalNodes>
            0 -1 78 -9.3350131064653397e-03</internalNodes>
          <leafValues>
            -7.5717651844024658e-01 1.3150961697101593e-01</leafValues></_>
        <_>
          <internalNodes>
            0 -1 61 -7.5400322675704956e-03</internalNodes>
          <leafValues>
            -6.0249418020248413e-01 1.4959554374217987e-01</leafValues></_>
        <_>
          <internalNodes>
            0 -1 16 -1.9125989079475403e-01</internalNodes>
          <leafValues>
            -8.1419795751571655e-01 9.9285006523132324e-02</leafValues></_>
        <_>
          <internalNodes>
            0 -1 15 8.2391947507858276e-02</internalNodes>
          <leafValues>
            1.1278476566076279e-01 -8.4036880731582642e-01</leafValues></_>
        <_>
          <internalNodes>
            0 -1 81 1.9991854205727577e-03</internalNodes>
          <leafValues>
            -2.2852894663810730e-01 5.1104068756103516e-01</leafValues></_>
        <_>
          <internalNodes>
            0 -1 62 4.4054072350263596e-03</internalNodes>
          <leafValues>
            -5.3846311569213867e-01 1.9301904737949371e-01</leafValues></_>
        <_>
          <internalNodes>
            0 -1 60 -1.8994692945852876e-03</internalNodes>
          <leafValues>
            1.7168256640434265e-01 -7.5880163908004761e-01</leafValues></_></weakClassifiers></_></stages>
  <features>
    <_>
      <rects>
        <_>
          0 1 24 2 -1.</_>
        <_>
          8 1 8 2 3.</_></rects>
      <tilted>0</tilted></_>
    <_>
      <rects>
        <_>
          0 2 9 19 -1.</_>
        <_>
          3 2 3 19 3.</_></rects>
      <tilted>0</tilted></_>
    <_>
      <rects>
        <_>
          0 5 12 10 -1.</_>
        <_>
          4 5 4 10 3.</_></rects>
      <tilted>0</tilted></_>
    <_>
      <rects>
        <_>
          1 0 12 8 -1.</_>
        <_>
          1 0 6 4 2.</_>
        <_>
          7 4 6 4 2.</_></rects>
      <tilted>0</tilted></_>
    <_>
      <rects>
        <_>
          1 1 8 8 -1.</_>
        <_>
          1 1 4 4 2.</_>
        <_>
          5 5 4 4 2.</_></rects>
      <tilted>0</tilted></_>
    <_>
      <rects>
        <_>
          1 5 18 14 -1.</_>
        <_>
          1 12 18 7 2.</_></rects>
      <tilted>0</tilted></_>
    <_>
      <rects>
        <_>
          1 6 6 9 -1.</_>
        <_>
          3 6 2 9 3.</_></rects>
      <tilted>0</tilted></_>
    <_>
      <rects>
        <_>
          1 8 2 7 -1.</_>
        <_>
          2 8 1 7 2.</_></rects>
      <tilted>0</tilted></_>
    <_>
      <rects>
        <_>
          1 15 24 4 -1.</_>
        <_>
          9 15 8 4 3.</_></rects>
      <tilted>0</tilted></_>
    <_>
      <rects>
        <_>
          2 3 17 6 -1.</_>
        <_>
          2 5 17 2 3.</_></rects>
      <tilted>0</tilted></_>
    <_>
      <rects>
        <_>
          2 7 4 11 -1.</_>
        <_>
          4 7 2 11 2.</_></rects>
      <tilted>0</tilted></_>
    <_>
      <rects>
        <_>
          2 7 6 11 -1.</_>
        <_>
          5 7 3 11 2.</_></rects>
      <tilted>0</tilted></_>
    <_>
      <rects>
        <_>
          2 8 3 8 -1.</_>
        <_>
          3 8 1 8 3.</_></rects>
      <tilted>0</tilted></_>
    <_>
      <rects>
        <_>
          2 8 6 8 -1.</_>
        <_>
          4 8 2 8 3.</_></rects>
      <tilted>0</tilted></_>
    <_>
      <rects>
        <_>
          2 8 12 8 -1.</_>
        <_>
          6 8 4 8 3.</_></rects>
      <tilted>0</tilted></_>
    <_>
      <rects>
        <_>
          2 9 22 11 -1.</_>
        <_>
          13 9 11 11 2.</_></rects>
      <tilted>0</tilted></_>
    <_>
      <rects>
        <_>
          3 6 22 19 -1.</_>
        <_>
          14 6 11 19 2.</_></rects>
      <tilted>0</tilted></_>
    <_>
      <rects>
        <_>
          3 17 16 1 -1.</_>
        <_>
          11 17 8 1 2.</_></rects>
      <tilted>0</tilted></_>
    <_>
      <rects>
        <_>
          4 2 8 10 -1.</_>
        <_>
          4 2 4 5 2.</_>
        <_>
          8 7 4 5 2.</_></rects>
      <tilted>0</tilted></_>
    <_>
      <rects>
        <_>
          4 6 14 14 -1.</_>
        <_>
          4 6 7 7 2.</_>
        <_>
          11 13 7 7 2.</_></rects>
      <tilted>0</tilted></_>
    <_>
      <rects>
        <_>
          4 7 6 10 -1.</_>
        <_>
          7 7 3 10 2.</_></rects>
      <tilted>0</tilted></_>
    <_>
      <rects>
        <_>
          4 8 10 14 -1.</_>
        <_>
          4 8 5 7 2.</_>
        <_>
          9 15 5 7 2.</_></rects>
      <tilted>0</tilted></_>
    <_>
      <rects>
        <_>
          4 11 8 8 -1.</_>
        <_>
          8 11 4 8 2.</_></rects>
      <tilted>0</tilted></_>
    <_>
      <rects>
        <_>
          4 18 10 2 -1.</_>
        <_>
          9 18 5 2 2.</_></rects>
      <tilted>0</tilted></_>
    <_>
      <rects>
        <_>
          4 18 19 2 -1.</_>
        <_>
          4 19 19 1 2.</_></rects>
      <tilted>0</tilted></_>
    <_>
      <rects>
        <_>
          5 4 6 15 -1.</_>
        <_>
          7 4 2 15 3.</_></rects>
      <tilted>0</tilted></_>
    <_>
      <rects>
        <_>
          5 6 19 6 -1.</_>
        <_>
          5 9 19 3 2.</_></rects>
      <tilted>0</tilted></_>
    <_>
      <rects>
        <_>
          5 12 14 6 -1.</_>
        <_>
          12 12 7 6 2.</_></rects>
      <tilted>0</tilted></_>
    <_>
      <rects>
        <_>
          5 13 6 6 -1.</_>
        <_>
          7 13 2 6 3.</_></rects>
      <tilted>0</tilted></_>
    <_>
      <rects>
        <_>
          5 18 12 2 -1.</_>
        <_>
          5 19 12 1 2.</_></rects>
      <tilted>0</tilted></_>
    <_>
      <rects>
        <_>
          5 19 15 1 -1.</_>
        <_>
          10 19 5 1 3.</_></rects>
      <tilted>0</tilted></_>
    <_>
      <rects>
        <_>
          6 0 6 14 -1.</_>
        <_>
          6 0 3 7 2.</_>
        <_>
          9 7 3 7 2.</_></rects>
      <tilted>0</tilted></_>
    <_>
      <rects>
        <_>
          6 3 11 6 -1.</_>
        <_>
          6 5 11 2 3.</_></rects>
      <tilted>0</tilted></_>
    <_>
      <rects>
        <_>
          6 8 12 8 -1.</_>
        <_>
          10 8 4 8 3.</_></rects>
      <tilted>0</tilted></_>
    <_>
      <rects>
        <_>
          6 9 12 5 -1.</_>
        <_>
          10 9 4 5 3.</_></rects>
      <tilted>0</tilted></_>
    <_>
      <rects>
        <_>
          6 9 12 6 -1.</_>
        <_>
          10 9 4 6 3.</_></rects>
      <tilted>0</tilted></_>
    <_>
      <rects>
        <_>
          6 10 6 12 -1.</_>
        <_>
          6 10 3 6 2.</_>
        <_>
          9 16 3 6 2.</_></rects>
      <tilted>0</tilted></_>
    <_>
      <rects>
        <_>
          6 11 2 14 -1.</_>
        <_>
          6 18 2 7 2.</_></rects>
      <tilted>0</tilted></_>
    <_>
      <rects>
        <_>
          6 13 12 3 -1.</_>
        <_>
          10 13 4 3 3.</_></rects>
      <tilted>0</tilted></_>
    <_>
      <rects>
        <_>
          7 1 8 12 -1.</_>
        <_>
          7 5 8 4 3.</_></rects>
      <tilted>0</tilted></_>
    <_>
      <rects>
        <_>
          7 1 13 12 -1.</_>
        <_>
          7 5 13 4 3.</_></rects>
      <tilted>0</tilted></_>
    <_>
      <rects>
        <_>
          7 3 1 15 -1.</_>
        <_>
          7 8 1 5 3.</_></rects>
      <tilted>0</tilted></_>
    <_>
      <rects>
        <_>
          7 5 16 18 -1.</_>
        <_>
          15 5 8 18 2.</_></rects>
      <tilted>0</tilted></_>
    <_>
      <rects>
        <_>
          7 9 6 10 -1.</_>
        <_>
          10 9 3 10 2.</_></rects>
      <tilted>0</tilted></_>
    <_>
      <rects>
        <_>
          7 9 9 6 -1.</_>
        <_>
          7 11 9 2 3.</_></rects>
      <tilted>0</tilted></_>
    <_>
      <rects>
        <_>
          7 15 13 10 -1.</_>
        <_>
          7 20 13 5 2.</_></rects>
      <tilted>0</tilted></_>
    <_>
      <rects>
        <_>
          7 18 13 4 -1.</_>
        <_>
          7 20 13 2 2.</_></rects>
      <tilted>0</tilted></_>
    <_>
      <rects>
        <_>
          7 20 11 2 -1.</_>
        <_>
          7 21 11 1 2.</_></rects>
      <tilted>0</tilted></_>
    <_>
      <rects>
        <_>
          8 0 13 15 -1.</_>
        <_>
          8 5 13 5 3.</_></rects>
      <tilted>0</tilted></_>
    <_>
      <rects>
        <_>
          8 1 1 8 -1.</_>
        <_>
          8 5 1 4 2.</_></rects>
      <tilted>0</tilted></_>
    <_>
      <rects>
        <_>
          8 1 8 9 -1.</_>
        <_>
          8 4 8 3 3.</_></rects>
      <tilted>0</tilted></_>
    <_>
      <rects>
        <_>
          8 2 8 6 -1.</_>
        <_>
          8 4 8 2 3.</_></rects>
      <tilted>0</tilted></_>
    <_>
      <rects>
        <_>
          8 6 9 17 -1.</_>
        <_>
          11 6 3 17 3.</_></rects>
      <tilted>0</tilted></_>
    <_>
      <rects>
        <_>
          8 7 8 9 -1.</_>
        <_>
          8 10 8 3 3.</_></rects>
      <tilted>0</tilted></_>
    <_>
      <rects>
        <_>
          8 8 1 16 -1.</_>
        <_>
          8 16 1 8 2.</_></rects>
      <tilted>0</tilted></_>
    <_>
      <rects>
        <_>
          8 9 9 5 -1.</_>
        <_>
          11 9 3 5 3.</_></rects>
      <tilted>0</tilted></_>
    <_>
      <rects>
        <_>
          8 10 8 6 -1.</_>
        <_>
          8 12 8 2 3.</_></rects>
      <tilted>0</tilted></_>
    <_>
      <rects>
        <_>
          8 20 9 4 -1.</_>
        <_>
          8 22 9 2 2.</_></rects>
      <tilted>0</tilted></_>
    <_>
      <rects>
        <_>
          8 24 9 1 -1.</_>
        <_>
          11 24 3 1 3.</_></rects>
      <tilted>0</tilted></_>
    <_>
      <rects>
        <_>
          9 6 6 6 -1.</_>
        <_>
          9 9 6 3 2.</_></rects>
      <tilted>0</tilted></_>
    <_>
      <rects>
        <_>
          9 7 5 6 -1.</_>
        <_>
          9 9 5 2 3.</_></rects>
      <tilted>0</tilted></_>
    <_>
      <rects>
        <_>
          9 7 15 2 -1.</_>
        <_>
          9 8 15 1 2.</_></rects>
      <tilted>0</tilted></_>
    <_>
      <rects>
        <_>
          9 15 11 6 -1.</_>
        <_>
          9 17 11 2 3.</_></rects>
      <tilted>0</tilted></_>
    <_>
      <rects>
        <_>
          9 19 8 3 -1.</_>
        <_>
          9 20 8 1 3.</_></rects>
      <tilted>0</tilted></_>
    <_>
      <rects>
        <_>
          10 0 6 24 -1.</_>
        <_>
          10 0 3 12 2.</_>
        <_>
          13 12 3 12 2.</_></rects>
      <tilted>0</tilted></_>
    <_>
      <rects>
        <_>
          10 4 10 10 -1.</_>
        <_>
          10 4 5 5 2.</_>
        <_>
          15 9 5 5 2.</_></rects>
      <tilted>0</tilted></_>
    <_>
      <rects>
        <_>
          10 6 10 2 -1.</_>
        <_>
          10 6 5 1 2.</_>
        <_>
          15 7 5 1 2.</_></rects>
      <tilted>0</tilted></_>
    <_>
      <rects>
        <_>
          10 7 4 6 -1.</_>
        <_>
          10 9 4 2 3.</_></rects>
      <tilted>0</tilted></_>
    <_>
      <rects>
        <_>
          10 13 6 2 -1.</_>
        <_>
          10 14 6 1 2.</_></rects>
      <tilted>0</tilted></_>
    <_>
      <rects>
        <_>
          10 13 12 4 -1.</_>
        <_>
          10 13 6 2 2.</_>
        <_>
          16 15 6 2 2.</_></rects>
      <tilted>0</tilted></_>
    <_>
      <rects>
        <_>
          10 15 6 10 -1.</_>
        <_>
          10 20 6 5 2.</_></rects>
      <tilted>0</tilted></_>
    <_>
      <rects>
        <_>
          10 16 9 9 -1.</_>
        <_>
          13 16 3 9 3.</_></rects>
      <tilted>0</tilted></_>
    <_>
      <rects>
        <_>
          11 0 12 2 -1.</_>
        <_>
          11 0 6 1 2.</_>
        <_>
          17 1 6 1 2.</_></rects>
      <tilted>0</tilted></_>
    <_>
      <rects>
        <_>
          11 0 13 18 -1.</_>
        <_>
          11 6 13 6 3.</_></rects>
      <tilted>0</tilted></_>
    <_>
      <rects>
        <_>
          11 2 2 22 -1.</_>
        <_>
          11 13 2 11 2.</_></rects>
      <tilted>0</tilted></_>
    <_>
      <rects>
        <_>
          11 4 3 15 -1.</_>
        <_>
          11 9 3 5 3.</_></rects>
      <tilted>0</tilted></_>
    <_>
      <rects>
        <_>
          11 5 10 6 -1.</_>
        <_>
          11 5 5 3 2.</_>
        <_>
          16 8 5 3 2.</_></rects>
      <tilted>0</tilted></_>
    <_>
      <rects>
        <_>
          11 8 12 9 -1.</_>
        <_>
          15 8 4 9 3.</_></rects>
      <tilted>0</tilted></_>
    <_>
      <rects>
        <_>
          11 13 12 6 -1.</_>
        <_>
          11 15 12 2 3.</_></rects>
      <tilted>0</tilted></_>
    <_>
      <rects>
        <_>
          11 17 10 3 -1.</_>
        <_>
          16 17 5 3 2.</_></rects>
      <tilted>0</tilted></_>
    <_>
      <rects>
        <_>
          11 19 12 6 -1.</_>
        <_>
          11 19 6 3 2.</_>
        <_>
          17 22 6 3 2.</_></rects>
      <tilted>0</tilted></_>
    <_>
      <rects>
        <_>
          12 0 3 3 -1.</_>
        <_>
          12 1 3 1 3.</_></rects>
      <tilted>0</tilted></_>
    <_>
      <rects>
        <_>
          12 5 3 15 -1.</_>
        <_>
          12 10 3 5 3.</_></rects>
      <tilted>0</tilted></_>
    <_>
      <rects>
        <_>
          12 6 9 12 -1.</_>
        <_>
          15 6 3 12 3.</_></rects>
      <tilted>0</tilted></_>
    <_>
      <rects>
        <_>
          12 7 4 12 -1.</_>
        <_>
          12 11 4 4 3.</_></rects>
      <tilted>0</tilted></_>
    <_>
      <rects>
        <_>
          12 9 6 14 -1.</_>
        <_>
          12 9 3 7 2.</_>
        <_>
          15 16 3 7 2.</_></rects>
      <tilted>0</tilted></_>
    <_>
      <rects>
        <_>
          12 11 6 1 -1.</_>
        <_>
          15 11 3 1 2.</_></rects>
      <tilted>0</tilted></_>
    <_>
      <rects>
        <_>
          13 2 8 8 -1.</_>
        <_>
          13 2 4 4 2.</_>
        <_>
          17 6 4 4 2.</_></rects>
      <tilted>0</tilted></_>
    <_>
      <rects>
        <_>
          13 4 6 18 -1.</_>
        <_>
          15 4 2 18 3.</_></rects>
      <tilted>0</tilted></_>
    <_>
      <rects>
        <_>
          13 5 6 16 -1.</_>
        <_>
          15 5 2 16 3.</_></rects>
      <tilted>0</tilted></_>
    <_>
      <rects>
        <_>
          13 15 10 3 -1.</_>
        <_>
          18 15 5 3 2.</_></rects>
      <tilted>0</tilted></_>
    <_>
      <rects>
        <_>
          14 2 6 21 -1.</_>
        <_>
          14 9 6 7 3.</_></rects>
      <tilted>0</tilted></_>
    <_>
      <rects>
        <_>
          15 1 3 24 -1.</_>
        <_>
          15 9 3 8 3.</_></rects>
      <tilted>0</tilted></_>
    <_>
      <rects>
        <_>
          15 8 8 10 -1.</_>
        <_>
          19 8 4 10 2.</_></rects>
      <tilted>0</tilted></_>
    <_>
      <rects>
        <_>
          15 11 8 4 -1.</_>
        <_>
          19 11 4 4 2.</_></rects>
      <tilted>0</tilted></_>
    <_>
      <rects>
        <_>
          16 0 2 11 -1.</_>
        <_>
          17 0 1 11 2.</_></rects>
      <tilted>0</tilted></_>
    <_>
      <rects>
        <_>
          16 1 3 24 -1.</_>
        <_>
          16 9 3 8 3.</_></rects>
      <tilted>0</tilted></_>
    <_>
      <rects>
        <_>
          17 7 6 11 -1.</_>
        <_>
          20 7 3 11 2.</_></rects>
      <tilted>0</tilted></_>
    <_>
      <rects>
        <_>
          17 11 6 14 -1.</_>
        <_>
          17 11 3 7 2.</_>
        <_>
          20 18 3 7 2.</_></rects>
      <tilted>0</tilted></_>
    <_>
      <rects>
        <_>
          17 12 2 11 -1.</_>
        <_>
          18 12 1 11 2.</_></rects>
      <tilted>0</tilted></_>
    <_>
      <rects>
        <_>
          18 7 4 10 -1.</_>
        <_>
          20 7 2 10 2.</_></rects>
      <tilted>0</tilted></_>
    <_>
      <rects>
        <_>
          19 8 6 8 -1.</_>
        <_>
          21 8 2 8 3.</_></rects>
      <tilted>0</tilted></_>
    <_>
      <rects>
        <_>
          19 10 6 7 -1.</_>
        <_>
          21 10 2 7 3.</_></rects>
      <tilted>0</tilted></_></features></cascade>
</opencv_storage>
