<?xml version="1.0"?>
<opencv_storage>
<stage11>
  <maxWeakCount>12</maxWeakCount>
  <stageThreshold>-8.7510061264038086e-01</stageThreshold>
  <weakClassifiers>
    <_>
      <internalNodes>
        0 -1 114530 -1.8694771453738213e-02</internalNodes>
      <leafValues>
        -8.3818769454956055e-01 1.5327380597591400e-01</leafValues></_>
    <_>
      <internalNodes>
        0 -1 76122 1.1542692780494690e-02</internalNodes>
      <leafValues>
        1.7667873203754425e-01 -6.6986125707626343e-01</leafValues></_>
    <_>
      <internalNodes>
        0 -1 82269 9.7622964531183243e-03</internalNodes>
      <leafValues>
        -5.5709034204483032e-01 2.5893867015838623e-01</leafValues></_>
    <_>
      <internalNodes>
        0 -1 155512 -1.0090391151607037e-02</internalNodes>
      <leafValues>
        -7.2610348463058472e-01 1.8907473981380463e-01</leafValues></_>
    <_>
      <internalNodes>
        0 -1 80444 -2.0252201706171036e-02</internalNodes>
      <leafValues>
        -8.4568023681640625e-01 1.1899679154157639e-01</leafValues></_>
    <_>
      <internalNodes>
        0 -1 139543 3.7720531225204468e-02</internalNodes>
      <leafValues>
        -2.3353491723537445e-01 5.5333870649337769e-01</leafValues></_>
    <_>
      <internalNodes>
        0 -1 183341 -6.6572884097695351e-03</internalNodes>
      <leafValues>
        3.1730884313583374e-01 -3.9420270919799805e-01</leafValues></_>
    <_>
      <internalNodes>
        0 -1 148581 3.5906009376049042e-02</internalNodes>
      <leafValues>
        -1.9486086070537567e-01 7.8503876924514771e-01</leafValues></_>
    <_>
      <internalNodes>
        0 -1 136021 -6.6711558029055595e-03</internalNodes>
      <leafValues>
        3.1753370165824890e-01 -5.0679171085357666e-01</leafValues></_>
    <_>
      <internalNodes>
        0 -1 110652 -1.0972352698445320e-02</internalNodes>
      <leafValues>
        3.7388160824775696e-01 -3.9971771836280823e-01</leafValues></_>
    <_>
      <internalNodes>
        0 -1 91552 1.3265160843729973e-02</internalNodes>
      <leafValues>
        2.1813504397869110e-01 -8.8266903162002563e-01</leafValues></_>
    <_>
      <internalNodes>
        0 -1 157382 -4.5519337058067322e-02</internalNodes>
      <leafValues>
        7.0327073335647583e-01 -2.3887588083744049e-01</leafValues></_></weakClassifiers></stage11>
</opencv_storage>
