<?xml version="1.0"?>
<opencv_storage>
<stage19>
  <maxWeakCount>12</maxWeakCount>
  <stageThreshold>-9.0377479791641235e-01</stageThreshold>
  <weakClassifiers>
    <_>
      <internalNodes>
        0 -1 134323 6.4244933426380157e-02</internalNodes>
      <leafValues>
        -3.8095238804817200e-01 3.2841327786445618e-01</leafValues></_>
    <_>
      <internalNodes>
        0 -1 132808 -3.9752461016178131e-02</internalNodes>
      <leafValues>
        4.1243535280227661e-01 -2.6060923933982849e-01</leafValues></_>
    <_>
      <internalNodes>
        0 -1 135663 -4.5936487615108490e-02</internalNodes>
      <leafValues>
        -8.2306402921676636e-01 1.4039179682731628e-01</leafValues></_>
    <_>
      <internalNodes>
        0 -1 139373 1.1796335456892848e-03</internalNodes>
      <leafValues>
        -1.9508264958858490e-01 6.1102688312530518e-01</leafValues></_>
    <_>
      <internalNodes>
        0 -1 135567 -1.3712054118514061e-02</internalNodes>
      <leafValues>
        3.3147817850112915e-01 -3.5180765390396118e-01</leafValues></_>
    <_>
      <internalNodes>
        0 -1 157632 -3.6520630121231079e-02</internalNodes>
      <leafValues>
        7.2536724805831909e-01 -2.2376741468906403e-01</leafValues></_>
    <_>
      <internalNodes>
        0 -1 73785 2.5658683851361275e-02</internalNodes>
      <leafValues>
        1.8298567831516266e-01 -7.3792624473571777e-01</leafValues></_>
    <_>
      <internalNodes>
        0 -1 71280 -2.3650266230106354e-02</internalNodes>
      <leafValues>
        -8.2696777582168579e-01 1.3753844797611237e-01</leafValues></_>
    <_>
      <internalNodes>
        0 -1 76093 1.9390959292650223e-02</internalNodes>
      <leafValues>
        -2.4265167117118835e-01 5.2608728408813477e-01</leafValues></_>
    <_>
      <internalNodes>
        0 -1 163206 2.1479677408933640e-02</internalNodes>
      <leafValues>
        1.4407803118228912e-01 -7.5706875324249268e-01</leafValues></_>
    <_>
      <internalNodes>
        0 -1 174072 -1.4937757441657595e-05</internalNodes>
      <leafValues>
        2.5697445869445801e-01 -3.9967471361160278e-01</leafValues></_>
    <_>
      <internalNodes>
        0 -1 175829 -1.5273458557203412e-03</internalNodes>
      <leafValues>
        -7.8260320425033569e-01 1.4426836371421814e-01</leafValues></_></weakClassifiers></stage19>
</opencv_storage>
