<?xml version="1.0"?>
<opencv_storage>
<stage2>
  <maxWeakCount>5</maxWeakCount>
  <stageThreshold>-1.4143548011779785e+00</stageThreshold>
  <weakClassifiers>
    <_>
      <internalNodes>
        0 -1 105689 -7.9944014549255371e-02</internalNodes>
      <leafValues>
        8.4662574529647827e-01 -6.0439562797546387e-01</leafValues></_>
    <_>
      <internalNodes>
        0 -1 89737 -1.2490788474678993e-02</internalNodes>
      <leafValues>
        6.1176431179046631e-01 -4.8234769701957703e-01</leafValues></_>
    <_>
      <internalNodes>
        0 -1 117765 -7.7141317888163030e-05</internalNodes>
      <leafValues>
        5.7997387647628784e-01 -4.7112691402435303e-01</leafValues></_>
    <_>
      <internalNodes>
        0 -1 167889 4.6120077604427934e-04</internalNodes>
      <leafValues>
        -4.9688038229942322e-01 5.4924809932708740e-01</leafValues></_>
    <_>
      <internalNodes>
        0 -1 18408 -1.6965406015515327e-02</internalNodes>
      <leafValues>
        6.4039576053619385e-01 -4.2152690887451172e-01</leafValues></_></weakClassifiers></stage2>
</opencv_storage>
