<?xml version="1.0"?>
<opencv_storage>
<stage2>
  <maxWeakCount>6</maxWeakCount>
  <stageThreshold>-7.8149354457855225e-01</stageThreshold>
  <weakClassifiers>
    <_>
      <internalNodes>
        0 -1 127954 -3.7698417901992798e-02</internalNodes>
      <leafValues>
        5.9408032894134521e-01 -7.0212763547897339e-01</leafValues></_>
    <_>
      <internalNodes>
        0 -1 62159 -1.2430327944457531e-02</internalNodes>
      <leafValues>
        6.4458519220352173e-01 -5.0165057182312012e-01</leafValues></_>
    <_>
      <internalNodes>
        0 -1 106905 -2.6713902130723000e-02</internalNodes>
      <leafValues>
        6.6926938295364380e-01 -4.1300839185714722e-01</leafValues></_>
    <_>
      <internalNodes>
        0 -1 190422 1.2488398169807624e-05</internalNodes>
      <leafValues>
        -3.7879839539527893e-01 6.2572371959686279e-01</leafValues></_>
    <_>
      <internalNodes>
        0 -1 97946 7.9549960792064667e-03</internalNodes>
      <leafValues>
        -4.7669228911399841e-01 5.7204276323318481e-01</leafValues></_>
    <_>
      <internalNodes>
        0 -1 90103 -3.2273456454277039e-02</internalNodes>
      <leafValues>
        6.8626171350479126e-01 -3.5692796111106873e-01</leafValues></_></weakClassifiers></stage2>
</opencv_storage>
