<?xml version="1.0"?>
<opencv_storage>
<stage7>
  <maxWeakCount>6</maxWeakCount>
  <stageThreshold>-6.5218937397003174e-01</stageThreshold>
  <weakClassifiers>
    <_>
      <internalNodes>
        0 -1 126764 3.2191582024097443e-02</internalNodes>
      <leafValues>
        -4.6666666865348816e-01 6.1725068092346191e-01</leafValues></_>
    <_>
      <internalNodes>
        0 -1 153364 2.0132264762651175e-04</internalNodes>
      <leafValues>
        2.8186008334159851e-01 -7.5205582380294800e-01</leafValues></_>
    <_>
      <internalNodes>
        0 -1 156544 -1.2727683410048485e-02</internalNodes>
      <leafValues>
        7.5505483150482178e-01 -2.5834158062934875e-01</leafValues></_>
    <_>
      <internalNodes>
        0 -1 101605 3.4531608689576387e-03</internalNodes>
      <leafValues>
        2.0477873086929321e-01 -9.3584501743316650e-01</leafValues></_>
    <_>
      <internalNodes>
        0 -1 61436 -4.3995119631290436e-03</internalNodes>
      <leafValues>
        5.3501588106155396e-01 -3.5423266887664795e-01</leafValues></_>
    <_>
      <internalNodes>
        0 -1 33894 1.2142702937126160e-01</internalNodes>
      <leafValues>
        1.8129974603652954e-01 -9.4883579015731812e-01</leafValues></_></weakClassifiers></stage7>
</opencv_storage>
