<?xml version="1.0"?>
<opencv_storage>
<stage3>
  <maxWeakCount>6</maxWeakCount>
  <stageThreshold>-9.9815249443054199e-01</stageThreshold>
  <weakClassifiers>
    <_>
      <internalNodes>
        0 -1 135194 -3.3188745379447937e-02</internalNodes>
      <leafValues>
        8.4957265853881836e-01 -5.1498126983642578e-01</leafValues></_>
    <_>
      <internalNodes>
        0 -1 136292 -1.6307279467582703e-02</internalNodes>
      <leafValues>
        5.0952649116516113e-01 -5.9188455343246460e-01</leafValues></_>
    <_>
      <internalNodes>
        0 -1 149121 2.9546111822128296e-02</internalNodes>
      <leafValues>
        -3.5953402519226074e-01 7.3468124866485596e-01</leafValues></_>
    <_>
      <internalNodes>
        0 -1 179419 -2.7017341926693916e-03</internalNodes>
      <leafValues>
        5.3496581315994263e-01 -5.2661907672882080e-01</leafValues></_>
    <_>
      <internalNodes>
        0 -1 62157 -8.1689823418855667e-03</internalNodes>
      <leafValues>
        6.2102091312408447e-01 -3.8366222381591797e-01</leafValues></_>
    <_>
      <internalNodes>
        0 -1 105762 3.1002320349216461e-02</internalNodes>
      <leafValues>
        3.1694382429122925e-01 -9.1559624671936035e-01</leafValues></_></weakClassifiers></stage3>
</opencv_storage>
