<?xml version="1.0"?>
<opencv_storage>
<stage4>
  <maxWeakCount>6</maxWeakCount>
  <stageThreshold>-1.0979818105697632e+00</stageThreshold>
  <weakClassifiers>
    <_>
      <internalNodes>
        0 -1 96526 -4.9004904925823212e-02</internalNodes>
      <leafValues>
        6.1538463830947876e-01 -6.4816999435424805e-01</leafValues></_>
    <_>
      <internalNodes>
        0 -1 133570 -8.4184650331735611e-03</internalNodes>
      <leafValues>
        6.4483922719955444e-01 -4.0129637718200684e-01</leafValues></_>
    <_>
      <internalNodes>
        0 -1 171826 -8.7494533509016037e-03</internalNodes>
      <leafValues>
        4.9778863787651062e-01 -5.1958411931991577e-01</leafValues></_>
    <_>
      <internalNodes>
        0 -1 97399 6.7251566797494888e-03</internalNodes>
      <leafValues>
        -6.1187368631362915e-01 3.4492012858390808e-01</leafValues></_>
    <_>
      <internalNodes>
        0 -1 107947 6.5198257565498352e-02</internalNodes>
      <leafValues>
        -4.2134585976600647e-01 5.4324048757553101e-01</leafValues></_>
    <_>
      <internalNodes>
        0 -1 144257 8.9165527606382966e-04</internalNodes>
      <leafValues>
        -4.6987837553024292e-01 5.8065038919448853e-01</leafValues></_></weakClassifiers></stage4>
</opencv_storage>
