<?xml version="1.0"?>
<opencv_storage>
<stage8>
  <maxWeakCount>11</maxWeakCount>
  <stageThreshold>-1.3408389091491699e+00</stageThreshold>
  <weakClassifiers>
    <_>
      <internalNodes>
        0 -1 110320 -7.6139178127050400e-03</internalNodes>
      <leafValues>
        3.5005223751068115e-01 -5.5747127532958984e-01</leafValues></_>
    <_>
      <internalNodes>
        0 -1 72934 -1.9953940063714981e-02</internalNodes>
      <leafValues>
        5.5992120504379272e-01 -3.1054282188415527e-01</leafValues></_>
    <_>
      <internalNodes>
        0 -1 162798 2.1665748208761215e-02</internalNodes>
      <leafValues>
        -2.5895288586616516e-01 6.1884540319442749e-01</leafValues></_>
    <_>
      <internalNodes>
        0 -1 138566 2.4857459357008338e-04</internalNodes>
      <leafValues>
        1.9046074151992798e-01 -7.5808018445968628e-01</leafValues></_>
    <_>
      <internalNodes>
        0 -1 24406 2.3711256682872772e-02</internalNodes>
      <leafValues>
        -6.0679209232330322e-01 2.3535698652267456e-01</leafValues></_>
    <_>
      <internalNodes>
        0 -1 150806 -3.1044349074363708e-02</internalNodes>
      <leafValues>
        -8.0224454402923584e-01 1.6601373255252838e-01</leafValues></_>
    <_>
      <internalNodes>
        0 -1 146015 -3.3324045944027603e-04</internalNodes>
      <leafValues>
        -6.6916918754577637e-01 1.9631811976432800e-01</leafValues></_>
    <_>
      <internalNodes>
        0 -1 159508 4.9086014041677117e-04</internalNodes>
      <leafValues>
        1.6404180228710175e-01 -7.5276148319244385e-01</leafValues></_>
    <_>
      <internalNodes>
        0 -1 177221 -7.0812646299600601e-03</internalNodes>
      <leafValues>
        7.2204148769378662e-01 -2.0992717146873474e-01</leafValues></_>
    <_>
      <internalNodes>
        0 -1 53450 4.8291985876858234e-03</internalNodes>
      <leafValues>
        -2.6833856105804443e-01 5.0634980201721191e-01</leafValues></_>
    <_>
      <internalNodes>
        0 -1 137983 1.0803198674693704e-03</internalNodes>
      <leafValues>
        1.7768965661525726e-01 -7.6975482702255249e-01</leafValues></_></weakClassifiers></stage8>
</opencv_storage>
