<?xml version="1.0"?>
<opencv_storage>
<stage10>
  <maxWeakCount>7</maxWeakCount>
  <stageThreshold>-6.0068470239639282e-01</stageThreshold>
  <weakClassifiers>
    <_>
      <internalNodes>
        0 -1 127062 1.8433947116136551e-02</internalNodes>
      <leafValues>
        -3.6211973428726196e-01 4.9842271208763123e-01</leafValues></_>
    <_>
      <internalNodes>
        0 -1 100269 -7.8231999650597572e-03</internalNodes>
      <leafValues>
        4.7574296593666077e-01 -3.1998413801193237e-01</leafValues></_>
    <_>
      <internalNodes>
        0 -1 48839 -6.5103664994239807e-02</internalNodes>
      <leafValues>
        -8.8952040672302246e-01 1.6845449805259705e-01</leafValues></_>
    <_>
      <internalNodes>
        0 -1 135091 5.5879358202219009e-02</internalNodes>
      <leafValues>
        -3.3042779564857483e-01 4.5606163144111633e-01</leafValues></_>
    <_>
      <internalNodes>
        0 -1 127117 -1.7931491136550903e-02</internalNodes>
      <leafValues>
        6.6314023733139038e-01 -2.5892001390457153e-01</leafValues></_>
    <_>
      <internalNodes>
        0 -1 116412 -4.8781875520944595e-03</internalNodes>
      <leafValues>
        5.1613008975982666e-01 -3.1826230883598328e-01</leafValues></_>
    <_>
      <internalNodes>
        0 -1 96575 1.5815636515617371e-01</internalNodes>
      <leafValues>
        1.8780994415283203e-01 -8.2645708322525024e-01</leafValues></_></weakClassifiers></stage10>
</opencv_storage>
