<?xml version="1.0"?>
<opencv_storage>
<stage14>
  <maxWeakCount>10</maxWeakCount>
  <stageThreshold>-1.0370157957077026e+00</stageThreshold>
  <weakClassifiers>
    <_>
      <internalNodes>
        0 -1 6965 -4.7899857163429260e-02</internalNodes>
      <leafValues>
        2.9196336865425110e-01 -5.0746268033981323e-01</leafValues></_>
    <_>
      <internalNodes>
        0 -1 19419 -6.2177784740924835e-02</internalNodes>
      <leafValues>
        4.1801708936691284e-01 -2.9732039570808411e-01</leafValues></_>
    <_>
      <internalNodes>
        0 -1 74331 2.3992702364921570e-02</internalNodes>
      <leafValues>
        1.4720930159091949e-01 -7.9831284284591675e-01</leafValues></_>
    <_>
      <internalNodes>
        0 -1 117350 6.5512959845364094e-03</internalNodes>
      <leafValues>
        -3.7586751580238342e-01 3.2720297574996948e-01</leafValues></_>
    <_>
      <internalNodes>
        0 -1 93243 -1.4071819372475147e-02</internalNodes>
      <leafValues>
        -8.4264230728149414e-01 1.1383830755949020e-01</leafValues></_>
    <_>
      <internalNodes>
        0 -1 65057 3.0686070676892996e-03</internalNodes>
      <leafValues>
        -2.9362732172012329e-01 3.8686624169349670e-01</leafValues></_>
    <_>
      <internalNodes>
        0 -1 53003 6.5715759992599487e-03</internalNodes>
      <leafValues>
        -2.3963457345962524e-01 5.2616137266159058e-01</leafValues></_>
    <_>
      <internalNodes>
        0 -1 171899 -2.4091514205792919e-05</internalNodes>
      <leafValues>
        3.0751568078994751e-01 -3.7727400660514832e-01</leafValues></_>
    <_>
      <internalNodes>
        0 -1 96163 2.2308841347694397e-02</internalNodes>
      <leafValues>
        1.4177346229553223e-01 -8.4983956813812256e-01</leafValues></_>
    <_>
      <internalNodes>
        0 -1 131577 -6.4276807010173798e-02</internalNodes>
      <leafValues>
        -9.8844325542449951e-01 9.3066640198230743e-02</leafValues></_></weakClassifiers></stage14>
</opencv_storage>
